<?xml version="1.0"?>
<opencv_storage>
<opencv_ml_ann_mlp>
  <format>3</format>
  <layer_sizes>
    1260 15 10</layer_sizes>
  <activation_function>SIGMOID_SYM</activation_function>
  <f_param1>1.</f_param1>
  <f_param2>1.</f_param2>
  <min_val>-9.4999999999999996e-01</min_val>
  <max_val>9.4999999999999996e-01</max_val>
  <min_val1>-9.7999999999999998e-01</min_val1>
  <max_val1>9.7999999999999998e-01</max_val1>
  <training_params>
    <train_method>BACKPROP</train_method>
    <dw_scale>2.9999999999999999e-02</dw_scale>
    <moment_scale>1.0000000000000000e-04</moment_scale>
    <term_criteria>
      <iterations>3</iterations></term_criteria></training_params>
  <input_scale>
    1.8092622418832082e+02 -9.5892699052638627e-02
    2.8127735236619390e+02 -1.0765491327321949e-01
    1.1692651806625430e+02 -1.0106569165903319e-01
    2.0100885720460883e+02 -9.1300054240546005e-02
    9.0298566226043746e+01 -1.0166941893768063e-01
    4.0859517508203999e+02 -8.1815354354690603e-02
    2.0844183749214920e+02 -8.2085654782018749e-02
    4.3298594432016961e+02 -8.4874465813497960e-02
    2.3268731548610114e+02 -9.4723948359318008e-02
    2.6531819455495917e+01 -1.7544638259740822e-01
    3.2727266910847440e+01 -1.7813814358500599e-01
    2.0520118287468641e+01 -1.8196044714877629e-01
    4.0619845402429021e+01 -1.4393903544433528e-01
    1.3176712566701145e+01 -1.6287825854573770e-01
    5.3026901538233666e+01 -1.0202240440846551e-01
    3.0516890205035434e+01 -1.3492042781679722e-01
    3.8804145809484311e+01 -1.2779165217619784e-01
    2.9092399855819018e+01 -1.6462746814324225e-01
    5.6417628103990133e+01 -1.0973634533621782e-01
    9.2998888733926051e+01 -1.3327279529296471e-01
    5.1009979490893059e+01 -1.5008606489178991e-01
    1.1859276131867259e+02 -1.4593474734058523e-01
    3.7263898521406055e+01 -1.6105417021566323e-01
    1.2346233212254569e+02 -1.2458283715705723e-01
    7.1027485511668004e+01 -1.3872248421568226e-01
    1.5023629337813631e+02 -1.2199005002313776e-01
    6.5880944563931010e+01 -1.0352910894970438e-01
    9.4484977534242880e+00 -2.5579024913128079e-01
    1.2319490004969756e+01 -2.4512920917701175e-01
    1.0416797499622644e+01 -2.5691995991022532e-01
    1.5837205936390436e+01 -2.1225374483018661e-01
    6.7109692599451591e+00 -2.6659652658265615e-01
    1.9755469228694164e+01 -2.0055024951994313e-01
    1.2604644713699246e+01 -2.4918846821918797e-01
    1.5736533389540920e+01 -2.3515375365270375e-01
    9.7258448355711380e+00 -2.5724737219102756e-01
    2.8923836098811361e+01 -2.1699840903302098e-01
    4.4889482011775272e+01 -2.0280135291665374e-01
    3.6224172825608932e+01 -2.1638911469910524e-01
    1.0410339737433483e+02 -1.7289486119486450e-01
    3.6053782254759462e+01 -1.7311185346988442e-01
    1.2375221355734563e+02 -1.3987418836932169e-01
    4.2464490673090474e+01 -1.7099659344709633e-01
    4.5416864728381576e+01 -1.7289492534246736e-01
    3.0207934580311434e+01 -2.1248279461210015e-01
    1.6716058568169856e+01 -2.5402857631060533e-01
    2.2842677962731592e+01 -2.3509216092493335e-01
    2.2437854903397618e+01 -2.2627508328177898e-01
    5.9664614152920279e+01 -1.5164410591711505e-01
    2.9996195943623174e+01 -1.7326294134957057e-01
    8.3122009303711437e+01 -1.4432693314688816e-01
    2.4669721852728600e+01 -1.8915257385017101e-01
    2.4681197285048754e+01 -1.9770339592753075e-01
    1.8001438453563281e+01 -2.4908557504583123e-01
    9.2811682803611522e+00 -4.1910163972982800e-01
    1.5603592044898965e+01 -3.3218809174193659e-01
    1.4872496904286971e+01 -3.4915847553293194e-01
    3.5641687259771722e+01 -3.0029089907795470e-01
    1.4396580899753115e+01 -3.7643455771696549e-01
    3.5674792248834613e+01 -2.7759918193723132e-01
    1.5213548318769691e+01 -3.4133829849645897e-01
    1.7583339927202424e+01 -3.2609174558289966e-01
    9.3787052778888338e+00 -4.1850467006201314e-01
    5.5737862877808979e+00 -5.2506593980924221e-01
    8.9244149779125763e+00 -4.1357313320328354e-01
    9.2106703829955787e+00 -4.1146528183120229e-01
    1.4349156744034307e+01 -3.0190058962640354e-01
    7.8931248863258237e+00 -3.7425623145936032e-01
    1.2820700661221943e+01 -3.0287058824977842e-01
    8.6918741275086120e+00 -4.2800182346534849e-01
    8.8083668157150665e+00 -4.3828482614778769e-01
    5.5650193250015398e+00 -5.2776669399323550e-01
    1.7770291338172711e+01 -2.5640702248872133e-01
    2.5906135844118236e+01 -2.3312917921992554e-01
    2.9508785672402475e+01 -2.1438351441283546e-01
    8.4694074013351013e+01 -1.1103683859150476e-01
    4.9304230525009650e+01 -1.4192700383491644e-01
    1.9539583715251197e+02 -1.6332260152970798e-01
    3.5186380362697520e+01 -1.9795766323851310e-01
    3.2917170705477020e+01 -2.0485540789487219e-01
    1.8912416030961442e+01 -2.5218127148400882e-01
    1.7574733946478485e+01 -2.6006290178353669e-01
    2.3685346421750971e+01 -2.3907283872161561e-01
    2.6779228205819066e+01 -2.2280806118741148e-01
    9.8230091451278142e+01 -1.3883623510070733e-01
    4.3668572812529710e+01 -1.5194634251827638e-01
    1.3549710803214953e+02 -1.4833453709515229e-01
    3.2908259969617745e+01 -2.0942311260168736e-01
    3.0878928501589328e+01 -2.1578940414072964e-01
    1.8438795026687483e+01 -2.5442909296003674e-01
    5.4513026766558541e+00 -5.1671625770558272e-01
    1.0520636726952480e+01 -4.1681576938451109e-01
    1.1276509239824410e+01 -3.9516402898310138e-01
    1.7427963592338617e+01 -2.7180525681242435e-01
    9.3936821400105046e+00 -3.3675242680215073e-01
    1.1435678286680698e+01 -2.8814116231335823e-01
    7.9292686712012328e+00 -4.0978189683094307e-01
    8.1600630142063082e+00 -4.2161862641602388e-01
    5.3678655197403851e+00 -5.1982336677922736e-01
    8.6236015295078268e+00 -3.9566257467650795e-01
    1.0828645370019171e+01 -3.4672277102744870e-01
    1.2055923085045849e+01 -3.3387386420840903e-01
    2.3566012610033546e+01 -2.0769151067624819e-01
    1.6007228520551241e+01 -2.8478580761670097e-01
    3.2356907969638662e+01 -2.5869788694239398e-01
    1.3228382452930491e+01 -3.7507739699049419e-01
    1.2609677841298938e+01 -3.6182179933982095e-01
    8.7101216998454269e+00 -3.9674916024168277e-01
    1.8868253418817275e+01 -2.6287177212879914e-01
    2.3418513397187848e+01 -2.4376025624878592e-01
    2.4818207849335973e+01 -2.2727326357431810e-01
    9.1156960415609063e+01 -1.4540929975544509e-01
    4.5307315388813585e+01 -1.7095664033063371e-01
    1.2453400665805960e+02 -1.6343143124447207e-01
    3.1592101312412428e+01 -2.1335822870742091e-01
    3.3846100805321484e+01 -2.2402474450480808e-01
    1.9931478966469680e+01 -2.5776390105074193e-01
    1.9351117653419749e+01 -2.5736285500052275e-01
    2.2553078482415152e+01 -2.3883223368501216e-01
    2.4604183614434945e+01 -2.3623201088304752e-01
    8.9990447788591524e+01 -1.7868316824319586e-01
    2.8387852293714804e+01 -2.0557866480924980e-01
    8.0644478217664329e+01 -1.7843479560146150e-01
    3.3011620617252184e+01 -2.2632340449073440e-01
    3.9044631523948851e+01 -2.2876886572956698e-01
    2.1458690391312679e+01 -2.5524830511908780e-01
    9.2600223500611119e+00 -3.8722762134017374e-01
    1.1350131580283545e+01 -3.4998104238449979e-01
    1.2590571430901820e+01 -3.3974978139478623e-01
    3.4769254226817196e+01 -2.1988571063675599e-01
    1.7017901503211199e+01 -2.6288431459045830e-01
    2.4687833694431031e+01 -2.0699592790667209e-01
    1.1760533567292548e+01 -3.2856685856430745e-01
    1.1955780364101020e+01 -3.2751744539717609e-01
    9.2746656564822327e+00 -3.8270560100947643e-01
    9.0289609910917008e+00 -3.5123682342694995e-01
    1.2441601223769208e+01 -3.1139137894641222e-01
    1.3317016811415526e+01 -3.1196417570814783e-01
    4.3525910716880901e+01 -2.2446911943929915e-01
    1.8205323803172043e+01 -3.0236923746220740e-01
    4.1014908301815844e+01 -2.6023384475178979e-01
    1.4249373029725357e+01 -3.3039745054835995e-01
    1.4417850952199608e+01 -3.2088550332561294e-01
    8.9963886748256279e+00 -3.5531584613217765e-01
    1.6163868363837370e+01 -2.5691708510839023e-01
    1.9260776702161440e+01 -2.3302439744999059e-01
    1.9032757159422694e+01 -2.3633655248459121e-01
    3.6077969094478860e+01 -1.9574186361849050e-01
    1.4422515608039543e+01 -2.4935487915681612e-01
    2.8338536581223021e+01 -2.0094324512303863e-01
    1.8249107299308495e+01 -2.4008221216256317e-01
    2.3882863589686284e+01 -2.3407404604856344e-01
    1.6101210757682487e+01 -2.5696597752307487e-01
    1.1587098893607072e+02 -1.7198017612986222e-01
    1.8289090377053191e+02 -1.5784545048017071e-01
    1.2159692652175593e+02 -1.5461498458317324e-01
    1.7140805996199470e+02 -1.4891192128200800e-01
    3.9347055431062593e+01 -1.7661863281896611e-01
    1.6836536188432794e+02 -1.5185956744165607e-01
    1.2475322735202025e+02 -1.6916220167139190e-01
    2.1893575703439822e+02 -1.6756404171256564e-01
    1.1679433793274112e+02 -1.6648197755794097e-01
    7.6961544205569439e+00 -3.5055956271690059e-01
    1.1325181562522125e+01 -3.1261953111999585e-01
    1.1426556238251706e+01 -3.1673717604709223e-01
    2.0532363635333471e+01 -2.4662103949065026e-01
    9.7892736231665349e+00 -3.2159015117342965e-01
    1.7044927184469735e+01 -2.6133778289559262e-01
    1.0273088359145747e+01 -3.1629435999127048e-01
    1.0620612102381024e+01 -3.1197219860658915e-01
    7.6378728692858759e+00 -3.5075702000194720e-01
    4.1776928584541075e+01 -1.8804772075802964e-01
    9.8214386462602945e+01 -1.9663058317987370e-01
    6.6125218082651585e+01 -2.0041842158937076e-01
    8.9847318463691465e+01 -1.7779635511151340e-01
    2.5069970923692583e+01 -2.2055345186302028e-01
    8.2242443921059376e+01 -1.8058900925167687e-01
    5.5943632363033657e+01 -1.9694450791206233e-01
    6.8488151409577981e+01 -1.8734667432050975e-01
    4.0396815975801545e+01 -1.8729890841447056e-01
    8.8034399074196116e+01 -1.3236865588489505e-01
    1.7070445774970872e+02 -1.4411250181206531e-01
    8.7852974363625151e+01 -1.5940402666742623e-01
    1.8524408164734945e+02 -1.5320251023849182e-01
    3.9201756200339794e+01 -1.7157614629417237e-01
    1.0085121530536119e+02 -1.3679103530845652e-01
    4.4240091708209761e+01 -1.4666672166388031e-01
    8.2130221617686914e+01 -1.3150047464157813e-01
    7.4081928793071611e+01 -1.2749251177201454e-01
    1.2546525033320531e+01 -3.3696059011740187e-01
    1.6144448992526577e+01 -3.0088492587173998e-01
    1.2442373485646787e+01 -3.2183984543134586e-01
    2.0663787371988544e+01 -2.7460557317885409e-01
    6.5710850138086023e+00 -3.7715931547636811e-01
    1.6077035287106732e+01 -2.6104749941795080e-01
    1.0281314213622885e+01 -3.1010850796437811e-01
    1.2136149958287321e+01 -2.8393345633899797e-01
    1.2071669925132028e+01 -3.2737794775813017e-01
    2.1389415978012345e+01 -1.9358445856590850e-01
    4.0687723905171715e+01 -1.6496038835418070e-01
    4.3733542831583435e+01 -2.1187638173481932e-01
    7.7351375545594536e+01 -1.8924806018174911e-01
    2.7528469514568844e+01 -2.5638749633043967e-01
    8.7068252084827080e+01 -1.9837586730351850e-01
    2.6103879475295038e+01 -1.7629950011766832e-01
    3.2196695596420746e+01 -1.5890013021303331e-01
    2.1773944079458005e+01 -1.9006359573823300e-01
    5.9546264221787677e+00 -5.5127651572137715e-01
    6.4774919986493984e+00 -5.0320252052896841e-01
    6.2089112725020019e+00 -5.0180377375256791e-01
    8.3098179033507833e+00 -4.2082135769577600e-01
    3.9081667421840631e+00 -5.7394548882850582e-01
    9.4336283139510240e+00 -4.1186111041549012e-01
    7.1430011523121077e+00 -4.9925152561394481e-01
    7.9886796739923236e+00 -4.8098205299501362e-01
    6.0600440542829217e+00 -5.4581420349773113e-01
    1.5484140587505889e+01 -4.2572535607438183e-01
    2.3228439223008895e+01 -3.5726740570683541e-01
    2.2408662824827950e+01 -3.9294272797309127e-01
    6.5470544651086641e+01 -3.9154608904292520e-01
    1.9270270203819269e+01 -4.6839707545740739e-01
    4.6124888580560423e+01 -3.9942776022850468e-01
    1.4935146340867691e+01 -4.3188939191451869e-01
    1.7497318249780832e+01 -3.8425371023936949e-01
    1.4510653880138955e+01 -4.2383815234778394e-01
    9.3452090763780191e+00 -5.4772566731088201e-01
    1.4480466590967726e+01 -4.7536906965362941e-01
    1.4026108999475639e+01 -5.0528262523390577e-01
    2.9076664369230119e+01 -4.1233198942221955e-01
    8.8962084564415473e+00 -5.1418736344285221e-01
    1.6699864599375086e+01 -4.4562972414440516e-01
    8.6511916099444459e+00 -5.7466105079320717e-01
    9.7978577307129910e+00 -5.0719159961371152e-01
    9.2444803350885696e+00 -5.5745686109251535e-01
    7.5483810613456850e+00 -7.1447883107579080e-01
    1.2774647049832259e+01 -6.4614966498596238e-01
    1.0460462398377510e+01 -6.6349998236678409e-01
    2.3226234613902978e+01 -5.9700322921572724e-01
    8.9956952035530069e+00 -7.0101737780493278e-01
    1.3766476652667750e+01 -4.7642019915473427e-01
    7.6869317197401399e+00 -6.3015135078446816e-01
    8.2849158047529166e+00 -5.7799160025632734e-01
    7.3592307150462233e+00 -7.0896408804173427e-01
    5.5150019340704226e+00 -9.3699380379605235e-01
    6.7315464290597005e+00 -7.7179090029780251e-01
    6.2395986374409258e+00 -7.9774879432609980e-01
    9.0781595798063552e+00 -5.7240448090379992e-01
    5.4637099326466281e+00 -7.3774522099688189e-01
    7.8057473457697899e+00 -6.3413277366062326e-01
    6.2833605817437981e+00 -8.9809278167829265e-01
    6.8214766593055494e+00 -8.7845864685407227e-01
    5.4741652642529832e+00 -9.7044731318272415e-01
    1.0961825684198677e+01 -5.2529472914113273e-01
    2.0268274621540012e+01 -4.5347029799809196e-01
    1.9430244569618001e+01 -4.6345393274686464e-01
    4.1579047432134558e+01 -3.7002086563153036e-01
    1.1296619643755173e+01 -4.4256930269602224e-01
    2.2218394028906530e+01 -4.1942023790126204e-01
    1.0983425801633910e+01 -5.7363084358534200e-01
    1.1999239299963577e+01 -5.1000207932741892e-01
    1.0511707626562366e+01 -5.4164556184058399e-01
    1.0296880825969192e+01 -4.9563714577326007e-01
    1.5076937613472936e+01 -4.1618927641961839e-01
    1.5302698648393239e+01 -3.9055285697047248e-01
    4.0326615206207016e+01 -2.5752203237391463e-01
    1.6083151625657020e+01 -3.1771165966680598e-01
    3.6335576980454455e+01 -2.7807449502101411e-01
    1.4600074141803121e+01 -4.2286620283799670e-01
    1.3244122983145232e+01 -4.1544797818583840e-01
    1.0282147464296068e+01 -4.9397546151021543e-01
    5.7646065169138403e+00 -1.0331619094127495e+00
    9.1529653996678118e+00 -7.9876599464784159e-01
    9.0108766315445603e+00 -7.9820457827623759e-01
    1.4042793378611030e+01 -5.0062128364757719e-01
    7.1260746569262947e+00 -7.0322266249670784e-01
    8.5387877748287870e+00 -5.8489740011407587e-01
    6.3422649737527772e+00 -8.7769295867419839e-01
    6.7250010959119768e+00 -8.7287368385219166e-01
    5.6557496855927187e+00 -1.0421525318054321e+00
    5.8476024064007133e+00 -1.1278508839588146e+00
    7.1772827847153957e+00 -7.4946853227273158e-01
    7.6635402409260918e+00 -6.2557855161406639e-01
    1.3327550739594752e+01 -3.6079153372251421e-01
    9.4328821020055287e+00 -5.3124929358735029e-01
    1.5969676801666470e+01 -4.7009479909728319e-01
    8.5752853942861069e+00 -8.8881384300863731e-01
    8.3786869021837465e+00 -9.5103617780182492e-01
    5.9535554754992335e+00 -1.1555217548656183e+00
    1.1237342583688397e+01 -4.9210769932010962e-01
    1.5871130435229761e+01 -3.9064225651720785e-01
    1.6476708133175737e+01 -3.7639457110305724e-01
    4.8046581211728018e+01 -2.4670881576227302e-01
    2.0732672220963529e+01 -3.1033894640990589e-01
    3.7555322788266118e+01 -2.5874567085728811e-01
    1.4089319402695354e+01 -3.7455221158713298e-01
    1.4301299601308688e+01 -3.9705538674010793e-01
    1.1068572659505792e+01 -4.9452006195597703e-01
    1.1545034028183125e+01 -4.4797190039791523e-01
    1.5594018544746566e+01 -3.5751171475284133e-01
    1.6102580523779739e+01 -3.5499587479242417e-01
    5.8262411452412742e+01 -2.8246945976004995e-01
    1.9824894976313157e+01 -3.3221839148707344e-01
    4.0841702625284455e+01 -2.4727356313384091e-01
    1.5256737911859496e+01 -3.4140135535985872e-01
    1.5486693071295079e+01 -3.5306938925476439e-01
    1.1845900261600049e+01 -4.5947984236500533e-01
    5.1183836568472989e+00 -1.1255170917089035e+00
    7.8416079822084042e+00 -8.1084966145212334e-01
    8.8843908487270049e+00 -6.7356736056481248e-01
    2.1256929807326809e+01 -3.6508947275686687e-01
    1.0255194468571625e+01 -4.7275478189028414e-01
    1.6033907724466122e+01 -4.0669705260127215e-01
    7.0451696850609427e+00 -8.3459062111768667e-01
    6.0139644255168383e+00 -9.4180240920621094e-01
    5.1247147035887703e+00 -1.1210426511167759e+00
    5.6391965548741991e+00 -1.0560401954366410e+00
    8.3844958110282857e+00 -6.4771811176914085e-01
    9.2415594227395417e+00 -6.0856093776617481e-01
    2.6800824299133492e+01 -4.5879280788858934e-01
    1.1830764480734477e+01 -5.8848984438451890e-01
    2.8341485434117288e+01 -5.3874682267267804e-01
    9.9418019817676182e+00 -8.7323931445135061e-01
    7.9088566270905467e+00 -9.1571376619487310e-01
    5.6410314925895273e+00 -1.0673297578796108e+00
    9.3652180629899817e+00 -4.4491043566816868e-01
    1.1621217864353358e+01 -3.5724054715578346e-01
    1.0822753095239490e+01 -3.5614069912264862e-01
    1.9665745951588523e+01 -2.7737258494348482e-01
    9.9045738936416594e+00 -3.8327826698920514e-01
    2.2439605999983289e+01 -2.9362684408141682e-01
    1.1563253358907868e+01 -3.7971438963652715e-01
    1.2721814969335615e+01 -3.8601580158026993e-01
    9.4029203453084289e+00 -4.5497382271029507e-01
    6.9073577112484486e+01 -2.2487648250731640e-01
    8.8012832842716890e+01 -2.0097954752283884e-01
    6.0925594919508889e+01 -2.1734910607954278e-01
    9.9582422166686953e+01 -1.9995690392340398e-01
    3.4030127534947269e+01 -2.5902221493872274e-01
    1.2145417938703234e+02 -2.0466003771962935e-01
    7.9724749839331295e+01 -2.3568418937940414e-01
    1.1902889998428228e+02 -2.3117132395943754e-01
    7.9737388357058762e+01 -2.4201234990023346e-01
    4.5068616909579600e+00 -1.0262238149996923e+00
    6.8122562825149107e+00 -6.8535492672677290e-01
    6.8323693454080097e+00 -6.8587415054060141e-01
    1.0989935745451479e+01 -5.3901135454242244e-01
    5.7419626436821956e+00 -7.2280397620900760e-01
    9.4029120418032814e+00 -6.0257849175351752e-01
    5.2824638118457043e+00 -9.1402697348518069e-01
    4.8697005180880844e+00 -9.3139199555194629e-01
    4.4331644602139617e+00 -1.0307727269161615e+00
    2.5919960033850593e+01 -4.1655866761447713e-01
    7.4787483410978936e+01 -3.3574030971599883e-01
    5.4494767112684578e+01 -3.9251173826658720e-01
    6.8833255040637894e+01 -3.7842935156729895e-01
    1.8988476761051981e+01 -4.6065658951949640e-01
    4.4168416799146129e+01 -4.2832254202629944e-01
    2.7049810794450682e+01 -5.4634044039496987e-01
    3.7344125345144043e+01 -5.5508161705493431e-01
    2.1575373505239984e+01 -4.3817896127303396e-01
    4.8441940557173467e+01 -2.0765791146717061e-01
    9.6930328070697357e+01 -2.0138381837699848e-01
    8.6638074780423054e+01 -2.3596682125033017e-01
    1.5425069983081991e+02 -2.2724928424941501e-01
    3.7642240027866720e+01 -2.5498453260098242e-01
    1.1041460408490623e+02 -2.1789565271113651e-01
    4.0353140873167966e+01 -2.1964191055583493e-01
    5.6402234100435685e+01 -2.0339220264353416e-01
    4.5366740572739850e+01 -2.1284313253061610e-01
    7.7959281296079359e+00 -6.2264409445089375e-01
    1.0549292128344977e+01 -5.9661673897680378e-01
    8.1391145399388947e+00 -6.3029696346481323e-01
    1.2070580239699343e+01 -4.9554471081054730e-01
    4.8372097704521826e+00 -6.8749559053329057e-01
    1.0669783462764899e+01 -5.1482785362315786e-01
    7.2603799210323938e+00 -6.2328721138719267e-01
    8.9702585843747205e+00 -5.5331568256548425e-01
    7.7140033992503731e+00 -6.2221325485198942e-01
    3.8291856142332271e+01 -2.0775117670658547e-01
    5.8732136028546947e+01 -1.9865745179245112e-01
    4.7509509636018507e+01 -2.2012675096719506e-01
    1.1372117224284401e+02 -2.4246043100713408e-01
    3.4664796993570882e+01 -2.9530302151219678e-01
    1.1630808762033041e+02 -2.5198972493783950e-01
    4.2286746156958870e+01 -2.4407053430812689e-01
    5.2818354556531254e+01 -2.1070547598868081e-01
    3.6647531346214876e+01 -2.0871981064071346e-01
    6.9520809902934166e+00 -6.5570448294988071e-01
    8.3192029813653043e+00 -6.2588137695424251e-01
    6.8142343319299856e+00 -6.8507313898705346e-01
    9.7218922855587131e+00 -5.4434616492475107e-01
    4.6246462245130333e+00 -7.4544292447573457e-01
    9.3596145462897411e+00 -5.9119641457802130e-01
    6.7671998396615320e+00 -7.2176031906703042e-01
    8.0221971135552508e+00 -6.6799415004538909e-01
    6.7666955365177177e+00 -6.7856413829204021e-01
    1.1283016494983654e+01 -7.8054154943574316e-01
    1.8116439763132931e+01 -7.1066730989239657e-01
    1.4526045975407262e+01 -7.8780640213652897e-01
    3.4257755878703421e+01 -7.1240809471040500e-01
    1.2237488153459116e+01 -8.2743642717985511e-01
    2.2508129383177714e+01 -6.2721725046906085e-01
    1.0666194128031027e+01 -7.8361404285605041e-01
    1.2718315374639131e+01 -7.0643677098297974e-01
    1.0607571889429257e+01 -7.8521061550680105e-01
    7.2628126301779075e+00 -1.0381385373293974e+00
    1.0248512280167986e+01 -8.7583117200292804e-01
    8.6374521264675099e+00 -9.2522274019331019e-01
    1.3783103637102570e+01 -6.6522624727343926e-01
    6.9998925649246075e+00 -8.7262011033603448e-01
    1.0609884719606320e+01 -7.4415699382472089e-01
    7.2344830830948750e+00 -1.0408592850973817e+00
    8.0286294185647549e+00 -9.2650208814418433e-01
    7.1439337979968007e+00 -1.0576244181645438e+00
    9.3538116313335848e+00 -8.5631659438822461e-01
    1.4007042276946979e+01 -7.4780643387982093e-01
    1.1570827236463757e+01 -8.4673760063363568e-01
    2.9188952484193486e+01 -7.6005435890615058e-01
    1.1193990829664937e+01 -9.1110799363689332e-01
    2.2812613709779193e+01 -7.0872684295620225e-01
    1.0094793553472659e+01 -8.7842282227801627e-01
    1.1528895683669928e+01 -7.7274652882728656e-01
    9.2240828870984437e+00 -8.7432667800176656e-01
    6.9950788973319771e+00 -1.2275008522488526e+00
    8.6732080291007012e+00 -9.4192158072043486e-01
    7.6815980053188140e+00 -9.8013797199555641e-01
    1.2585248462762241e+01 -6.6981483565536670e-01
    6.7448373830775656e+00 -8.7604623040275986e-01
    1.0316195172974028e+01 -6.7648846130797691e-01
    7.3417172056384432e+00 -1.1402121513065422e+00
    8.1172722119905014e+00 -1.1161324513063355e+00
    6.9483280433156374e+00 -1.2451851437556973e+00
    7.7217185094272107e+00 -1.1371610803768557e+00
    1.3186638986211618e+01 -8.3632559837126530e-01
    1.2391618152498422e+01 -8.1701388900442329e-01
    2.5235505431174349e+01 -5.7547477155718019e-01
    9.7504313218028908e+00 -7.5104864090156076e-01
    1.6957783810755533e+01 -6.6839764793476697e-01
    8.9499617722623306e+00 -1.0043144188582995e+00
    9.8625341504645281e+00 -9.1340670569925253e-01
    7.5302351914332544e+00 -1.1298971761189103e+00
    7.2784745911781936e+00 -1.2796356655301200e+00
    1.0381226469768663e+01 -8.7061563601631509e-01
    1.0935810132034636e+01 -7.0231302947374008e-01
    2.1041214704678918e+01 -3.5763840630231503e-01
    1.1239291441421113e+01 -4.8580626009120698e-01
    2.0465208906125397e+01 -4.3614426423518726e-01
    9.4515463988765802e+00 -8.3089551315034460e-01
    9.5488663243156484e+00 -9.3702169225902865e-01
    7.2474525343772163e+00 -1.2206315975269242e+00
    7.0554102125995088e+00 -1.2945098784116056e+00
    1.0327217803047940e+01 -9.4414507758323363e-01
    1.0896029078560948e+01 -9.5577280956972788e-01
    2.4459141377554577e+01 -6.0997065416380314e-01
    9.8804809811777208e+00 -7.5199077830904371e-01
    1.4004326305396891e+01 -5.4998711238358067e-01
    9.2407496626795496e+00 -1.0595856494176610e+00
    9.9006635322685224e+00 -1.0896490866239976e+00
    7.0268712893538021e+00 -1.3059144592218210e+00
    7.2410334086667145e+00 -1.4897788428779268e+00
    9.3900919121964801e+00 -1.0570320312519299e+00
    9.8845113248364243e+00 -9.2805187560958791e-01
    2.1428830911893240e+01 -4.2216646307956734e-01
    1.2702289064684456e+01 -5.7209427144157177e-01
    1.8842187599528728e+01 -4.7847939886409557e-01
    9.7715075049346165e+00 -1.0293173727547154e+00
    1.0260516340817221e+01 -1.2201517248182006e+00
    7.2754319052562888e+00 -1.4974760713272863e+00
    7.0558861051250235e+00 -1.3076267031678996e+00
    1.0465499613067232e+01 -7.8338902181103398e-01
    1.1027636188126962e+01 -6.5630680266437880e-01
    3.4665193086904026e+01 -3.6763703431097927e-01
    1.6074920086547838e+01 -4.8472832733185861e-01
    3.1993591730130802e+01 -4.1884127901059720e-01
    1.1467099676019576e+01 -8.3686193416747534e-01
    1.0197671344714699e+01 -9.6359524219005999e-01
    7.0294632564827850e+00 -1.2698682880128718e+00
    7.2973367043055353e+00 -1.2470607307117718e+00
    1.1121725134752838e+01 -7.7506986996832639e-01
    1.1667164851619972e+01 -7.5773101060947057e-01
    3.5302647487918016e+01 -6.0659062196431035e-01
    1.5759962638426348e+01 -7.7174859255576822e-01
    3.0023235536716687e+01 -5.7284613450489263e-01
    1.1079576126108105e+01 -8.3460020331233553e-01
    9.8396298089499901e+00 -9.0127051799198266e-01
    7.0566194591362903e+00 -1.2155613584516765e+00
    6.8511585880772490e+00 -1.4820266743214787e+00
    9.2474248248075916e+00 -9.9249061387093207e-01
    1.0252514715060176e+01 -8.8658144334805145e-01
    3.5305891606905419e+01 -4.7760369017694904e-01
    1.7540419996603710e+01 -5.5970189583759744e-01
    3.2033923153504482e+01 -4.7750470845857479e-01
    1.0483711353630200e+01 -9.9270169508784423e-01
    8.4241353602212108e+00 -1.0968371751306059e+00
    6.9373538514134117e+00 -1.5002845734230172e+00
    6.8891435745287692e+00 -1.4478763704264894e+00
    1.0099724421362312e+01 -9.3404909226118193e-01
    1.0662299754449036e+01 -9.2882989725836251e-01
    2.8775222313266170e+01 -6.9882944197776953e-01
    1.2632112902807084e+01 -9.8456215087714227e-01
    2.6740972172208760e+01 -7.4071354140554979e-01
    1.0510435531352032e+01 -1.0726328228911464e+00
    9.1657049069435974e+00 -1.1529893261057678e+00
    6.8713870781764701e+00 -1.4693009306410802e+00
    6.9095111421699436e+00 -1.2377233784478896e+00
    8.1702148732899165e+00 -8.2147642619872263e-01
    7.7948097021187053e+00 -9.0640809320465887e-01
    1.1961413974559939e+01 -6.9218503759427130e-01
    7.4006362627876996e+00 -1.1111116132386190e+00
    1.3911303957428688e+01 -8.0286954486787443e-01
    7.7572156734004105e+00 -1.0556137844318974e+00
    7.9885604656398019e+00 -1.0609177805475418e+00
    6.7022846940305918e+00 -1.2829889318807171e+00
    4.3498350417664838e+01 -4.2475882538256443e-01
    5.8175102669779200e+01 -4.0859236576600516e-01
    4.2332026384933350e+01 -5.3150811498468631e-01
    5.5582278768389116e+01 -4.5539382278942420e-01
    1.9779015319027113e+01 -6.6292205112907587e-01
    5.6992318123094385e+01 -5.3300580171985601e-01
    4.2495974651552096e+01 -6.3577335269036794e-01
    6.5448202946680922e+01 -5.6448826998732404e-01
    4.2429349850722019e+01 -4.4524460356634499e-01
    6.3170574816914575e+00 -1.4646537586509472e+00
    7.6241149565995574e+00 -1.1153483919889702e+00
    7.2201999466597933e+00 -1.1769503400564181e+00
    1.0543133791387261e+01 -8.4167226603529877e-01
    6.3560601985776133e+00 -1.3227558014347758e+00
    9.2797447900160233e+00 -8.8816573888849581e-01
    6.6834034991502342e+00 -1.2622263010408779e+00
    6.6162460198346018e+00 -1.2155938364083367e+00
    6.2795429690983884e+00 -1.4714258169288736e+00
    3.8589755866658237e+01 -5.8656632060849367e-01
    5.6236762532650836e+01 -6.5881076087327106e-01
    2.8324276080516551e+01 -5.9169152215636134e-01
    5.5407091814467925e+01 -5.8554950196867395e-01
    1.3402083462268847e+01 -8.1363384814653927e-01
    3.7844181792204729e+01 -5.4225015333794435e-01
    2.8517239693253945e+01 -7.0654937562508313e-01
    4.2311422166086416e+01 -6.0044489605529150e-01
    4.0452374374863638e+01 -5.5673219470713420e-01
    3.8199165877508769e+01 -2.0452817978004800e-01
    7.4721586035247753e+01 -2.1192395174624420e-01
    6.6567262382208838e+01 -2.3560760274074680e-01
    1.4716299720376668e+02 -2.3502259735431813e-01
    3.6935176075432871e+01 -2.8647452276292373e-01
    9.8091827290865652e+01 -2.2730806148391855e-01
    3.2228181284173623e+01 -2.1156294571286216e-01
    3.8815135186312943e+01 -1.8201997387912028e-01
    3.2781854884160140e+01 -1.9784877478021409e-01
    6.2118141301829448e+00 -6.5197952375533164e-01
    8.9920229507962066e+00 -5.9350080989637521e-01
    6.9522390753129431e+00 -6.4414474318673209e-01
    9.9321448191959885e+00 -5.1431138990992409e-01
    3.8682977836119332e+00 -7.1345966859465382e-01
    7.4258925398064513e+00 -5.6175026276989537e-01
    5.4185076899950522e+00 -6.8451787802793918e-01
    6.1111197797452581e+00 -6.4139427459385712e-01
    5.9032665046448098e+00 -6.6922680303023152e-01
    4.1391508438286344e+01 -1.8930496568981559e-01
    4.4486550883450356e+01 -1.6909400608362865e-01
    3.7633854298492444e+01 -1.8118844658829583e-01
    1.5024640134436424e+02 -2.0808917492826806e-01
    4.8322083288729324e+01 -2.3287428488973730e-01
    1.7936496759951817e+02 -2.0560948806732904e-01
    7.9507815883138136e+01 -2.2325082706683033e-01
    9.0520710210345186e+01 -2.0586791023607950e-01
    4.7115680303177335e+01 -1.9291406457235497e-01
    9.3113744466560586e+00 -4.1999581149686205e-01
    1.0385670911986860e+01 -3.8517007887270072e-01
    8.9588155510250722e+00 -4.0794458901073660e-01
    1.3435688634547796e+01 -3.2490476579957683e-01
    6.1099885148301576e+00 -4.1414132164002637e-01
    1.6624434372535887e+01 -3.1735807318712200e-01
    1.0385129750163344e+01 -4.1137913977857699e-01
    1.3003503358233084e+01 -3.9476976206959219e-01
    9.9425802201956444e+00 -4.3428210851846977e-01
    8.5322493104530643e+00 -8.5868032547047790e-01
    1.1496666180475156e+01 -6.4268125268476317e-01
    1.0569507442028405e+01 -7.0568111993792471e-01
    2.3975292575152150e+01 -6.1279761308110470e-01
    1.1125202402335647e+01 -8.8053551438636912e-01
    2.5913438259822961e+01 -7.8396253584153341e-01
    8.2824341947171973e+00 -8.5196083460841598e-01
    9.8111362386822201e+00 -7.7957351314447632e-01
    7.8969282571906270e+00 -8.7141807543398886e-01
    5.8646813468132182e+00 -1.1918164476876107e+00
    8.1272593608808954e+00 -9.1499039535750992e-01
    7.4655535847522803e+00 -8.9766385900164680e-01
    1.0250327475110385e+01 -5.6915545990715088e-01
    5.8791422604243442e+00 -7.7622404801607892e-01
    8.7503339218450087e+00 -6.5519183152010119e-01
    5.7634021204204835e+00 -9.8841618010264609e-01
    6.0631137377359003e+00 -1.0106703690959071e+00
    5.8773929829247376e+00 -1.1916489352140998e+00
    1.1395927645942690e+01 -5.3873906060145405e-01
    1.3763723880989577e+01 -4.8704800626404515e-01
    1.1938679419472697e+01 -5.1551379279720844e-01
    2.6542843948420529e+01 -3.9808677527103681e-01
    1.5341539952693182e+01 -5.1207751234367282e-01
    5.1639696589903387e+01 -4.6925997273852210e-01
    1.7812665021187307e+01 -5.0392079776850107e-01
    2.0450251961038017e+01 -4.6703166500678955e-01
    1.2398849556668882e+01 -5.3991812622768487e-01
    7.6925501230572317e+00 -7.4867259624459648e-01
    9.2683530950413555e+00 -5.8070777456229183e-01
    8.2189654329358603e+00 -6.0477326061848846e-01
    1.4293825628711680e+01 -4.2683254402033427e-01
    9.1019462589863487e+00 -4.9134866366236313e-01
    2.4847240941401672e+01 -4.3095825210781069e-01
    9.7801163146877972e+00 -5.9621924017613648e-01
    1.0202424831102507e+01 -6.2526183663558110e-01
    7.5578761696535510e+00 -7.7053402307371555e-01
    6.2377051422127554e+00 -1.2739162724230764e+00
    8.3427351261543077e+00 -8.3506351544535451e-01
    8.1461738669122425e+00 -7.6825225123953589e-01
    1.2791226025207953e+01 -4.5405449351174715e-01
    9.2788596588622134e+00 -6.6401494227274094e-01
    1.6725505423099960e+01 -6.0083852666139281e-01
    8.3635437020098440e+00 -1.0539021524352126e+00
    8.0183173663061016e+00 -1.0841953083937710e+00
    6.3052981342786873e+00 -1.2958922133766346e+00
    6.3601935495153317e+00 -1.3674383592627140e+00
    8.0914748499536344e+00 -1.1067927579700028e+00
    9.5542139875278060e+00 -1.0347435599906345e+00
    2.4040714033574371e+01 -4.7362727772976304e-01
    1.0846797949932723e+01 -5.3966554628773622e-01
    1.3814179231270989e+01 -4.1984045917449281e-01
    7.9368220485125995e+00 -9.3459011522421498e-01
    7.5128601796546688e+00 -1.0968901565336169e+00
    6.2882893147898669e+00 -1.3567450350924124e+00
    8.3385904336775631e+00 -7.9125997683518934e-01
    1.2653725403894216e+01 -5.3935222424962048e-01
    1.0891263533306413e+01 -5.4098315669602171e-01
    2.0766332975542436e+01 -3.4854735380457436e-01
    1.3936090698633691e+01 -4.0713490047540996e-01
    3.8443703707644730e+01 -3.5240072716028314e-01
    1.3179824758988090e+01 -5.9441957331961193e-01
    1.2280380222677165e+01 -6.4956367228002831e-01
    7.8748235698970728e+00 -7.9981480064829891e-01
    7.8189683728534725e+00 -8.4516886413358749e-01
    1.1842315505497954e+01 -5.6177245190340575e-01
    1.3021927437295739e+01 -5.2691693948093221e-01
    3.1166581359383745e+01 -2.4299732287074038e-01
    1.7055633710446592e+01 -3.2615194225308564e-01
    3.2023340816786202e+01 -2.7944630431032075e-01
    1.1418940065820870e+01 -5.8028895466373487e-01
    1.0381372342170957e+01 -6.5830260270482754e-01
    7.7503460020207688e+00 -8.5902268226912992e-01
    6.0193727369894425e+00 -1.3455994257494488e+00
    8.0241176202948452e+00 -1.0146593168334728e+00
    9.4682079576138989e+00 -8.9559731117142716e-01
    2.8373991200127694e+01 -4.2285235814112848e-01
    1.5079088162442728e+01 -5.0389242324468719e-01
    2.4951280540402550e+01 -4.3598028495616198e-01
    8.9397120656185081e+00 -9.4381834559546329e-01
    7.9487868366026975e+00 -1.1365150545709770e+00
    6.0196425213747604e+00 -1.3701382907432764e+00
    5.8967506254425786e+00 -1.3319282744901455e+00
    8.9707500494854813e+00 -1.0034789662353598e+00
    1.0091963916360069e+01 -9.8312146154598623e-01
    2.4410519265094514e+01 -6.7731280089335488e-01
    1.1653843719148609e+01 -9.7007875181510184e-01
    2.2957765283805532e+01 -6.3645439099297940e-01
    8.8073157645156499e+00 -9.3298653219341265e-01
    8.0513215593233127e+00 -1.0057395979038168e+00
    5.8667839663396295e+00 -1.3371286174377079e+00
    7.6990639393242155e+00 -8.1601552704541336e-01
    1.1722236234223592e+01 -5.4980274404530616e-01
    1.2608802957737943e+01 -5.1260406612841902e-01
    4.4997425293733748e+01 -2.7896711461682600e-01
    2.2671823487701769e+01 -3.4001887386736246e-01
    3.9583502924011320e+01 -2.7239984846269133e-01
    1.1812032053416267e+01 -5.8565362730487913e-01
    1.0437716324830072e+01 -6.3062062061216340e-01
    7.6761577355048152e+00 -8.2536567701296737e-01
    8.1295465386862649e+00 -8.1647184076482482e-01
    1.1639551293693557e+01 -4.9039304110862669e-01
    1.2170289169970165e+01 -5.2013609647580150e-01
    3.9251441051674377e+01 -3.9310540184443904e-01
    1.7100014630171660e+01 -5.4637181282925096e-01
    3.8500769483136153e+01 -3.8794363099668228e-01
    1.1764639831866742e+01 -5.8428180852373601e-01
    1.0796872184449128e+01 -6.3106124582942835e-01
    7.7305081536252995e+00 -8.4433301309715258e-01
    5.5789907322291095e+00 -1.3578713895227770e+00
    5.9824794017214211e+00 -1.0734468353029898e+00
    6.1823222490511327e+00 -1.1910118033266019e+00
    9.0518029535282292e+00 -8.2391446869924834e-01
    5.7307545528685280e+00 -1.2826163845479994e+00
    9.6529723329301014e+00 -8.1175784329470813e-01
    6.7144384004852800e+00 -1.1362393475364567e+00
    6.8989265954778061e+00 -1.0748115118674380e+00
    5.6264615874437860e+00 -1.3706655346876142e+00
    2.7641877014840965e+01 -5.9096445395818753e-01
    3.0819800808570825e+01 -6.2251993716724596e-01
    2.0037087786807760e+01 -6.1845971823944224e-01
    3.9281362489700378e+01 -5.3955452450316055e-01
    1.2416966562637546e+01 -8.2458669953635444e-01
    4.4997956437755256e+01 -5.4103500880237632e-01
    3.3740553559066406e+01 -6.5953805849495606e-01
    7.0075192163647159e+01 -6.0162876143761634e-01
    3.6134240621048804e+01 -5.5214317055476858e-01
    6.9091705818440525e+00 -8.4967143254217614e-01
    9.4950399408006394e+00 -6.1277803213683213e-01
    8.0669438251165122e+00 -6.6530097428231494e-01
    1.4809070133937299e+01 -4.9538749711771729e-01
    7.2157373646562641e+00 -6.9266711103470435e-01
    1.4036298944730193e+01 -4.5828083340521569e-01
    8.1113685206482788e+00 -6.2196069806170851e-01
    8.0805297234500202e+00 -6.2837156677937211e-01
    6.7874326269565781e+00 -8.4790262389888671e-01
    3.8515240000053126e+01 -2.9320872599254633e-01
    7.5481923681230597e+01 -3.3200239399961168e-01
    4.9484486898177586e+01 -4.3047463548322928e-01
    8.3028042916592739e+01 -3.3389298450483679e-01
    1.9931348921612475e+01 -4.2943804495381116e-01
    6.2788654963375635e+01 -2.7776242202155876e-01
    3.8110784826562160e+01 -2.9148409928394992e-01
    5.6492878420397716e+01 -2.8716409951548072e-01
    3.6848425778198155e+01 -2.8412779847069114e-01
    2.3291388367165283e+01 -1.8021776767544370e-01
    2.7583106231708882e+01 -1.5362452378145255e-01
    2.3346287892294352e+01 -1.6281400127696261e-01
    7.6821841326278786e+01 -1.6710642010288687e-01
    3.4365195599404679e+01 -2.2452991085760804e-01
    9.9303195904720013e+01 -1.7839551289246688e-01
    4.6066259961529738e+01 -1.8289825917203836e-01
    4.4880317055205779e+01 -1.7334232079393413e-01
    2.4774456238965374e+01 -1.8211194379499374e-01
    7.0616821783781774e+00 -3.8138356151322483e-01
    9.9805423988940927e+00 -3.5024017444769295e-01
    8.9105282715695839e+00 -3.6791918686188696e-01
    1.3029714498281669e+01 -2.8175465301175395e-01
    5.5773963995423950e+00 -3.6241392471774331e-01
    1.2381354014897342e+01 -2.7941101524274831e-01
    8.5057846538551427e+00 -3.4084256231230992e-01
    8.9928341057684644e+00 -3.3474680099157988e-01
    7.0167094822753402e+00 -3.7779245812042456e-01
    2.2450290247309093e+02 -1.2780770019008902e-01
    2.4077852756544746e+02 -1.1580896281188702e-01
    1.1821155221869054e+02 -1.3702968818578060e-01
    2.5475349362002058e+02 -1.2541032155944717e-01
    6.9297913358080649e+01 -1.3918665525884627e-01
    3.9106025297589127e+02 -1.2229864393985544e-01
    1.6270905656048063e+02 -1.1195245278130532e-01
    4.1450894897204648e+02 -1.2177779837805539e-01
    2.7735676826422480e+02 -1.3795531851218906e-01
    1.4169374722783131e+01 -2.3524535222335144e-01
    1.4874450229303577e+01 -2.2400459155285216e-01
    1.1586048882691710e+01 -2.4238317568301790e-01
    1.8295785607651627e+01 -2.0933275273754773e-01
    7.6042681956681601e+00 -2.6218321397284389e-01
    2.0696727402734542e+01 -2.0304760328309837e-01
    1.3321455503376148e+01 -2.5114357774817925e-01
    1.7817979987541637e+01 -2.3868657340383029e-01
    1.4198270260357718e+01 -2.3987343106468631e-01
    8.0450218795646080e+00 -4.9165141790606703e-01
    9.7233765997862847e+00 -3.9894669275721406e-01
    9.4383439987577411e+00 -4.2443481873885658e-01
    1.6343446752052305e+01 -2.9373019192021155e-01
    1.1470546768738547e+01 -4.3091492354568484e-01
    3.0020823777704837e+01 -3.5377447304683018e-01
    1.2419840433471265e+01 -4.4901947415827120e-01
    1.3181577708904845e+01 -4.2956562580343294e-01
    8.1992811946129827e+00 -5.0169490852373710e-01
    5.6676278190363947e+00 -6.4587473174649956e-01
    8.8180973489050753e+00 -5.4557996365489625e-01
    8.0720313407576540e+00 -5.2276991239038517e-01
    1.1396372435620574e+01 -3.3066793220918345e-01
    8.9390287461963727e+00 -4.2644640766224490e-01
    1.4984340859296369e+01 -3.6699513709473347e-01
    7.1038256710965655e+00 -5.0727408463151868e-01
    7.1991012461024324e+00 -5.0879732559723323e-01
    5.7231049194415178e+00 -6.3472566872654312e-01
    1.5273924399244537e+01 -3.2818773259811068e-01
    1.9599023586901410e+01 -2.8817295285421923e-01
    1.6768018232589505e+01 -3.1409358251071173e-01
    4.6055026691800293e+01 -2.6667738136681146e-01
    1.8993346226872330e+01 -3.1427645909790780e-01
    5.2753204780743729e+01 -2.6936186501202497e-01
    2.0678729625694018e+01 -3.2213892738518152e-01
    2.3165667755458298e+01 -2.9591112422239041e-01
    1.5315056445301312e+01 -3.3354711107182244e-01
    8.8282867924201263e+00 -4.0042876862084675e-01
    1.1207230680915943e+01 -3.3852008177944620e-01
    1.1623461915531303e+01 -3.5158427206166476e-01
    3.0087083690935735e+01 -2.5866590898837821e-01
    1.5725173673494870e+01 -3.1848490570440552e-01
    3.2622496408572260e+01 -2.7000566892235806e-01
    1.1664619431581354e+01 -3.7946382260493178e-01
    1.1259504289230026e+01 -3.8403202600369357e-01
    8.6671232909669946e+00 -4.1134491322748035e-01
    5.9665602671393660e+00 -6.6884015866343649e-01
    9.0509289182938506e+00 -4.6099890300687091e-01
    8.2221035379463370e+00 -4.3749080255382911e-01
    1.1463393505418521e+01 -2.8940863666639760e-01
    1.0047511086305885e+01 -3.3736258492116117e-01
    1.9372184814660226e+01 -2.6927571406574280e-01
    1.0007805979814377e+01 -5.2693131639417035e-01
    8.7719137141597354e+00 -5.6763268168416847e-01
    5.9461730554324914e+00 -6.7192718243212957e-01
    5.6602980042151243e+00 -6.4316578070543118e-01
    1.0756754290804007e+01 -4.7699222511616757e-01
    1.2007810084178413e+01 -4.7273628525290057e-01
    3.4844916780979609e+01 -2.4400579332843605e-01
    1.6388209787430252e+01 -2.8365010522277823e-01
    3.0117222851481113e+01 -2.2662163424367956e-01
    8.5648708506297631e+00 -5.0773468751655837e-01
    7.0479678410642386e+00 -5.3949444628768950e-01
    5.6342060769995976e+00 -6.4109625354809752e-01
    9.8016398725278844e+00 -4.1066398514989094e-01
    1.4798628163902647e+01 -3.4245222060426889e-01
    1.5811850396282493e+01 -3.3817261758739459e-01
    4.6363012508334421e+01 -2.1564405153303440e-01
    2.5413062443509936e+01 -2.5315071760624619e-01
    5.4797900175287651e+01 -2.2769203355568615e-01
    1.4348768185414142e+01 -3.6743414346360048e-01
    1.2921450379749469e+01 -3.7809874712212793e-01
    9.5988888365017768e+00 -4.1875350565091463e-01
    8.8769471588517526e+00 -4.1521377325166398e-01
    1.3621733764875758e+01 -3.4417598414685813e-01
    1.4962572957326849e+01 -3.0806494594266121e-01
    3.7712460471083183e+01 -1.7117812448825534e-01
    2.1998904060676946e+01 -2.1021097572742117e-01
    4.5949209088294438e+01 -2.0755233331869902e-01
    1.4348489748857251e+01 -3.6788168292140933e-01
    1.2603331759427533e+01 -3.8219752618143316e-01
    8.7902867814327319e+00 -4.2086663111291001e-01
    6.1129524538021913e+00 -6.4167129067191386e-01
    9.6134225516829765e+00 -4.9358941649822663e-01
    1.0721218193529795e+01 -4.8591793215215145e-01
    2.8491058693002604e+01 -2.3128136911371613e-01
    1.9658646048835486e+01 -3.2369236142040636e-01
    3.6842997106220075e+01 -2.6737697615742911e-01
    9.4986933750287932e+00 -5.4346646695545353e-01
    8.2346218904160704e+00 -5.5547978030660228e-01
    6.0645924218513390e+00 -6.4459546374780752e-01
    5.9335254402090456e+00 -6.2766138773507640e-01
    1.1487690774489170e+01 -5.2405634731300221e-01
    1.0570916939531719e+01 -5.5868587884116783e-01
    2.9564277521580372e+01 -3.7472931613376637e-01
    1.4312251428510022e+01 -4.9089347525043792e-01
    2.8944079981870068e+01 -3.0557375177054991e-01
    9.5183808378017769e+00 -5.0374495241788253e-01
    8.7152672978597199e+00 -5.0589148648277149e-01
    5.9353533921803958e+00 -6.2470023739531655e-01
    9.0937695118698603e+00 -4.1468840974585214e-01
    1.3342494816912097e+01 -3.4925145015053372e-01
    1.4862122350584034e+01 -3.3140055447589306e-01
    4.2019071479807522e+01 -1.6966288304895166e-01
    2.8797024648826035e+01 -2.5271622653318965e-01
    4.1584669078586998e+01 -2.1748975851965632e-01
    1.2453965612361900e+01 -3.7301429940603487e-01
    1.1967680118047909e+01 -3.7278289036580897e-01
    9.0499394664852169e+00 -4.2151895150761143e-01
    8.9905171099736982e+00 -4.1057063906196045e-01
    1.2472792364971488e+01 -3.4341272878805940e-01
    1.3710001335351771e+01 -3.4409694142086633e-01
    5.0766295863405681e+01 -2.4837382708426223e-01
    1.9657743193698430e+01 -3.2063454268253794e-01
    3.9864527673666089e+01 -2.8546336964492874e-01
    1.2271808814388150e+01 -3.9398751216003347e-01
    1.1778743578977425e+01 -3.9287773566754364e-01
    8.6592924656622099e+00 -4.2266177917952646e-01
    5.2797659849353398e+00 -6.2018788414437609e-01
    7.8761962713497446e+00 -5.3402101605851837e-01
    6.1293066037826698e+00 -5.6666039947247304e-01
    1.1063064933565478e+01 -4.4105193322020475e-01
    5.8330654930702828e+00 -5.6751232147488284e-01
    1.5763835864724326e+01 -3.6945119193894016e-01
    8.1073405834304229e+00 -5.0043925417495827e-01
    8.0958886364214102e+00 -4.9381169684587467e-01
    5.3286216741831742e+00 -6.2097717813214803e-01
    3.2175306239355862e+01 -2.8466667072961499e-01
    6.5800917326343807e+01 -2.9341980429216796e-01
    2.7447144886432692e+01 -3.5633555530780536e-01
    6.1334248037824139e+01 -2.9541779338967672e-01
    2.0879764893876811e+01 -3.7810583598971748e-01
    1.0557170305920158e+02 -2.4170456451632408e-01
    5.5843525525271161e+01 -2.4720984184492686e-01
    8.2659490319110461e+01 -2.3148185558369880e-01
    3.2595310199966221e+01 -2.7890784059615747e-01
    7.4804912813783089e+00 -4.2562105660454547e-01
    1.0586404855295537e+01 -3.7002592572988929e-01
    1.0962920369007623e+01 -3.7525434943678909e-01
    2.1328725649542829e+01 -2.9033845142605197e-01
    9.6322807732093771e+00 -3.8578736842299044e-01
    1.6040343368799402e+01 -3.1574403022002429e-01
    8.7835259690094514e+00 -3.9785968659897974e-01
    8.8966281891783101e+00 -3.9078176258183722e-01
    7.2278788279119128e+00 -4.2489384438998973e-01
    4.6629858760512157e+01 -2.4272956789617850e-01
    1.0030191189738352e+02 -2.3925169076753433e-01
    8.0018618430918806e+01 -2.5843487699086037e-01
    9.4779751683464042e+01 -2.2384427630439610e-01
    2.5584517917923439e+01 -2.7820440919636580e-01
    7.0958918483307556e+01 -2.2285001388935180e-01
    4.4240938250888895e+01 -2.5573132895653095e-01
    6.1178080044079337e+01 -2.2854517680216183e-01
    4.2926918157931894e+01 -2.3945429159273299e-01
    9.4220427645269950e+01 -4.5417274913489153e-02
    6.3027478926788035e+02 -7.5406272241091990e-02
    2.7872676496733874e+02 -9.9075796124747886e-02
    6.2578563791403747e+02 -8.9781344018156212e-02
    8.4585556166192433e+01 -1.1171096975608577e-01
    3.3913202127535845e+02 -8.7466308332287704e-02
    1.2173250377842351e+02 -8.7944228594227875e-02
    2.4002056528315575e+02 -7.6564964071705252e-02
    8.9334145099710824e+01 -5.0304681272891241e-02
    1.3540475307896306e+01 -2.1949882133038112e-01
    1.9832900687977272e+01 -2.0848950422356693e-01
    1.4622583741657918e+01 -2.2224474252423276e-01
    2.3483577682036351e+01 -1.8621783239499359e-01
    7.1825477368888926e+00 -2.4665862381806797e-01
    1.7111629047688215e+01 -1.9816315317423455e-01
    1.1626030630166451e+01 -2.2507505978106832e-01
    1.2135426253087658e+01 -2.1278738090928342e-01
    1.2661955602793675e+01 -2.1940884677748829e-01
    1.4809001505075810e+03 -6.6711024712206676e-02
    8.8553622171821223e+02 -7.0904604617323716e-02
    1.8623267599002108e+02 -6.7232948453454136e-02
    2.7295966651904308e+02 -6.2953531757858644e-02
    1.1925082995422127e+02 -1.0380171452863379e-01
    4.5138896997998182e+02 -7.6232268166603112e-02
    2.9018900351354534e+02 -8.7745855239219323e-02
    8.8684891896322188e+02 -7.3911001775825033e-02
    1.7609098174531532e+03 -7.1203966137340077e-02
    1.5389936555393877e+01 -2.0063736779988961e-01
    1.5913299087404091e+01 -1.8026167741791713e-01
    1.4253429916216518e+01 -1.9051998566954692e-01
    2.0279379690427433e+01 -1.6221120035892836e-01
    7.9318744905615848e+00 -2.2633644596370017e-01
    2.5516951974306849e+01 -1.7620763011634419e-01
    1.5716330425288431e+01 -2.1823673317130787e-01
    2.2219502647519583e+01 -2.0227441119049031e-01
    1.5790020610183442e+01 -2.0410041700053444e-01
    1.4983451442160494e+01 -2.8881050422427418e-01
    2.5818207412131628e+01 -2.5618444491459313e-01
    2.3642799195406024e+01 -2.7678645052100570e-01
    7.4559284030400534e+01 -2.5234663365853055e-01
    2.1494941181298174e+01 -2.9518722172920908e-01
    4.6471979779343016e+01 -2.6197747633230428e-01
    1.5915487744736351e+01 -3.0122459305185217e-01
    1.9278446576656055e+01 -2.8112337150258659e-01
    1.4111389381483077e+01 -2.9597874977342353e-01
    8.1557948967041085e+00 -3.8764325149768653e-01
    1.4271363808066374e+01 -3.3896187611668793e-01
    1.4996070861972965e+01 -3.2897976516292204e-01
    4.0877406398701154e+01 -2.1966974890393465e-01
    1.5955002384071665e+01 -2.8459111550765004e-01
    2.6246147418705235e+01 -2.5964302870729711e-01
    9.2414453169505180e+00 -3.4154274034738902e-01
    8.8771322176414724e+00 -3.4954221845701139e-01
    8.0329703397012260e+00 -3.8378668301713026e-01
    1.7651869618814896e+01 -2.8040949623063000e-01
    2.2254081002677520e+01 -2.4225784699246847e-01
    1.9447461436846289e+01 -2.5772575856138696e-01
    5.6640531968732006e+01 -2.2917045912638406e-01
    2.1682865328958151e+01 -2.8304805618521101e-01
    5.6965089269673598e+01 -2.5171644347576888e-01
    2.2058242179398270e+01 -2.9209170839498966e-01
    2.8704637605583358e+01 -2.7126306077575041e-01
    1.9081926391822950e+01 -2.8508508417040540e-01
    1.0418548849309595e+01 -3.5650070704237963e-01
    1.2229393364513401e+01 -3.0311468799591801e-01
    1.2486620956014571e+01 -2.9960106740500109e-01
    2.6467797063440926e+01 -2.0607726110568916e-01
    1.5200386442943049e+01 -2.7427924608019577e-01
    3.0048726538822958e+01 -2.4727440343139814e-01
    1.2149386668977810e+01 -3.4314988156129511e-01
    1.1988366859157319e+01 -3.5183795224840964e-01
    1.0086867899776507e+01 -3.6654882856923632e-01
    9.5537120635310604e+00 -4.0246102847621107e-01
    1.9295991904196686e+01 -3.4261852214808408e-01
    1.9830238344637522e+01 -3.0744776163785331e-01
    6.1474742002385611e+01 -1.6909600462707813e-01
    2.8361571098320692e+01 -2.0404141983947793e-01
    5.9146491327160476e+01 -2.0599172884662281e-01
    1.3443772060942001e+01 -3.5241713964263482e-01
    1.1777595952917807e+01 -3.6458816651063708e-01
    9.4300042684436960e+00 -4.0169844460783000e-01
    8.8050856644008704e+00 -4.1491700620032923e-01
    1.4058669781604955e+01 -3.6100696297713769e-01
    1.6876537808766752e+01 -3.3727600831645688e-01
    6.4054507009648916e+01 -1.8461988565683871e-01
    1.6641949453670101e+01 -1.8470970709991832e-01
    3.0488197120775933e+01 -1.6988085684519338e-01
    1.1361575520322956e+01 -3.4618257880004061e-01
    9.6401793741664346e+00 -3.6332597938203937e-01
    8.4999257883378796e+00 -4.1117060130269417e-01
    1.1045873138476086e+01 -3.6377628491404890e-01
    1.5536057129239177e+01 -3.0396035210752687e-01
    1.7373478317063483e+01 -2.8969494155048758e-01
    5.0505715102688896e+01 -1.6975924449348601e-01
    2.9841205971800445e+01 -2.0466574583073441e-01
    4.4612435190733954e+01 -1.6868113160286158e-01
    1.6717951168765566e+01 -3.2803202745132876e-01
    1.4782753630875842e+01 -3.4329391799890158e-01
    1.0759948732713250e+01 -3.7108135577666163e-01
    1.0564981601223533e+01 -3.7686314714083752e-01
    1.4653565926148387e+01 -3.1776253407993782e-01
    1.6414706847969807e+01 -2.8867764702501575e-01
    4.0947457037450960e+01 -1.4884874747744217e-01
    2.7352826420612303e+01 -2.0874382566161029e-01
    4.4669961457265515e+01 -1.9034201035227311e-01
    1.5517959926515170e+01 -3.2651771874390051e-01
    1.3902293509231624e+01 -3.4860224246265181e-01
    1.0555953678592514e+01 -3.7865595164515370e-01
    1.0119047736033524e+01 -4.2294738374949231e-01
    1.5072736271809404e+01 -3.4674006375658140e-01
    1.7017353367382032e+01 -3.3085413404626474e-01
    5.8960025881783523e+01 -1.7868563335159671e-01
    2.9450661730549999e+01 -2.4865319243116962e-01
    4.5966279982053976e+01 -2.3686596004661800e-01
    1.2080983324835278e+01 -3.8081071211024831e-01
    1.1451882111749251e+01 -3.8162911883287454e-01
    9.6890236314948694e+00 -4.2530096419798841e-01
    9.0740236102561411e+00 -4.2915650932651661e-01
    1.3147001654589541e+01 -3.7469944473917316e-01
    1.3819523649133279e+01 -3.6593128421543547e-01
    4.4346499413554547e+01 -2.9046156945139567e-01
    1.7432680902425549e+01 -3.3851467893090820e-01
    2.9372881872217796e+01 -2.6967349986169326e-01
    1.0956412392055361e+01 -3.7670963173997291e-01
    1.0379609812463999e+01 -3.7659371616451559e-01
    9.0321113118833498e+00 -4.2607338731044830e-01
    1.1121077893336427e+01 -3.7025800730268021e-01
    1.4190584632546143e+01 -3.1322379821314489e-01
    1.5408500850758792e+01 -2.9656936188375960e-01
    5.4233288656972888e+01 -1.7089426050748593e-01
    2.9984118554036783e+01 -2.4124203757935728e-01
    4.3175440834592607e+01 -2.0350003671937361e-01
    1.4457285548422265e+01 -3.3409887131161892e-01
    1.4096071302427104e+01 -3.3711071449932151e-01
    1.1282531344737498e+01 -3.7543058703130577e-01
    1.1753603482080544e+01 -3.8197781687006416e-01
    1.4805442150826751e+01 -3.1499765115131068e-01
    1.5106924026003844e+01 -3.1364187480584232e-01
    4.3953128225121461e+01 -2.4418638194172707e-01
    1.9069485253482078e+01 -3.0651858938572429e-01
    3.6827926430852557e+01 -2.6346108699994347e-01
    1.3455210704405211e+01 -3.6045118376857865e-01
    1.3795561032826654e+01 -3.5681386110692126e-01
    1.1398185094832961e+01 -3.8866223631825603e-01
    7.8093592312276927e+00 -4.2913043219474117e-01
    1.0036576473091136e+01 -3.7861625759876699e-01
    9.7845328355316035e+00 -3.7571882936477796e-01
    1.6170996620353989e+01 -3.0790838187356878e-01
    8.9870781297803148e+00 -4.0319915083872182e-01
    1.8107024975796563e+01 -3.3715117885245760e-01
    9.3871591307103266e+00 -4.0819317338195926e-01
    9.2372805992238227e+00 -4.0132295414171071e-01
    7.7918695491109924e+00 -4.3301435091177914e-01
    4.5335782527114681e+01 -2.4114042321495291e-01
    7.6975094813900199e+01 -2.3688685062293119e-01
    5.2174271314399945e+01 -2.4190537669730350e-01
    7.2102338227377416e+01 -2.3855613203608092e-01
    2.5605150192303153e+01 -3.0585153660231368e-01
    8.1673046368877309e+01 -2.4664834427869339e-01
    5.5666793213786065e+01 -2.6535010875166859e-01
    8.7647659096769303e+01 -2.6192537375218361e-01
    4.8801048925379767e+01 -2.4852782102440582e-01
    9.5483218238505234e+00 -3.9152588236997293e-01
    1.2273039733753452e+01 -3.3930533647942007e-01
    1.1708709320920349e+01 -3.4581799873202562e-01
    1.9471126281146702e+01 -2.9366688262438151e-01
    1.0547765100725492e+01 -3.6371153077754764e-01
    1.6683297093421288e+01 -2.9964511753271450e-01
    9.9430630883403470e+00 -3.6187006270269167e-01
    1.0400391948615324e+01 -3.5627722989569999e-01
    9.2852394949174073e+00 -3.9000966373061230e-01
    7.0030798581764927e+01 -2.3980311273053720e-01
    9.6697748656265034e+01 -2.1848488644203781e-01
    6.8880814936576016e+01 -2.3434671765321324e-01
    9.4488212207492097e+01 -2.3700147376663119e-01
    2.6701204046121383e+01 -2.6434711670833094e-01
    8.3396790305388066e+01 -2.2919788082701945e-01
    5.2821089500453205e+01 -2.2673804776772921e-01
    9.1661584666392855e+01 -2.2251838699850451e-01
    7.5727988421286270e+01 -2.4638008311641282e-01
    9.8240892325612367e+02 -4.7921944819445533e-02
    2.5101933720571951e+03 -6.0083186498639092e-02
    4.0571688228616222e+02 -6.0786596295516783e-02
    3.7264441852818209e+02 -5.1409791736732248e-02
    1.4273375917080176e+02 -8.9067052236491098e-02
    3.3257956030515669e+02 -6.9992275910809990e-02
    1.9283264389805481e+02 -7.4672154484344985e-02
    3.8436865915199814e+02 -6.0699844696086337e-02
    8.9736657427122429e+02 -5.4022138691878177e-02
    1.5155507484585977e+01 -1.8069323498989762e-01
    2.2597022314765290e+01 -1.7625511633281793e-01
    1.8098295015579730e+01 -1.7574045159986454e-01
    2.7524317944336680e+01 -1.4734959672625900e-01
    8.2539218421216312e+00 -2.0249393949146785e-01
    1.9616697845054546e+01 -1.6950114250019235e-01
    1.2988300966041068e+01 -1.9334661015003385e-01
    1.6484587430750800e+01 -1.7273708500024054e-01
    1.5407010644134163e+01 -1.7422479091073870e-01
    1.3427401633484271e+04 -4.1541199110753019e-02
    9.6643671087121293e+03 -3.3404855973223950e-02
    1.4652198539835404e+03 -4.2766320753439169e-02
    1.2723301275177218e+03 -4.2717016345766572e-02
    2.4836516082248454e+02 -6.0074676205477136e-02
    9.4196289962652168e+02 -5.6105536663121139e-02
    4.9452973896798136e+02 -5.1256326829636406e-02
    2.1188999798305722e+03 -4.7763845794893928e-02
    1.1969581855857361e+04 -4.3454117649506158e-02
    3.1777695308123704e+01 -1.3255982824362433e-01
    4.7286440697133301e+01 -1.2349835608114722e-01
    3.2078306083256194e+01 -1.2911674574184895e-01
    5.3796366393768871e+01 -1.0434418991612486e-01
    1.5499449294114047e+01 -1.5680724588143261e-01
    3.6884387656005792e+01 -1.3492140324965846e-01
    2.1447879079404167e+01 -1.5650668424255407e-01
    3.0270897478818213e+01 -1.4560485427597822e-01
    3.1247188312820253e+01 -1.3553244175675505e-01
    2.0058743514671029e+01 -2.6388439940771224e-01
    3.1963194643882794e+01 -2.2049997663174914e-01
    2.8110666161707087e+01 -2.3114372543800196e-01
    8.0969747456679784e+01 -2.1077038044603297e-01
    2.3093926560630528e+01 -2.6720510779020440e-01
    4.7180076445919234e+01 -2.4638311768513244e-01
    1.6810089897088780e+01 -2.7967611632958223e-01
    2.2923126396815984e+01 -2.5817280252348807e-01
    1.9638463378510078e+01 -2.6882150743996425e-01
    8.4521263304770677e+00 -3.3537154810170194e-01
    1.4071869595119995e+01 -2.9799651974996588e-01
    1.4826529626107634e+01 -2.8793665755320996e-01
    3.5746691546763678e+01 -1.8999318639645893e-01
    1.4880594850821774e+01 -2.6121796417404036e-01
    2.0370654855681824e+01 -2.4136448264634319e-01
    9.3923541039892093e+00 -3.2089703064337655e-01
    9.3152815690485191e+00 -3.2127886815066220e-01
    8.3079099518327322e+00 -3.3486891273978009e-01
    3.4503242690852169e+01 -1.6639347197883778e-01
    5.6276204427322668e+01 -1.4833476384955338e-01
    4.6920914511501643e+01 -1.4396413343475856e-01
    1.8090053833759191e+02 -1.3824349659904406e-01
    4.5675373113989515e+01 -1.7385975028002101e-01
    1.0997028031119787e+02 -1.7068088188166983e-01
    3.5863117745440199e+01 -1.9458606355513244e-01
    4.7881889306895296e+01 -1.7974833610582963e-01
    3.4224254324289859e+01 -1.7197147557239936e-01
    1.9374088110220409e+01 -2.3834988447130481e-01
    3.3209554058059169e+01 -1.8972363891444688e-01
    3.4190988831589102e+01 -1.8258796824804066e-01
    1.1515852091207928e+02 -1.3397616602766699e-01
    3.9094951904645860e+01 -1.7322592774626039e-01
    5.7247537271367868e+01 -1.6556992312999921e-01
    1.8618207950661375e+01 -2.3394516420332251e-01
    2.0079545235722062e+01 -2.3490419079214636e-01
    1.7818242957573712e+01 -2.4375917336009398e-01
    1.0044190403822412e+01 -3.4607134556704461e-01
    1.8857212250593392e+01 -2.8860892938013372e-01
    2.0423210337835133e+01 -2.6442716631873608e-01
    4.9189629432844534e+01 -1.3963529402982161e-01
    2.8746073532092300e+01 -1.8021058145161284e-01
    3.9653793654003849e+01 -1.6907815491853292e-01
    1.3871469517805913e+01 -3.1354999345734658e-01
    1.2400040717568809e+01 -3.2245470918791885e-01
    9.8759993927369614e+00 -3.4687320780693681e-01
    9.7113785463450668e+00 -3.4408812455594873e-01
    1.5036008126159457e+01 -3.1007661958790134e-01
    1.8692711148092574e+01 -2.9216191251570145e-01
    6.6100334309850552e+01 -1.6478636753285641e-01
    2.3112527931092185e+01 -1.9926124458704314e-01
    2.9865436039446319e+01 -1.6525566526497956e-01
    1.3865910203187346e+01 -3.0951012887065499e-01
    1.2095334247527660e+01 -3.2443681714210471e-01
    9.6856006938192589e+00 -3.4386080179692380e-01
    2.0323055652459487e+01 -2.4241835909055157e-01
    4.6019957500269328e+01 -1.9372946658498585e-01
    4.7275634907705076e+01 -1.7802781535603271e-01
    2.5355825068890377e+02 -1.4442532966457222e-01
    6.8308260734863765e+01 -1.3453034206266229e-01
    9.5957380448178199e+01 -1.3925924363119688e-01
    2.4095776535230566e+01 -2.2932504202319376e-01
    2.2665928161101668e+01 -2.3807176229090990e-01
    1.8298949923097862e+01 -2.4910099604053990e-01
    1.7209521003147419e+01 -2.6009895839605818e-01
    3.5495124182250116e+01 -2.2021634132344153e-01
    4.0191052070461822e+01 -1.9884644344538635e-01
    1.9841484137243290e+02 -1.3823684793085766e-01
    7.3532187819876171e+01 -1.5130624935148596e-01
    1.3326973678311421e+02 -1.5862215799078239e-01
    2.7046349315132503e+01 -2.3160907993798632e-01
    2.2328995106834867e+01 -2.4708025306197953e-01
    1.6542215531061373e+01 -2.6470301342233515e-01
    1.1028673589201993e+01 -3.4812775210838681e-01
    1.6493887598609529e+01 -2.9349284405271503e-01
    1.8682781852883529e+01 -2.7979823593143266e-01
    7.4755179348572398e+01 -1.7640769481443525e-01
    2.7500104692012513e+01 -2.2698389750080886e-01
    3.6698088593641828e+01 -1.9765195078448880e-01
    1.3539555714423955e+01 -3.2289198280028902e-01
    1.2915621987389287e+01 -3.3018275447120216e-01
    1.0712831680577123e+01 -3.4975279917235697e-01
    9.7006244429759985e+00 -3.5164172397774773e-01
    1.4519422801956026e+01 -3.1154330888054133e-01
    1.4880669315607053e+01 -3.1198354388893651e-01
    3.9069394602922962e+01 -2.3709334917070979e-01
    1.7586879989060954e+01 -2.8580542543635645e-01
    2.8790216097861034e+01 -2.3235752572204160e-01
    1.1993831930124571e+01 -3.2899343761284400e-01
    1.1543636338811824e+01 -3.2729175725245269e-01
    9.6646277687550430e+00 -3.5207460313096905e-01
    1.9371619196563010e+01 -2.5727873849729999e-01
    3.6283354285440922e+01 -2.1385963237350458e-01
    3.8182235630741005e+01 -1.9714737178934069e-01
    1.8039819513636255e+02 -1.3299283349014338e-01
    7.7383822643404571e+01 -1.7655858071766886e-01
    1.2176681800065850e+02 -1.7560505157167861e-01
    2.2634949405476487e+01 -2.4647587030684492e-01
    2.1938691749511257e+01 -2.4964578176003491e-01
    1.8128272260778026e+01 -2.6420836591222624e-01
    1.9855282581122147e+01 -2.7311954649225401e-01
    3.5672599046761839e+01 -2.3825178799500810e-01
    3.3520226543422183e+01 -2.3678966964856310e-01
    1.1037038874696310e+02 -1.8575988556547451e-01
    3.4236431931325406e+01 -2.1291203508436660e-01
    7.8443439936319933e+01 -1.9787948575521774e-01
    1.8716623824684600e+01 -2.5418141036865571e-01
    1.8923351224907069e+01 -2.5798560462621661e-01
    1.7430768907814443e+01 -2.7624810101998765e-01
    8.6447603028523510e+00 -3.5238027112989417e-01
    1.1509581480780120e+01 -3.2014748199234788e-01
    1.0911939960921609e+01 -3.2456949123453793e-01
    1.7045461039232361e+01 -2.7267501230973701e-01
    1.0357690705404035e+01 -3.3400433851596117e-01
    1.8818008304540012e+01 -2.7441782696145034e-01
    1.0520158231831761e+01 -3.3979258868794543e-01
    1.0325694994045884e+01 -3.3826835705269315e-01
    8.6148154213813601e+00 -3.5425110956055950e-01
    4.4147771531244913e+01 -1.8885311084543280e-01
    7.3636316903703516e+01 -1.8933143109590850e-01
    4.8761379659592727e+01 -1.9870508872555359e-01
    7.3254420030842113e+01 -1.9943740702946541e-01
    2.7357138437301980e+01 -2.3684685776808548e-01
    1.1114412130376317e+02 -2.0538884254568787e-01
    7.3128322253136119e+01 -2.2124182767856984e-01
    9.5896423793673605e+01 -2.0266193520041978e-01
    4.5323628652820325e+01 -1.8013678528288143e-01
    1.4413306394502030e+01 -2.7993230985044010e-01
    2.1112067605806647e+01 -2.5153295626711769e-01
    1.8333988466815210e+01 -2.4987226985062619e-01
    3.6420431335048143e+01 -2.0737548038376763e-01
    1.5773757723497598e+01 -2.5756331223582107e-01
    3.2410660226442289e+01 -2.1099815541573680e-01
    1.5134178589241753e+01 -2.5510667893879052e-01
    1.5685324095068573e+01 -2.5623360488843133e-01
    1.4061728394946185e+01 -2.7829193840080929e-01
    1.1495859627539423e+02 -1.7895912351547535e-01
    1.7917340346995132e+02 -1.7971421605917084e-01
    9.7924030930437723e+01 -1.7110477959556011e-01
    1.7613000539097857e+02 -1.7198032267258415e-01
    3.9438205768065799e+01 -1.9415674912533426e-01
    1.2723088207750693e+02 -1.5435053002555943e-01
    9.0008464241555657e+01 -1.6802632099687415e-01
    1.3465898850285291e+02 -1.6849378821501446e-01
    1.1542816370082699e+02 -1.8570304909991775e-01</input_scale>
  <output_scale>
    5.2631578947368418e-01 4.9999999999999994e-01 5.2631578947368418e-01
    4.9999999999999994e-01 5.2631578947368418e-01 4.9999999999999994e-01
    5.2631578947368418e-01 4.9999999999999994e-01 5.2631578947368418e-01
    4.9999999999999994e-01 5.2631578947368418e-01 4.9999999999999994e-01
    5.2631578947368418e-01 4.9999999999999994e-01 5.2631578947368418e-01
    4.9999999999999994e-01 5.2631578947368418e-01 4.9999999999999994e-01
    5.2631578947368418e-01 4.9999999999999994e-01</output_scale>
  <inv_output_scale>
    1.8999999999999999e+00 -9.4999999999999996e-01
    1.8999999999999999e+00 -9.4999999999999996e-01
    1.8999999999999999e+00 -9.4999999999999996e-01
    1.8999999999999999e+00 -9.4999999999999996e-01
    1.8999999999999999e+00 -9.4999999999999996e-01
    1.8999999999999999e+00 -9.4999999999999996e-01
    1.8999999999999999e+00 -9.4999999999999996e-01
    1.8999999999999999e+00 -9.4999999999999996e-01
    1.8999999999999999e+00 -9.4999999999999996e-01
    1.8999999999999999e+00 -9.4999999999999996e-01</inv_output_scale>
  <weights>
    <_>
      8.9836289486556503e-02 2.1868934490375368e-02
      -8.9246131018594719e-03 1.6702518980230098e-02
      -1.3814767693355438e-02 -3.1271602170373079e-02
      2.3391776311341494e-02 1.6077268441500713e-02
      -3.1556203386319329e-02 3.7287522211073940e-02
      -3.7243750285301462e-02 5.5465143901482862e-02
      -2.1217071582704142e-01 2.6776856673321019e-02
      1.5254180357483701e-01 1.3522229403282524e-01
      4.2929133408249637e-02 -2.9815276456689032e-02
      1.8072376188836566e-02 -6.5266157653770071e-02
      -2.6458675071299793e-02 -4.7092000164020820e-02
      8.9555524083387864e-02 -5.1156953375636534e-02
      4.2000003606145656e-02 -1.3308727662705955e-01
      7.2748772289642050e-02 -1.6212439174421422e-01
      4.0692673016767357e-02 2.2105730780427413e-01
      4.1351480873083567e-02 1.3042992573176005e-03
      -7.8934767977670572e-02 1.6208653260669514e-02
      -1.5009719670151687e-02 3.0246094463133610e-03
      -5.5228925452583885e-02 4.3823559168612448e-02
      -3.0852582528815072e-02 3.9252213649037040e-02
      -1.0547938715888298e-01 2.6546186582148950e-02
      -1.3260917389378060e-01 5.1542149537578408e-02
      7.1824196978562196e-02 1.2196681093915732e-01
      3.8334743590410156e-02 -8.6012456521125213e-02
      1.3577275913569794e-02 -2.4749972751217274e-02
      -1.8049897695459883e-02 -3.5259489232618802e-03
      1.1102056690140258e-02 -4.6164622679060269e-02
      3.3203202894615390e-02 -9.6208032338812047e-02
      8.1425810994023837e-02 -2.0200606592777573e-01
      8.3880764828561070e-03 2.0204702011541290e-01
      1.0431386594053199e-01 2.9385193155637795e-02
      -3.0000924062286861e-02 1.6677328296002630e-02
      -3.0919477973102107e-02 -4.8807062533705016e-02
      -2.3506209495401380e-02 1.8098683654150082e-02
      -4.5164687323402904e-02 3.9141174380373830e-02
      -6.7276536103020076e-02 4.3011360886160283e-02
      -2.2778213836562852e-01 3.8996371689189416e-02
      1.7576624156310641e-01 1.7335777112137665e-01
      6.2472028847364330e-02 -5.7513076976598437e-02
      1.3715667592177508e-02 -4.9347894845574294e-02
      -7.7575997536727698e-02 -6.2236341653285690e-02
      8.0846821598627491e-03 -6.2422265404468158e-02
      2.8897437055606771e-02 -9.3014305648390569e-02
      1.1055363076066414e-01 -1.5659940580981965e-01
      1.9401765307741105e-02 2.8638883765732154e-01
      9.9912535244711498e-02 3.0392265738173888e-02
      -8.9613553283851344e-02 1.3124374066372709e-02
      -4.2341046211841128e-02 -2.2492959864465988e-02
      -1.1704206841390462e-02 1.0946339878480532e-02
      -4.1904907095623604e-02 3.2247741888352242e-02
      -7.9922029332992889e-02 4.5873305138179679e-02
      -1.9930383732406112e-01 2.0495850012374223e-02
      1.6248997380237154e-01 1.1333889785906542e-01
      3.7664399881683595e-02 -6.7530777052534186e-02
      1.4479854911744109e-02 -9.7727606917600310e-02
      -4.0940713880097589e-02 1.3907705160315061e-02
      3.1000474227046333e-03 -4.4762000192063597e-02
      3.2954674582715365e-02 -8.6860480806007237e-02
      8.9395382550875369e-02 -2.3212895091697922e-01
      5.6106499305200785e-02 1.8882548259652715e-01
      9.5829354009210416e-02 2.6933741143775992e-02
      -2.5825161224093698e-02 1.6226803844803718e-02
      -2.8543946171442149e-02 -3.0020369138722098e-02
      2.0716803122231019e-02 1.8561245566560275e-02
      -3.4789488365562678e-02 3.7970501613174890e-02
      -6.1743243814982383e-02 4.2431530358480719e-02
      -2.2835424763262380e-01 8.2421769969625094e-02
      1.5960256453007601e-01 7.2050922277381441e-02
      5.3685956345355373e-03 -7.7803913600742805e-03
      2.9174422143446430e-02 -1.8279046123547815e-02
      -1.0983482345399276e-01 -2.3534897510981451e-02
      6.3487144297669620e-02 -5.0724780033227751e-02
      7.0360742858899386e-02 -8.4485687152263136e-02
      -3.2958499333828870e-02 -8.1733944229465061e-02
      -1.3344607884860831e-03 1.3117492665167865e-01
      8.6566207100420234e-02 8.2284793603797490e-03
      -1.0772417262527484e-02 2.7625152988603175e-02
      -5.3682283435674868e-02 -9.4990062015739271e-02
      2.5890107443206630e-02 2.8990840316437561e-02
      -5.8934269757931410e-02 6.8364832099976292e-02
      -1.2236717834428033e-01 -5.8188073882388947e-02
      -2.8329715538075163e-02 -2.4487292825832129e-02
      1.6422990457887257e-01 4.6054812156700438e-02
      -8.7834827015883608e-03 -9.9793971498241887e-02
      3.0251513185624603e-02 -6.1007641461530482e-02
      -1.4398488379050756e-01 8.8843840570393504e-02
      -4.3013041542726983e-02 -4.8706672222136198e-02
      7.1862237776739529e-02 -6.9738288919862668e-02
      -9.3699441271422754e-02 2.2888833010084830e-02
      -3.9107761819972102e-03 1.3549227180199755e-01
      5.6791174430849738e-02 4.1252134072570102e-03
      -1.2809434359659602e-01 2.2659380381880957e-02
      -7.4745661598531646e-02 -4.2846999557447030e-02
      1.4098977814642275e-01 -7.5507319857661404e-02
      -4.3410808002034701e-02 5.6749136099436957e-02
      -3.6528111936297056e-02 -1.6998051096715591e-01
      -1.0982574717355037e-02 -2.8492254940202133e-02
      1.1534101159102708e-01 3.3848942709964178e-02
      2.8272669545022389e-02 -9.9323776670464187e-02
      2.7204097089108068e-02 -2.4696321951318340e-02
      -1.2848266988680129e-01 1.0740519075220045e-01
      -3.5634834580869058e-02 -2.0843789898834016e-02
      8.4100260556277631e-02 4.2531828480839445e-03
      -7.5571820804604992e-02 1.8911927401459454e-02
      -2.3774622114661647e-02 3.0184556320661346e-02
      5.2388431399511173e-02 6.2241508309664817e-03
      -1.5495866012506060e-01 1.4892512236566997e-02
      -9.2085642362384507e-02 -1.2134667896186292e-01
      2.0190772354950043e-01 -1.1083082686102369e-01
      -3.4822532124925067e-02 3.8637909489595980e-02
      -1.5119817220338767e-02 -1.4098594313338428e-01
      3.3439000240071022e-02 7.2284501898220834e-03
      1.1656494136586087e-01 7.6714860356128928e-02
      9.0790092559770077e-03 -1.1556005293091062e-01
      2.2355917132340395e-02 -1.0774427016016901e-01
      -9.1103822109552424e-02 1.4429680868952827e-01
      -9.5588455113896797e-02 -4.7510283789347879e-02
      5.3676255342907195e-02 -3.6753913899039183e-02
      -6.0902281033643160e-02 -6.5951710808345373e-02
      -3.1858237636722946e-03 1.6006083861765499e-01
      9.5633942981447326e-02 1.9271494244377109e-02
      -2.6607261649560277e-02 1.9631938595539657e-02
      -5.2586067070573513e-02 -4.7298663618967132e-02
      6.9955374096779266e-04 -3.6794161991814664e-02
      -4.9475601846990569e-02 4.9986568986572742e-02
      -7.7992404749698874e-02 2.7405588617885018e-03
      -1.2972393673900026e-01 2.4238099941138975e-02
      1.6161622781759821e-01 7.6150089118606018e-02
      9.6929566669081441e-03 1.9533408606874782e-02
      2.7951340748563622e-02 -2.6698367336587404e-02
      -7.9375153615375380e-02 -1.7363364838467902e-02
      4.6136895992565388e-02 -4.6316923057938386e-02
      6.5958931961680678e-02 -1.1989373381615501e-01
      -1.2478746680758851e-02 -1.0413597835766084e-01
      -9.7987652561703428e-03 1.2985012617941924e-01
      1.2038915218913504e-02 -1.0066854159156341e-02
      1.3540406443387559e-02 7.6029830401082559e-04
      7.0351890710476260e-03 -5.2608923250308970e-02
      2.0463267914302617e-02 1.2735076995795387e-02
      -1.8683987114413606e-02 5.0085983107855121e-02
      -1.5386665492148104e-02 1.6351223133934206e-01
      -7.1142823979663025e-02 8.0245023180721669e-03
      3.5780787294585573e-02 2.2309414736577281e-02
      1.9382011699633713e-02 2.9345148003761267e-02
      2.6331164614861152e-02 -8.6990555941863518e-03
      -3.3718787739529930e-02 -9.4281521411600830e-02
      7.5277107738970034e-02 1.9293531853265131e-02
      1.1319677796482656e-01 -3.0253135642464232e-02
      9.0698278653492073e-02 -1.2709847732974728e-02
      4.6665841449909817e-02 4.5364389189732436e-02
      1.4537565225858222e-02 1.6648151218404898e-02
      4.9791945368841559e-02 2.7373300694017839e-02
      6.3652372146807161e-03 -8.4406026378440482e-02
      -1.5058258029536309e-01 3.2740330572539410e-02
      -3.8264313693837704e-02 1.4867917904469455e-01
      -5.3396660362476173e-02 6.6273831988745813e-02
      1.7847499145210995e-02 9.8335238469233754e-03
      2.7527000898072529e-02 3.9599412244831232e-02
      1.5745260973297284e-02 5.8552209401018997e-02
      2.4169687780858023e-02 1.4760490487835410e-02
      -2.9740358484029204e-02 -8.1544723353304219e-02
      4.0814302385955757e-02 -5.0623256122930164e-02
      1.0085540903374703e-01 -7.3394110279631108e-02
      1.8736827212062751e-01 -7.3816504048917611e-02
      -4.8241301611394088e-02 7.0400107713051399e-02
      3.8297102709284388e-02 -2.0480539720334366e-03
      6.3304988112200020e-02 2.8066287133952164e-02
      6.6358872491223131e-03 -6.0666843529668384e-02
      -6.7252043363545039e-02 6.0128869532304764e-02
      -3.7470276341771663e-02 7.0856263150389232e-02
      -3.8809841156992125e-02 1.5961945660276384e-02
      -6.6439941321541837e-02 3.9773365039984569e-02
      6.4884342097229333e-02 5.7038289237908102e-02
      2.9683871969514589e-03 2.0056887230434788e-02
      1.9060252775298568e-02 9.1212423314202540e-03
      -5.1675233261005961e-02 -8.8596895401875583e-02
      5.5889130682102918e-02 -2.3622684472827733e-02
      5.0436139634306931e-02 -4.9793370180294075e-02
      1.4381161572316462e-01 -6.8779383608074132e-02
      -8.8147243445289444e-02 9.7341058327912663e-02
      5.1452579916439846e-02 -2.1355894892729987e-03
      -3.2998545128737357e-03 2.4099619106572868e-02
      -1.1010850413266861e-02 -4.3026578569851509e-02
      -4.9552340635364067e-02 1.1664760469733486e-01
      -4.7621313544885725e-02 6.2354423908543288e-02
      -1.0444853755686888e-01 8.1702263870783332e-02
      -9.0050333691331350e-02 -3.1265329320201762e-02
      8.6334519682680425e-02 6.2358491543691837e-02
      8.1768010771393757e-03 -9.3874556782129991e-03
      2.0960004685115243e-02 -2.7981943170996563e-02
      -1.5178223953147796e-02 1.6108051354100820e-02
      3.3540572005648903e-02 -2.0067792804907839e-02
      5.3842157817623720e-02 -1.1682063622807304e-01
      1.1090008584633915e-01 -1.5883867583041661e-01
      7.7943420852775835e-02 1.0636476517621860e-01
      2.1634117856681335e-02 -5.8484481785483688e-03
      9.7566253232175253e-03 -9.2619309690481009e-04
      1.5630574718910033e-02 -1.7863050179594390e-02
      1.8254412450165795e-02 1.1111914957763347e-02
      -1.4511750686114723e-02 3.3896099317165009e-02
      -3.8485025240133204e-02 1.0588741281132465e-01
      -8.7728207633772468e-02 3.6142086599121818e-02
      4.5644628709016186e-02 -7.9458675132295806e-02
      1.9878363666492788e-02 5.2213654757685107e-02
      3.5766426425931919e-02 1.3016854337262497e-02
      -1.6359877562377098e-01 -9.3623450047656182e-02
      -6.5668619880113431e-03 -1.0229637310414503e-02
      4.4675130764666830e-02 1.3126773815952438e-04
      4.1428064570733274e-02 7.0282472341952840e-02
      1.7198126374212500e-01 3.3191624904876565e-02
      -4.1841721728842360e-02 -1.1630307695654514e-02
      -3.1704845759799767e-02 4.1496920802027229e-02
      1.2517048940062768e-02 -7.4506171638026322e-02
      -2.8921877921700246e-02 -1.2987660572417209e-03
      -6.1028036304590826e-02 3.9838194278211884e-02
      -1.4755430167191460e-02 -2.5947507414763632e-03
      5.8954306125713458e-02 6.4854451247099251e-02
      6.9904396943559254e-03 1.8245784808124318e-02
      -2.8846874285854127e-02 -8.5686937223089593e-02
      4.4373249703812498e-02 -3.2567204348560434e-03
      -1.0821925663681509e-02 1.9124205874402927e-02
      -2.5161535359578015e-02 -6.0664289329330871e-02
      8.3127423979348386e-02 -3.8219647081141513e-03
      -7.6616064661460800e-02 7.5841725593810763e-02
      4.9845312992633589e-02 -4.4307784361280265e-02
      -7.5679736230250302e-02 4.7548094398622695e-03
      -7.1560142749297131e-02 3.4762051593386363e-02
      1.1831439406270503e-02 6.2201554619605554e-02
      4.8285177603081464e-03 -1.8115208590969923e-02
      -3.8731381229532437e-02 6.0195161376995085e-02
      -1.7219363262421046e-03 -3.2823014137824201e-02
      9.8924909485338164e-02 1.8403611915646140e-01
      -5.9950472443956307e-02 2.7350943488245464e-02
      1.5606816855454753e-02 -3.7269097661283113e-02
      4.1987313982691503e-02 2.2563610420183867e-03
      -8.0422232364766866e-02 9.0708097514622915e-02
      -2.3448352747077180e-02 -4.0729835439323167e-02
      5.0881834304888282e-02 -8.8882341301031953e-02
      1.4904855014702826e-02 1.0525306454402684e-02
      1.8968482263024986e-01 6.7785759279334404e-02
      1.2381609670877986e-03 -7.1914257394630390e-03
      -1.2654707010318897e-01 3.3833993224345625e-02
      -2.9530301084805990e-02 -8.1070637622257368e-03
      1.9117540145842957e-01 -2.0189365175811668e-02
      -4.7371691522872357e-02 4.0778438177953655e-03
      7.7186219802482369e-03 -5.3269434345621744e-02
      4.1642539090331832e-02 1.0420595588952525e-01
      4.4024674674922340e-02 -2.0211078508986353e-02
      -4.9744124229563515e-03 4.8656061876088822e-03
      4.1517334438114138e-02 -2.4178193941873830e-02
      -3.0895332295338886e-02 1.9378169845151075e-02
      -1.3012750410350995e-02 -6.7857946463209390e-02
      4.9951930697533425e-02 -1.7584552110703221e-02
      5.2012508428079807e-02 2.0676970768328969e-02
      9.5179943419403390e-02 4.5252808299217497e-02
      -2.7377450175880495e-02 4.6611079694582848e-03
      7.1104916158970341e-02 4.2902476385984850e-02
      -3.3055530535171712e-02 -9.2629696176778367e-02
      -6.1413895635824035e-02 -1.5459111510250487e-02
      -5.2341074395927785e-02 8.1900131835163675e-02
      -3.7878911637244814e-02 4.8596246821481733e-02
      2.4648290762055144e-02 5.9676304841877199e-02
      6.7724571085783170e-02 1.4104539874753002e-02
      2.2107506075485343e-02 9.3671282625042554e-02
      3.5381055042559686e-02 1.6236745418254647e-02
      -1.6126423805956655e-01 -1.1098996356152049e-01
      -8.6646822777153333e-03 -1.0910043932137957e-02
      3.7611339778692347e-02 9.5205566297132513e-04
      4.4244155404896970e-02 6.7493741244336852e-02
      6.5033819026799528e-02 -1.0576039336371639e-02
      6.3691425632270926e-02 9.4340039131619712e-03
      -2.7116778885995244e-02 3.4771774355016605e-02
      -2.5294665826875496e-02 -1.1008616837586804e-01
      2.8770080525371687e-02 3.6825906608237272e-02
      -5.7317509017599896e-02 8.9224701476068397e-02
      -8.8548105832662621e-02 -1.2893650073905300e-02
      -4.1096207343125822e-02 -3.5309130273766753e-02
      1.1033760526934877e-01 7.3961649377645822e-02
      1.7048754831440555e-02 -7.4493109747703317e-04
      3.0978954157455475e-02 1.2147179631476490e-02
      -8.7163302350500599e-02 2.5275745332831261e-02
      3.7086154493201268e-02 -5.4561578698746296e-02
      8.3543469314666996e-02 -9.7111103230807447e-02
      -4.4494684212833958e-02 2.0279369441882331e-02
      -7.9964564757916579e-02 1.2667149028114605e-01
      6.1284143611802823e-02 2.7273420620788472e-02
      -1.0691201221760904e-02 3.6276645095682528e-02
      1.2730832692768448e-02 -5.5948505640368330e-02
      -1.0994163932387417e-02 7.5720034721921993e-04
      -4.7429346300684967e-02 8.9478422580127365e-02
      -6.0987501037547749e-02 -4.7343120015782045e-02
      4.0159477984017276e-02 -8.4092666371642019e-02
      6.2241479435595264e-02 2.7033759065093244e-02
      2.1397274601206603e-02 3.3155281587189625e-02
      2.8322771123196418e-02 4.2267973763458332e-02
      6.4388634105159812e-02 -6.7717745063345075e-02
      5.0582276968216031e-02 -2.7386810418834125e-02
      7.6171895728086372e-02 3.6800246202458222e-03
      -5.0419292684965172e-02 4.4351028694673486e-02
      -6.9035997138178984e-02 -2.8848528559628269e-02
      1.1480488597679689e-02 -1.3198173610885180e-02
      -2.5812816080018477e-02 2.7058297869155600e-02
      -2.9127634269928990e-03 -1.5121743537834545e-01
      5.0367395269445822e-02 -7.8102371840917839e-02
      -3.2420485278361409e-02 7.3284440724918978e-02
      2.2680431802464721e-02 4.5911377855792350e-02
      5.8721753197982333e-02 -4.9570402973788716e-02
      -4.0502615939238462e-03 2.3964715890920432e-02
      1.2231370749208974e-02 -1.1341197091393988e-01
      2.3642849931139943e-02 -6.9155792702651868e-03
      -2.3672297509509238e-01 9.7846824739685395e-02
      -3.8256459123391311e-02 -2.2636461000521035e-02
      5.8980251773576409e-02 1.4078781088940923e-02
      3.6710248925062111e-02 3.2489856638411606e-02
      -5.2047325697038294e-02 2.3657966494463802e-02
      8.6082300198586120e-02 2.5110143717583130e-02
      -4.9415449777546423e-02 2.9028799383887641e-02
      -5.1530661394839389e-02 -1.4835055057900451e-01
      -6.3421614360677572e-03 -3.1092549584277762e-02
      -5.5785094717345940e-02 6.5656272969676258e-02
      -1.8649597529234428e-02 6.4014122250669728e-02
      -5.6065302462670538e-02 -1.8819801410171921e-02
      1.3146353429069779e-01 8.9887824241954573e-02
      2.7872131032880179e-02 -3.4267902694185677e-02
      2.6350654687056115e-02 -3.7005338012414089e-02
      -1.2901964118962744e-01 -2.4059226976018318e-02
      -6.6646372992064011e-03 -5.2336514672407651e-02
      7.1039494166316150e-02 -4.6441092157502924e-02
      7.0198581627364517e-02 -9.2123475722683937e-02
      2.6811546222438143e-02 1.3466384407076179e-01
      6.0734420789059274e-02 1.0701232744894448e-02
      -1.8476325794747093e-02 3.4924999520417034e-02
      -2.7687978711274389e-02 -9.4210485693670812e-02
      2.2654100620376712e-02 3.0781575946335515e-02
      -5.5420303201977099e-02 8.5517459728226941e-02
      -9.6680258849196857e-02 3.5031580639498794e-02
      -4.9267655847486776e-02 -1.0096883898240289e-02
      1.0818781643039671e-01 3.9212282387039853e-02
      2.6724369547991553e-02 4.0950759063834226e-02
      4.2157684788574505e-02 1.1381941105718316e-02
      -1.7972795661729834e-02 1.9047824926520546e-02
      3.8057266881886875e-02 -5.1625009929946335e-02
      1.1209976104036994e-01 -3.9726308215391651e-02
      1.2712625039557552e-02 5.3864130086426008e-02
      -4.8490920163178339e-02 2.1227937256110413e-02
      3.9897729256177024e-02 3.6934164655585217e-02
      7.4602162494718113e-02 3.8365952103617214e-02
      3.1069615842069125e-02 -3.3296997144045180e-02
      1.8338028518634402e-02 -2.6211691217408351e-02
      -4.0049055344263784e-02 1.0858531349138199e-01
      1.1606029588495976e-02 -3.0308099599194505e-02
      8.7662011243715532e-02 -1.1140278792771878e-01
      1.3826657806460066e-02 4.3304967696405822e-02
      3.8087531806947926e-02 1.1790816083947360e-01
      3.7334501247174093e-02 2.7884980574200888e-02
      7.0544729714586973e-02 -5.0191842562687231e-02
      -4.5738215550623823e-02 -2.9378602424465345e-02
      1.0533621199478188e-01 1.6079660587787706e-02
      -2.2757309925402223e-02 8.1826714885436844e-02
      -1.1744558066823305e-01 -3.1318142198756886e-02
      1.1083007357336791e-02 4.5249641747172366e-03
      1.4056400717526907e-01 2.4772566681149234e-02
      1.9262495481199300e-02 4.6400806086743927e-02
      -1.0740852645531686e-01 5.9064267334138998e-02
      -1.9473475531060332e-02 6.6527524773952226e-02
      2.6052055333874578e-02 1.9376864421801001e-02
      7.4437654081155227e-02 -7.8363163065023347e-02
      -7.8359653237368834e-02 -4.7262636001217844e-03
      -1.4757478148200954e-02 6.0860029502182340e-02
      2.6790974580829588e-02 2.5684280100489239e-02
      -7.9127942571459831e-02 -2.9775880059741994e-02
      -2.5296846669354972e-02 -1.9143495842179913e-02
      7.3121302734992427e-02 3.0178741049697866e-02
      1.3837917377135783e-01 7.3326851471076426e-02
      -9.5299703243556744e-02 -3.4251597793198606e-02
      1.9801268101096337e-02 1.7530699718941528e-02
      -9.3373510416763200e-02 2.3847212380372258e-02
      3.5819140260205364e-02 -1.8647376684082548e-01
      4.7477350413892783e-02 -1.8882021799356684e-02
      -1.5490643506897824e-02 5.9626749810006111e-02
      1.3185902633116652e-02 8.4233615538714182e-02
      3.1553860753519056e-02 -9.8642918857857712e-02
      5.1774752787523484e-02 5.0602627740101887e-02
      2.2631447822500303e-02 -4.2876419381580134e-02
      3.1194323610894761e-02 2.7771760831198176e-03
      -1.0400757214460898e-01 -4.4115529731558009e-02
      1.3899038968520069e-02 -4.7622459193470183e-02
      7.5125527910315695e-02 2.9597233344576092e-03
      9.9001650719459725e-02 2.8264629246281509e-02
      -4.9639784049795452e-02 7.3677379585168692e-02
      3.3345828291313863e-02 2.3655595238597258e-02
      -4.1607280775602926e-02 3.2930026031543116e-02
      8.8560922462451539e-03 -1.2773253711640570e-01
      -1.2897231047932743e-02 3.5669888803590608e-02
      -4.0824830244760406e-02 8.4409794513837400e-02
      -1.0157929732634512e-02 6.8416246835407493e-02
      3.8640487409866968e-02 -1.2512146328560387e-03
      2.8819277985587612e-02 1.5923711719081621e-02
      2.0991000837042816e-02 3.6975095718930998e-02
      3.8790182826662058e-02 1.2754803290529896e-03
      -4.2539764924264534e-03 2.1467861282186147e-02
      4.3111113674654415e-02 -4.7614217673282014e-02
      1.1245559737837231e-01 -4.2555321474660471e-02
      9.7801169265651633e-03 4.5882927608520079e-02
      -2.5244550941612414e-02 -9.3744031559568451e-05
      -3.6464511535426361e-02 1.3534520673662667e-02
      -2.2617201579022226e-02 -1.4777269967980796e-03
      6.5439911260371537e-03 -6.3867690905388852e-02
      1.5805302128177040e-01 -8.7762355760076152e-03
      -6.0003612565393404e-02 -5.6443507690751814e-02
      -1.0862607087103748e-02 4.5026980735251305e-02
      6.9486547803628465e-02 7.5652784740342496e-02
      1.4053081329053640e-01 4.5410831645290785e-02
      2.0988257190523080e-02 -2.5351338158450636e-03
      5.4532278528658010e-02 2.5390061691258674e-02
      -2.4538824489970180e-02 -4.9498693986989667e-02
      1.2969642784633105e-02 -4.2614545241417286e-02
      -2.2322044023821475e-02 -4.7103907413943553e-02
      -5.6462186578667646e-02 4.9047958365403641e-02
      -2.1352703573575563e-02 -1.6636997603880554e-02
      7.0428449379664498e-02 -1.1070663190784371e-02
      2.2731853697270089e-02 5.4668200142011257e-02
      3.7333144217912305e-02 -2.6512967899330230e-02
      -3.4718451252586047e-02 -5.7961328380981151e-03
      -9.7908428914849112e-03 6.7204947805356949e-02
      -1.3891723282101911e-02 -4.2583122877760504e-02
      7.3152665628307703e-02 -4.6680691143087927e-02
      -1.1152117992694913e-01 -1.0829176041613422e-02
      -1.2297159825891793e-02 2.3636241558624457e-03
      4.4052589560972799e-02 2.6521007508428035e-02
      4.4093204410264118e-02 6.1649493255159691e-04
      3.2554164498813251e-02 2.6726467080243947e-02
      3.9281434272051927e-02 -4.7596989318863081e-02
      1.2571773355030683e-01 1.1868880157848993e-01
      5.7286139369446189e-02 5.3653726777901749e-03
      -1.6836245156341129e-01 6.9571243676973581e-03
      -8.2542291281070851e-02 5.8883533564665108e-02
      1.0010960720379134e-02 8.4943176151886568e-02
      1.3319315767954365e-01 -5.0747917849369877e-02
      1.5027199593174809e-01 -5.6417647530692283e-02
      -5.2618813042684346e-03 -4.7769031695721808e-04
      1.1987164880908510e-01 9.1457451403430021e-02
      2.2800782629764926e-02 -2.6954564951896631e-01
      3.8604481831450706e-03 -5.3152277421627571e-02
      4.3679058387852292e-02 -4.1755494850726035e-02
      1.8363079158945528e-01 1.5887103342964154e-01
      -7.9547837226892765e-03 7.1125214776026902e-02
      -3.0846968056982855e-02 -1.6174612469099330e-02
      2.2368212745997786e-02 8.1356799842360508e-02
      8.2784828152024106e-02 8.9054043763632962e-02
      -2.2643750692616399e-01 7.5932350653139897e-03
      -3.5207904062873815e-02 5.8115664093513798e-02
      -4.3528012325699000e-02 1.5095096128783494e-01
      8.7047191161644111e-02 4.0862733231964779e-03
      3.6193515370545874e-02 -5.6526855110617696e-02
      1.5383727227104137e-03 1.4170027742888910e-01
      5.4244506956993628e-02 1.1930692912567400e-01
      1.3692467749501328e-01 -4.7302047633479512e-02
      2.3235703367065777e-02 4.4727702454572291e-02
      5.3468603519320708e-02 7.6202747276046300e-03
      1.1442608971596072e-01 5.6386024086411003e-02
      1.6836506638597436e-02 -2.3958155507193941e-02
      -5.1806431018292798e-02 -2.1862157427759252e-02
      8.8341829965722762e-02 7.6656614847466437e-03
      1.5313561119831637e-01 7.8195002159612018e-02
      -5.1604546289013516e-02 2.9421350912981575e-02
      1.1314647990154143e-02 3.7590275221014449e-04
      1.7523124581329704e-02 -2.1475683391889853e-02
      1.7407034315646550e-01 4.7234304077881173e-03
      -5.6184710882240634e-02 -7.6162102810309648e-02
      1.1768448135280406e-02 5.0726276113410330e-02
      5.0342125497179334e-02 8.6142793666035430e-02
      1.3597935207913261e-01 -1.2711232418178056e-02
      2.9937938114620406e-03 6.7488559721624097e-02
      8.7204522052996593e-03 -8.9361387303460472e-03
      8.1215557843122496e-02 5.3376800866648678e-02
      3.4140850083032047e-02 -5.3816718966887417e-02
      -3.1506468815894063e-02 6.7623975502987144e-03
      -2.4349978114903935e-02 2.8580006577151394e-02
      -9.4019372489282715e-02 -1.3096229356379799e-01
      5.9268742228823980e-02 1.5500823597746488e-02
      2.9700676335169578e-02 5.4249417793809623e-02
      1.4598278147609282e-02 7.7696410562790807e-02
      -4.7860670298287188e-02 -9.7104207076725534e-03
      -1.7019522582167781e-02 6.5435432924557798e-03
      -4.7368113109771418e-02 -1.1670438277155762e-01
      -4.7180737561408387e-04 -7.0850912563986151e-02
      -8.0331518796941642e-02 9.1976308056637188e-02
      -1.3967960298689002e-02 8.0371948861330811e-02
      4.8356228199386474e-02 2.2980849079249407e-02
      -2.7807844305317620e-02 -5.9735546875693303e-02
      -2.5398976044806724e-02 3.4069975815105132e-02
      6.0911216778221325e-02 -2.7827253579240697e-02
      -9.7514617406698773e-03 2.6328283577484214e-02
      -1.6213616204359191e-01 -1.4171985787618357e-01
      1.3416980534767420e-02 -3.5437504809730395e-02
      3.7448591521903142e-02 2.9001412868376479e-02
      4.7907428787795012e-03 1.4429510984517242e-03
      -6.0605755120178842e-03 9.8854046148174352e-03
      -2.8536412031497323e-02 5.4253152942682591e-02
      -2.3697904527554686e-02 7.5248026695420855e-02
      -9.5845757488424092e-04 -1.0116051975432762e-01
      -2.8343821086455879e-02 -1.2363387760981606e-01
      -1.0903797008363927e-02 7.6603373517910465e-03
      4.4418490523535949e-02 6.9329939835584622e-04
      5.0616350178927481e-02 7.1920203703595878e-02
      -2.5630359974673320e-02 9.6632371645617193e-02
      -5.5935662036057356e-02 -6.5358609426339805e-03
      5.3731510914123350e-02 -1.0539449420437153e-02
      2.1540591048412178e-02 -1.4496675886404586e-02
      -1.6761736461426982e-01 -2.8660540744322501e-02
      -4.2665957823869838e-02 3.8859442606859126e-02
      -1.3018037280592348e-02 1.2236778017968428e-01
      7.9769417675174273e-02 -3.6107746028850606e-02
      5.5526014877743023e-02 -4.9006890093122410e-02
      -1.5192880381725190e-02 2.0495191657923590e-02
      4.1500337082859134e-02 -5.3092302359044045e-02
      -8.7130067840005838e-03 -5.7987285678570914e-02
      3.9036009217030764e-03 -2.1919226327769676e-02
      6.2674053731566579e-02 1.3569298094830979e-03
      4.3109042574022018e-02 9.6992129950315115e-02
      8.8224266008858840e-03 1.5699995797861847e-02
      -9.4811228848272908e-02 -4.1225243574736732e-02
      1.1916793624483064e-01 5.1910219366362566e-02
      -8.7345751605012525e-02 1.6095724827734276e-02
      5.1660444974554257e-02 2.4024569874363289e-02
      -6.2960233760441020e-02 6.4472972526945713e-02
      4.3653985768603132e-02 -2.6560552122832466e-03
      1.1234323191253850e-01 5.7561387913128738e-03
      1.0188940525596686e-02 -9.7867626418775361e-02
      -3.7858838433064347e-02 4.0186303696116615e-02
      5.2350358272450652e-02 -2.0641573517076340e-02
      -2.1117286518727511e-02 -5.3803154263266359e-02
      4.7487351707908880e-03 6.7338746447380707e-02
      8.7750397680778566e-03 -7.3259010057199706e-03
      9.3890931273506090e-02 5.3313143191036486e-02
      3.5969369266276092e-02 -5.5858882644662697e-02
      -3.6660259862433479e-02 4.6258017555679534e-03
      -2.2989301513957755e-02 3.2975054495483970e-02
      -8.4857653681369299e-02 -1.0849854923398146e-01
      4.6366362001995093e-02 3.4361297718660054e-02
      5.5416078863798388e-02 4.0208199832717721e-02
      -8.4966316950870553e-04 6.9279931249665860e-03
      3.3683471302204435e-02 4.5273451836411157e-03
      -4.6786118824050864e-02 1.1820700952365192e-01
      -3.7558407554301891e-02 -2.6585562660929356e-02
      4.9384774955552338e-02 -6.3004888346990362e-02
      9.3027348239441820e-03 5.0633663731642721e-02
      3.5081861151488196e-02 1.2890979045274667e-01
      3.6586603056504449e-02 3.4285415295048596e-02
      -6.1968334133198202e-02 -4.7894311898314466e-02
      -1.8140376515140093e-02 -4.7061532306490649e-02
      1.0456134866828221e-01 1.2553661352235792e-02
      9.0554952883940373e-05 5.8477135267727368e-02
      -1.0871419774157916e-01 6.3965913472391819e-02
      3.2474595382269288e-02 2.3598393866371158e-02
      1.3569158606594456e-01 3.3719958008567960e-02
      4.4561098208408083e-02 5.6810510455286463e-03
      -1.4929383963476012e-01 4.0007492157022014e-03
      -3.9520499400461748e-02 9.3399263602387136e-02
      2.4153544000907631e-02 2.9037891221370283e-02
      7.5174066564997366e-02 -8.6062440048546421e-02
      -1.2921679676149886e-02 5.2313562552203574e-03
      -1.0182162510334970e-02 1.0942911242478494e-01
      1.6680169720997676e-02 -2.2530322068733545e-02
      -9.2572379022290291e-02 -4.0643461009294134e-02
      7.9257701349596907e-02 -2.3169929456850567e-02
      4.4091609766630187e-02 1.8036016206735384e-02
      7.2398477820549270e-02 5.4067933396185902e-02
      -6.3336594686929509e-02 -2.2074120882525784e-02
      -1.2724497426170380e-02 -1.6193485599052503e-02
      9.3449197614516033e-02 2.2799386641512064e-02
      4.1308135437148265e-02 -7.2150765883010295e-02
      -8.4051423467207384e-02 9.0019691032791879e-02
      -2.2307952918555144e-02 5.9323163647899455e-02
      2.2979476756399903e-02 1.3603898699749672e-01
      5.4294258879735269e-02 -1.0620894836242492e-01
      1.7070844929974155e-02 -6.0553064196487176e-03
      1.0570613376067309e-02 -3.5804806977239881e-02
      2.7767608694051014e-02 5.8966315049800336e-02
      -1.0243926698897705e-01 -2.6002702033503015e-02
      2.3979015629524647e-02 -3.2574552703752174e-02
      6.9166545905400487e-02 4.1007656098385947e-03
      9.1863857986150210e-02 7.6837069249924370e-03
      -1.3408923807912007e-01 1.8779238459904757e-01
      5.2271753892159233e-02 4.8475030105721365e-03
      -5.2484211485841281e-03 3.2163223833552579e-02
      -1.0701617696945321e-02 -1.6612057624020068e-01
      -7.4286333647715697e-02 2.0521517277523146e-02
      -5.4238439400812799e-02 7.7980454172166216e-02
      3.1873486186164393e-03 1.1918251021080697e-01
      1.9153622349629813e-02 -6.2628201952037318e-02
      1.2591438156101148e-01 3.1179433429964210e-02
      1.6737942126576408e-02 -5.8826873777694335e-04
      3.3963685505938097e-02 -8.3374451981668377e-03
      -1.2376147359564119e-01 2.7932280588541161e-02
      4.9891739560561262e-02 -4.8596042833247775e-02
      8.4656122414279528e-02 -4.5589706481490022e-02
      3.7480210274928864e-02 4.8555568281753989e-02
      -1.9279408785836206e-02 4.8760063533267055e-02
      2.3692748207690226e-02 3.3197570486293897e-02
      4.5015635428901447e-02 4.1754275346691849e-02
      -8.0162740905279986e-03 2.9563029761997449e-02
      2.9480788255561042e-02 1.8727355788402716e-02
      -4.3189690395903521e-02 1.1529122199937951e-01
      -5.2040523286738111e-02 -3.9593780441397407e-02
      4.6020166060794031e-02 -3.9123796901176629e-02
      -6.4974546014364568e-03 4.9142186560725651e-02
      3.4367337090860463e-02 5.1378832567299394e-02
      4.0495621249733736e-02 -7.7474172976858893e-03
      4.0529994723449175e-02 2.6294832368891862e-02
      -4.7397920614990346e-03 -4.1189186385600769e-02
      1.1711420175245213e-01 -1.4879400483767027e-02
      1.1233005195364014e-02 5.7515225411690463e-02
      -8.5746519808738916e-02 -1.4754915077708070e-02
      4.3761047545837435e-02 2.4536158317010854e-02
      1.1247882436108063e-01 3.9676329309643661e-02
      1.9541819834967583e-02 -4.8241937466205635e-02
      -9.8017632462317206e-02 9.4493055311164600e-02
      -6.0634057084164771e-02 1.0188762959184394e-01
      -3.5437498997775499e-02 9.3131109847397309e-02
      7.9465299853303251e-02 -7.6396839738845673e-02
      6.9786797463884623e-02 3.1495884090649427e-02
      1.4935243785250393e-02 9.7609102666736447e-02
      3.6052603333569674e-02 5.8628695418647882e-02
      -9.5644976179940736e-02 -1.3992272676806525e-01
      1.2120131315004916e-01 -6.7119048305611467e-02
      8.6051086534099569e-02 -8.3918484696459753e-02
      1.6120083215615560e-01 8.3533021216047679e-02
      -5.5685040799757980e-02 6.0432361453526276e-02
      1.6371651444163270e-02 3.3453429194806275e-02
      6.7120729498088408e-02 2.2349203797228046e-02
      6.5068585400339010e-02 -5.7123901730555461e-02
      -4.3067654063705468e-02 1.6804802766544721e-01
      -5.2403117897465608e-02 4.6310093942759922e-02
      -1.5804873918887488e-01 1.8195996636615494e-01
      5.1659711172336094e-02 -5.2265348191759632e-02
      3.3293048457932288e-02 2.4914219676364237e-02
      2.4631539387234221e-02 7.9914312718428956e-02
      2.5149584184864276e-02 9.6671592014474589e-02
      -7.6667023393449218e-02 -9.2947005210639366e-02
      1.2413133876996824e-01 -4.6501360912195006e-02
