<?xml version="1.0"?>
<opencv_storage>
<opencv_ml_ann_mlp>
  <format>3</format>
  <layer_sizes>
    2000 7 10</layer_sizes>
  <activation_function>SIGMOID_SYM</activation_function>
  <f_param1>1.</f_param1>
  <f_param2>1.</f_param2>
  <min_val>-9.4999999999999996e-01</min_val>
  <max_val>9.4999999999999996e-01</max_val>
  <min_val1>-9.7999999999999998e-01</min_val1>
  <max_val1>9.7999999999999998e-01</max_val1>
  <training_params>
    <train_method>BACKPROP</train_method>
    <dw_scale>2.9999999999999999e-02</dw_scale>
    <moment_scale>1.0000000000000000e-04</moment_scale>
    <term_criteria>
      <iterations>3</iterations></term_criteria></training_params>
  <input_scale>
    4.6431709664522886e-01 -4.0327294260805829e-01
    1.5596985761708709e-01 -9.6407826945319441e-01
    1.3460790811355589e-01 -3.2890452420860758e+00
    2.2025954727137542e-01 -1.1696198227126242e+00
    2.9172805941494995e-01 -6.4350367748515458e-01 1. 0. 1. 0. 1. 0. 1.
    0. 1. 0. 1. 0. 1. 0. 1. 0. 1. 0. 1. 0. 1. 0. 1. 0. 1. 0. 1. 0. 1. 0.
    1. 0. 1. 0. 1. 0. 1. 0. 1. 0. 1. 0. 1. 0. 1. 0. 1. 0. 1. 0. 1. 0. 1.
    0. 1. 0. 1. 0. 1. 0. 1. 0. 1. 0. 1. 0. 1. 0. 1. 0. 1. 0. 1. 0. 1. 0.
    1. 0. 1. 0. 1. 0. 1. 0. 1. 0. 1. 0. 1. 0. 4.2580398225429311e-01
    -5.1852218710013342e-01 1.4545977657825820e-01
    -1.2074834781280637e+00 1.3269653780987392e-01
    -2.9797841688883642e+00 2.5032526151870305e-01
    -8.3829137495437489e-01 3.0834822858028710e-01
    -6.4925417891288884e-01 1.0638701256178678e+00
    -4.0998774767032048e-01 7.0498917122437001e+00
    -1.4482111159087305e-01 2.7852543769411531e+00
    -4.2339528326549986e-01 2.2014001007907495e+00
    -1.5900005658135323e+00 1.4337515058372092e+00
    -4.1704850703892526e-01 1. 0. 1. 0. 1. 0. 1. 0. 1. 0. 1. 0. 1. 0. 1.
    0. 1. 0. 1. 0. 1. 0. 1. 0. 1. 0. 1. 0. 1. 0. 1. 0. 1. 0. 1. 0. 1. 0.
    1. 0. 1. 0. 1. 0. 1. 0. 1. 0. 1. 0. 1. 0. 1. 0. 1. 0. 1. 0. 1. 0. 1.
    0. 1. 0. 1. 0. 1. 0. 1. 0. 1. 0. 1. 0. 1. 0. 1. 0. 1. 0.
    4.5309446159102434e-01 -6.4483123046479396e-01
    1.5372570395387283e-01 -1.3745629502268233e+00
    1.4948047992502286e-01 -3.0458029588666840e+00
    3.0179725182402328e-01 -8.7823744234575052e-01
    3.4237968710990474e-01 -6.1808395446216990e-01
    5.0907750237604255e-01 -5.3459412328396250e-01
    1.9694277723423899e+00 -5.0408935997095683e-01
    1.2722351616540184e+00 -1.0950421789914415e+00
    1.1767937036206959e+00 -9.7808285226978953e-01
    7.7876597208923137e-01 -4.2521773907419413e-01 1. 0. 1. 0. 1. 0. 1.
    0. 1. 0. 1. 0. 1. 0. 1. 0. 1. 0. 1. 0. 1. 0. 1. 0. 1. 0. 1. 0. 1. 0.
    1. 0. 1. 0. 1. 0. 1. 0. 1. 0. 1. 0. 1. 0. 1. 0. 1. 0. 1. 0. 1. 0. 1.
    0. 1. 0. 1. 0. 1. 0. 1. 0. 1. 0. 1. 0. 1. 0. 1. 0. 1. 0. 1. 0. 1. 0.
    1. 0. 1. 0. 4.3636308476129848e-01 -7.8505914057918069e-01
    1.7280963115738857e-01 -1.6945141605724703e+00
    1.6459051792101492e-01 -3.0909071420097254e+00
    3.8217492976304579e-01 -8.9451543749386686e-01
    4.7802255985837999e-01 -5.6797092979064712e-01
    4.1844370679923332e-01 -5.6680727252139373e-01
    1.1958824063071523e+00 -5.7976221834118313e-01
    9.0060083041762518e-01 -9.9902310687246842e-01
    8.9158849020666220e-01 -1.0945219427845139e+00
    6.5018585712328991e-01 -5.9221941053505900e-01 1. 0. 1. 0. 1. 0. 1.
    0. 1. 0. 1. 0. 1. 0. 1. 0. 1. 0. 1. 0. 1. 0. 1. 0. 1. 0. 1. 0. 1. 0.
    1. 0. 1. 0. 1. 0. 1. 0. 1. 0. 1. 0. 1. 0. 1. 0. 1. 0. 1. 0. 1. 0. 1.
    0. 1. 0. 1. 0. 1. 0. 1. 0. 1. 0. 1. 0. 1. 0. 1. 0. 1. 0. 1. 0. 1. 0.
    1. 0. 1. 0. 3.9568619962717239e-01 -9.5117500165102120e-01
    1.9286717608774437e-01 -2.1054534658288642e+00
    1.6343917046367590e-01 -2.8230524258972318e+00
    4.7215826683814394e-01 -8.0697550946864371e-01
    5.8503427511273365e-01 -5.6268087018854129e-01
    5.1913568993496673e-01 -5.4600959993160025e-01
    8.7927667670380583e-01 -5.1983530722135440e-01
    6.6218616920783757e-01 -8.8962562584619098e-01
    6.6443010170796413e-01 -1.0105670651285470e+00
    6.4965919507347714e-01 -7.9806121334005620e-01 1. 0. 1. 0. 1. 0. 1.
    0. 1. 0. 1. 0. 1. 0. 1. 0. 1. 0. 1. 0. 1. 0. 1. 0. 1. 0. 1. 0. 1. 0.
    1. 0. 1. 0. 1. 0. 1. 0. 1. 0. 1. 0. 1. 0. 1. 0. 1. 0. 1. 0. 1. 0. 1.
    0. 1. 0. 1. 0. 1. 0. 1. 0. 1. 0. 1. 0. 1. 0. 1. 0. 1. 0. 1. 0. 1. 0.
    1. 0. 1. 0. 3.3307576386458593e-01 -1.0263221976106798e+00
    1.9487490636204902e-01 -2.4059124635084523e+00
    1.5160849304708474e-01 -2.3110640581454334e+00
    5.7868970651496188e-01 -7.1230663957223728e-01
    7.2818654793762783e-01 -5.1188462757653297e-01
    7.0653528264446142e-01 -5.3701325919977549e-01
    7.3643162703230436e-01 -4.6775813286439705e-01
    5.2564676301371971e-01 -9.0681625221635542e-01
    5.4899340207425573e-01 -9.5453577550462221e-01
    6.1788741121049751e-01 -9.4917051376994666e-01 1. 0. 1. 0. 1. 0. 1.
    0. 1. 0. 1. 0. 1. 0. 1. 0. 1. 0. 1. 0. 1. 0. 1. 0. 1. 0. 1. 0. 1. 0.
    1. 0. 1. 0. 1. 0. 1. 0. 1. 0. 1. 0. 1. 0. 1. 0. 1. 0. 1. 0. 1. 0. 1.
    0. 1. 0. 1. 0. 1. 0. 1. 0. 1. 0. 1. 0. 1. 0. 1. 0. 1. 0. 1. 0. 1. 0.
    1. 0. 1. 0. 2.9162426763885069e-01 -1.0798724421647334e+00
    1.8308580422364368e-01 -2.4642115638317859e+00
    1.4426998802808971e-01 -1.8866531302112144e+00
    6.2713373789927274e-01 -6.1270502412673400e-01
    8.3263790901561818e-01 -3.9442543512531136e-01
    9.7384582971504630e-01 -4.8532251086456502e-01
    6.9573427892124196e-01 -4.4562437996639942e-01
    4.1166250795710096e-01 -9.5947469500436888e-01
    4.8525816389739201e-01 -8.9595324098392759e-01
    5.1478145382776375e-01 -1.0263904664856769e+00 1. 0. 1. 0. 1. 0. 1.
    0. 1. 0. 1. 0. 1. 0. 1. 0. 1. 0. 1. 0. 1. 0. 1. 0. 1. 0. 1. 0. 1. 0.
    1. 0. 1. 0. 1. 0. 1. 0. 1. 0. 1. 0. 1. 0. 1. 0. 1. 0. 1. 0. 1. 0. 1.
    0. 1. 0. 1. 0. 1. 0. 1. 0. 1. 0. 1. 0. 1. 0. 1. 0. 1. 0. 1. 0. 1. 0.
    1. 0. 1. 0. 2.9746386529797891e-01 -1.2343406078511039e+00
    1.7292801351854251e-01 -2.4386828529268576e+00
    1.4682610588711970e-01 -1.6248594856924634e+00
    6.1428366041295979e-01 -5.2923288245109967e-01
    1.1639677978422254e+00 -3.0892489622271063e-01
    1.1725165268109503e+00 -4.2150861173359960e-01
    6.9218328499779247e-01 -4.4562498257663963e-01
    3.3381596647920880e-01 -1.0361461079500502e+00
    4.1982463405974596e-01 -8.6414191316324040e-01
    4.3028320984517127e-01 -1.0279773480894294e+00 1. 0. 1. 0. 1. 0. 1.
    0. 1. 0. 1. 0. 1. 0. 1. 0. 1. 0. 1. 0. 1. 0. 1. 0. 1. 0. 1. 0. 1. 0.
    1. 0. 1. 0. 1. 0. 1. 0. 1. 0. 1. 0. 1. 0. 1. 0. 1. 0. 1. 0. 1. 0. 1.
    0. 1. 0. 1. 0. 1. 0. 1. 0. 1. 0. 1. 0. 1. 0. 1. 0. 1. 0. 1. 0. 1. 0.
    1. 0. 1. 0. 2.9300739327050640e-01 -1.3019206894907669e+00
    1.6998637986976611e-01 -2.3790410970680291e+00
    1.6263221608941836e-01 -1.5838934603121044e+00
    6.1864393977918830e-01 -5.0630186032873581e-01
    1.4224520430831478e+00 -2.3785455280806950e-01
    1.1527618158448889e+00 -4.0019874050490184e-01
    6.7562601791258103e-01 -5.1546323552327977e-01
    2.9102693191350576e-01 -1.1577706580601792e+00
    4.2447473206210612e-01 -9.2742671532714893e-01
    4.4221369943509781e-01 -1.1335132583301459e+00 1. 0. 1. 0. 1. 0. 1.
    0. 1. 0. 1. 0. 1. 0. 1. 0. 1. 0. 1. 0. 1. 0. 1. 0. 1. 0. 1. 0. 1. 0.
    1. 0. 1. 0. 1. 0. 1. 0. 1. 0. 1. 0. 1. 0. 1. 0. 1. 0. 1. 0. 1. 0. 1.
    0. 1. 0. 1. 0. 1. 0. 1. 0. 1. 0. 1. 0. 1. 0. 1. 0. 1. 0. 1. 0. 1. 0.
    1. 0. 1. 0. 3.0803243139952691e-01 -1.3839945233300024e+00
    1.6909453298102303e-01 -2.2019109378938064e+00
    1.7710788330114630e-01 -1.5709774858141941e+00
    5.7613101748467643e-01 -5.3234127293469080e-01
    1.8431736796297999e+00 -2.4080905099518338e-01
    9.4557562251981009e-01 -4.4403982602306608e-01
    6.4531095305616071e-01 -6.5856713532929467e-01
    2.6896870674399448e-01 -1.3174383409210775e+00
    4.1343488762503933e-01 -9.8721592722955154e-01
    4.3597099800687472e-01 -1.2138765215663887e+00 1. 0. 1. 0. 1. 0. 1.
    0. 1. 0. 1. 0. 1. 0. 1. 0. 1. 0. 1. 0. 1. 0. 1. 0. 1. 0. 1. 0. 1. 0.
    1. 0. 1. 0. 1. 0. 1. 0. 1. 0. 1. 0. 1. 0. 1. 0. 1. 0. 1. 0. 1. 0. 1.
    0. 1. 0. 1. 0. 1. 0. 1. 0. 1. 0. 1. 0. 1. 0. 1. 0. 1. 0. 1. 0. 1. 0.
    1. 0. 1. 0. 3.2037817022921128e-01 -1.4201150692699098e+00
    1.6919105870549433e-01 -1.9901150413879634e+00
    1.9395151570590816e-01 -1.5866732049038799e+00
    5.3183626136401407e-01 -5.7029278642566839e-01
    2.2261718167100213e+00 -2.2042210674902019e-01
    8.7174737296948934e-01 -4.6954018322226809e-01
    5.7369552498624465e-01 -8.0963193439924008e-01
    2.5651707329508622e-01 -1.4778713717407534e+00
    3.6171848450458849e-01 -9.9866401638078661e-01
    4.2795320782583962e-01 -1.2755959419788276e+00 1. 0. 1. 0. 1. 0. 1.
    0. 1. 0. 1. 0. 1. 0. 1. 0. 1. 0. 1. 0. 1. 0. 1. 0. 1. 0. 1. 0. 1. 0.
    1. 0. 1. 0. 1. 0. 1. 0. 1. 0. 1. 0. 1. 0. 1. 0. 1. 0. 1. 0. 1. 0. 1.
    0. 1. 0. 1. 0. 1. 0. 1. 0. 1. 0. 1. 0. 1. 0. 1. 0. 1. 0. 1. 0. 1. 0.
    1. 0. 1. 0. 3.1541739607543384e-01 -1.3814089737732640e+00
    1.7377193924849557e-01 -1.8201075674614406e+00
    2.0666420655836332e-01 -1.5579628291451966e+00
    5.3875364302282180e-01 -5.7018462794855751e-01
    2.0501845847766078e+00 -2.1563157506278208e-01
    8.8736831051454823e-01 -4.7686020959450659e-01
    4.8949865361746653e-01 -8.4485778301026171e-01
    2.3749611307812954e-01 -1.5717285905762164e+00
    3.0418172836922414e-01 -1.0515139944530205e+00
    4.2501230230373732e-01 -1.3200875124964069e+00 1. 0. 1. 0. 1. 0. 1.
    0. 1. 0. 1. 0. 1. 0. 1. 0. 1. 0. 1. 0. 1. 0. 1. 0. 1. 0. 1. 0. 1. 0.
    1. 0. 1. 0. 1. 0. 1. 0. 1. 0. 1. 0. 1. 0. 1. 0. 1. 0. 1. 0. 1. 0. 1.
    0. 1. 0. 1. 0. 1. 0. 1. 0. 1. 0. 1. 0. 1. 0. 1. 0. 1. 0. 1. 0. 1. 0.
    1. 0. 1. 0. 3.2596158381120782e-01 -1.4227674060847462e+00
    1.8612970573072435e-01 -1.6920673782677642e+00
    2.1206224337930918e-01 -1.4874850785599611e+00
    6.0235243943077965e-01 -5.6077675749800604e-01
    2.4009783325104372e+00 -2.0517809908059614e-01
    8.0461420635780823e-01 -4.1751345218977476e-01
    4.4251142270284627e-01 -8.7611443960764834e-01
    2.2184363577701313e-01 -1.6723947711061686e+00
    2.6068375749787981e-01 -1.1231678573871262e+00
    3.9561488575374093e-01 -1.2531597243883905e+00 1. 0. 1. 0. 1. 0. 1.
    0. 1. 0. 1. 0. 1. 0. 1. 0. 1. 0. 1. 0. 1. 0. 1. 0. 1. 0. 1. 0. 1. 0.
    1. 0. 1. 0. 1. 0. 1. 0. 1. 0. 1. 0. 1. 0. 1. 0. 1. 0. 1. 0. 1. 0. 1.
    0. 1. 0. 1. 0. 1. 0. 1. 0. 1. 0. 1. 0. 1. 0. 1. 0. 1. 0. 1. 0. 1. 0.
    1. 0. 1. 0. 3.3698889011478705e-01 -1.4108121570541003e+00
    1.9929215600933781e-01 -1.5337471924268349e+00
    1.9993915634952722e-01 -1.3144726293776230e+00
    6.8008346384292029e-01 -5.4261384009159863e-01
    3.0509878321233095e+00 -1.8050215605002323e-01
    6.7837042895325894e-01 -3.7095769964535236e-01
    4.0718141093278376e-01 -8.9282135996231182e-01
    2.1130754670294360e-01 -1.7890821374093104e+00
    2.2872375713271376e-01 -1.1809250024185760e+00
    3.5802371958961665e-01 -1.1874796582773111e+00 1. 0. 1. 0. 1. 0. 1.
    0. 1. 0. 1. 0. 1. 0. 1. 0. 1. 0. 1. 0. 1. 0. 1. 0. 1. 0. 1. 0. 1. 0.
    1. 0. 1. 0. 1. 0. 1. 0. 1. 0. 1. 0. 1. 0. 1. 0. 1. 0. 1. 0. 1. 0. 1.
    0. 1. 0. 1. 0. 1. 0. 1. 0. 1. 0. 1. 0. 1. 0. 1. 0. 1. 0. 1. 0. 1. 0.
    1. 0. 1. 0. 3.3879109412248154e-01 -1.3529373191744127e+00
    2.0971060340425068e-01 -1.3488165555848579e+00
    1.9420139852656160e-01 -1.1573892715802394e+00
    7.0072896813166397e-01 -4.9344677542221527e-01
    3.8639204382062160e+00 -1.7462253418351836e-01
    6.6788743413902885e-01 -3.3449251528984231e-01
    3.6069503067375408e-01 -8.7254410049591791e-01
    2.0122276862512695e-01 -1.9195527792550624e+00
    2.0600170153773650e-01 -1.2318630919810003e+00
    3.3370419944192875e-01 -1.1434235921716047e+00 1. 0. 1. 0. 1. 0. 1.
    0. 1. 0. 1. 0. 1. 0. 1. 0. 1. 0. 1. 0. 1. 0. 1. 0. 1. 0. 1. 0. 1. 0.
    1. 0. 1. 0. 1. 0. 1. 0. 1. 0. 1. 0. 1. 0. 1. 0. 1. 0. 1. 0. 1. 0. 1.
    0. 1. 0. 1. 0. 1. 0. 1. 0. 1. 0. 1. 0. 1. 0. 1. 0. 1. 0. 1. 0. 1. 0.
    1. 0. 1. 0. 3.4570357714596756e-01 -1.3125089385398054e+00
    2.2138838442836350e-01 -1.2169994180983992e+00
    2.0012131299675215e-01 -1.0234634774788705e+00
    6.8799774681407655e-01 -4.4293034891440347e-01
    3.3131012529428450e+00 -2.1506573457886996e-01
    7.3493460381954478e-01 -3.2489302946172155e-01
    3.3760424315908177e-01 -8.6481612822385989e-01
    1.9742313701429254e-01 -2.1560812769572411e+00
    2.0340340961775202e-01 -1.3140996779947209e+00
    3.2872505471519431e-01 -1.1498624140695006e+00 1. 0. 1. 0. 1. 0. 1.
    0. 1. 0. 1. 0. 1. 0. 1. 0. 1. 0. 1. 0. 1. 0. 1. 0. 1. 0. 1. 0. 1. 0.
    1. 0. 1. 0. 1. 0. 1. 0. 1. 0. 1. 0. 1. 0. 1. 0. 1. 0. 1. 0. 1. 0. 1.
    0. 1. 0. 1. 0. 1. 0. 1. 0. 1. 0. 1. 0. 1. 0. 1. 0. 1. 0. 1. 0. 1. 0.
    1. 0. 1. 0. 3.7169333989980480e-01 -1.3633846091312478e+00
    2.3404914719926376e-01 -1.1185126048569580e+00
    2.1812113287849275e-01 -9.2472965085175296e-01
    6.8117056303088319e-01 -4.4273288032656416e-01
    2.3028518285196005e+00 -2.9897336804116426e-01
    9.7721589990289193e-01 -3.8823655513808403e-01
    3.1628570728359418e-01 -8.7894680528604396e-01
    1.9992818886000546e-01 -2.4428366214858515e+00
    2.1009319583485786e-01 -1.4087637835746571e+00
    3.4764308647799075e-01 -1.1936126843453445e+00 1. 0. 1. 0. 1. 0. 1.
    0. 1. 0. 1. 0. 1. 0. 1. 0. 1. 0. 1. 0. 1. 0. 1. 0. 1. 0. 1. 0. 1. 0.
    1. 0. 1. 0. 1. 0. 1. 0. 1. 0. 1. 0. 1. 0. 1. 0. 1. 0. 1. 0. 1. 0. 1.
    0. 1. 0. 1. 0. 1. 0. 1. 0. 1. 0. 1. 0. 1. 0. 1. 0. 1. 0. 1. 0. 1. 0.
    1. 0. 1. 0. 3.9129704350058242e-01 -1.4010491923202859e+00
    2.5599218222495462e-01 -1.0620415185322891e+00
    2.4348273853563526e-01 -8.7179624746839002e-01
    6.8911623448959758e-01 -5.0197332939607908e-01
    1.7344578541310474e+00 -3.8337646899034655e-01
    1.0998877947618915e+00 -4.8487247484778534e-01
    3.0352521953804745e-01 -9.2142475232811538e-01
    2.0113161740698787e-01 -2.6932135063798475e+00
    2.2483865636521164e-01 -1.4839905564942995e+00
    3.7856745896914662e-01 -1.2392873923854397e+00 1. 0. 1. 0. 1. 0. 1.
    0. 1. 0. 1. 0. 1. 0. 1. 0. 1. 0. 1. 0. 1. 0. 1. 0. 1. 0. 1. 0. 1. 0.
    1. 0. 1. 0. 1. 0. 1. 0. 1. 0. 1. 0. 1. 0. 1. 0. 1. 0. 1. 0. 1. 0. 1.
    0. 1. 0. 1. 0. 1. 0. 1. 0. 1. 0. 1. 0. 1. 0. 1. 0. 1. 0. 1. 0. 1. 0.
    1. 0. 1. 0. 4.1317437446219818e-01 -1.4529003578561850e+00
    2.8359302922790286e-01 -1.0566578397978024e+00
    2.7341409192752308e-01 -8.2383687354003865e-01
    6.4507627892082120e-01 -5.5470199333659775e-01
    1.3543473724605015e+00 -4.6183579258102558e-01
    1.0175691102582869e+00 -5.6647746277731248e-01
    2.9036959871925344e-01 -9.6833608578643382e-01
    2.0280746224397314e-01 -2.8847153452541474e+00
    2.4131882973165919e-01 -1.5300050042805935e+00
    4.1727211450857127e-01 -1.2885033741357526e+00 1. 0. 1. 0. 1. 0. 1.
    0. 1. 0. 1. 0. 1. 0. 1. 0. 1. 0. 1. 0. 1. 0. 1. 0. 1. 0. 1. 0. 1. 0.
    1. 0. 1. 0. 1. 0. 1. 0. 1. 0. 1. 0. 1. 0. 1. 0. 1. 0. 1. 0. 1. 0. 1.
    0. 1. 0. 1. 0. 1. 0. 1. 0. 1. 0. 1. 0. 1. 0. 1. 0. 1. 0. 1. 0. 1. 0.
    1. 0. 1. 0. 4.3612787947040726e-01 -1.4780685611139646e+00
    3.1252339023430092e-01 -1.0527441563397837e+00
    2.9706576917622735e-01 -7.8818847055878238e-01
    5.6547472012702682e-01 -5.6872724522225204e-01
    1.0560691551929384e+00 -5.2152634533357112e-01
    8.9553346819569668e-01 -6.0339970741205529e-01
    2.7411315718633134e-01 -1.0345125151658339e+00
    1.9413942086386154e-01 -2.8659094211419101e+00
    2.5600654554226493e-01 -1.5364599906661487e+00
    4.5423324977973900e-01 -1.3072735886224618e+00 1. 0. 1. 0. 1. 0. 1.
    0. 1. 0. 1. 0. 1. 0. 1. 0. 1. 0. 1. 0. 1. 0. 1. 0. 1. 0. 1. 0. 1. 0.
    1. 0. 1. 0. 1. 0. 1. 0. 1. 0. 1. 0. 1. 0. 1. 0. 1. 0. 1. 0. 1. 0. 1.
    0. 1. 0. 1. 0. 1. 0. 1. 0. 1. 0. 1. 0. 1. 0. 1. 0. 1. 0. 1. 0. 1. 0.
    1. 0. 1. 0. 4.5691131009326508e-01 -1.4670344652337168e+00
    3.3784322876319939e-01 -1.0425392322269476e+00
    3.2143251176812143e-01 -7.3702335586601719e-01
    5.0466238002664798e-01 -5.8967124436967411e-01
    8.3889503997153037e-01 -5.6558207090931845e-01
    7.6575676258924463e-01 -6.4243028315827344e-01
    2.5590630765209615e-01 -1.1096282542975444e+00
    1.7828360896863471e-01 -2.6987919360925825e+00
    2.6712329713387367e-01 -1.4994682040838603e+00
    4.7347100433602357e-01 -1.2507882324899882e+00 1. 0. 1. 0. 1. 0. 1.
    0. 1. 0. 1. 0. 1. 0. 1. 0. 1. 0. 1. 0. 1. 0. 1. 0. 1. 0. 1. 0. 1. 0.
    1. 0. 1. 0. 1. 0. 1. 0. 1. 0. 1. 0. 1. 0. 1. 0. 1. 0. 1. 0. 1. 0. 1.
    0. 1. 0. 1. 0. 1. 0. 1. 0. 1. 0. 1. 0. 1. 0. 1. 0. 1. 0. 1. 0. 1. 0.
    1. 0. 1. 0. 4.7908722609334170e-01 -1.3778186452972028e+00
    3.5566643219504424e-01 -1.0006588856498204e+00
    3.5009648400369692e-01 -6.9487104117578469e-01
    4.6614336116713134e-01 -6.0154326106243194e-01
    7.0179234639619104e-01 -6.1183375474639168e-01
    6.5263670640848048e-01 -7.2449645879856794e-01
    2.3302389128580533e-01 -1.2035099989128426e+00
    1.6661941291836657e-01 -2.5752077627674743e+00
    2.7896434232379513e-01 -1.4273713719394185e+00
    5.0055533005732089e-01 -1.1594621819487163e+00 1. 0. 1. 0. 1. 0. 1.
    0. 1. 0. 1. 0. 1. 0. 1. 0. 1. 0. 1. 0. 1. 0. 1. 0. 1. 0. 1. 0. 1. 0.
    1. 0. 1. 0. 1. 0. 1. 0. 1. 0. 1. 0. 1. 0. 1. 0. 1. 0. 1. 0. 1. 0. 1.
    0. 1. 0. 1. 0. 1. 0. 1. 0. 1. 0. 1. 0. 1. 0. 1. 0. 1. 0. 1. 0. 1. 0.
    1. 0. 1. 0. 5.1447658948026542e-01 -1.2635747953627883e+00
    3.6895507720781362e-01 -9.3360489750325548e-01
    3.8764901839516264e-01 -6.5139050338381888e-01
    4.7238599517576924e-01 -6.0862879246968460e-01
    6.0630992820362473e-01 -6.6883408267326716e-01
    5.6200338450994225e-01 -8.3723265087635601e-01
    2.1465131368867205e-01 -1.3319140470994306e+00
    1.6452744586021417e-01 -2.5837027786010540e+00
    2.8771467672249157e-01 -1.3202486541961826e+00
    5.2586120871248143e-01 -1.0277410722453879e+00 1. 0. 1. 0. 1. 0. 1.
    0. 1. 0. 1. 0. 1. 0. 1. 0. 1. 0. 1. 0. 1. 0. 1. 0. 1. 0. 1. 0. 1. 0.
    1. 0. 1. 0. 1. 0. 1. 0. 1. 0. 1. 0. 1. 0. 1. 0. 1. 0. 1. 0. 1. 0. 1.
    0. 1. 0. 1. 0. 1. 0. 1. 0. 1. 0. 1. 0. 1. 0. 1. 0. 1. 0. 1. 0. 1. 0.
    1. 0. 1. 0. 5.5977836198730169e-01 -1.1370354238558831e+00
    3.8537653036022224e-01 -8.4152681136589202e-01
    4.2257652616576497e-01 -6.0174619543571961e-01
    5.0236494582784552e-01 -6.0391118795902876e-01
    5.4948510104952031e-01 -7.3573210530829358e-01
    4.8898054171539745e-01 -9.6691181071331467e-01
    1.9214690082884026e-01 -1.4513643269261414e+00
    1.6579424134498963e-01 -2.5998498782479720e+00
    2.9915265735341240e-01 -1.1943983254562291e+00
    5.8386088574894857e-01 -9.4319679653445587e-01 1. 0. 1. 0. 1. 0. 1.
    0. 1. 0. 1. 0. 1. 0. 1. 0. 1. 0. 1. 0. 1. 0. 1. 0. 1. 0. 1. 0. 1. 0.
    1. 0. 1. 0. 1. 0. 1. 0. 1. 0. 1. 0. 1. 0. 1. 0. 1. 0. 1. 0. 1. 0. 1.
    0. 1. 0. 1. 0. 1. 0. 1. 0. 1. 0. 1. 0. 1. 0. 1. 0. 1. 0. 1. 0. 1. 0.
    1. 0. 1. 0. 5.9539476128404822e-01 -9.8531228366973955e-01
    4.0693573033469094e-01 -7.5234625575435876e-01
    4.6577069435766499e-01 -5.9398201942735918e-01
    5.2236190717478759e-01 -6.1078142474093899e-01
    5.4843515180598279e-01 -8.1724498586700889e-01
    4.3501441492711912e-01 -1.1059446177358312e+00
    1.8011199346479462e-01 -1.5875606852069448e+00
    1.6303894385214887e-01 -2.5314575867133979e+00
    3.2232049913841970e-01 -1.0935590311771035e+00
    6.5620274736078033e-01 -8.4357370439272050e-01 1. 0. 1. 0. 1. 0. 1.
    0. 1. 0. 1. 0. 1. 0. 1. 0. 1. 0. 1. 0. 1. 0. 1. 0. 1. 0. 1. 0. 1. 0.
    1. 0. 1. 0. 1. 0. 1. 0. 1. 0. 1. 0. 1. 0. 1. 0. 1. 0. 1. 0. 1. 0. 1.
    0. 1. 0. 1. 0. 1. 0. 1. 0. 1. 0. 1. 0. 1. 0. 1. 0. 1. 0. 1. 0. 1. 0.
    1. 0. 1. 0. 6.4247097613365522e-01 -8.5495624145312621e-01
    4.3504317422596051e-01 -6.5470959210751567e-01
    4.6907351395738361e-01 -6.1322593320147689e-01
    5.3108942820263183e-01 -6.7531708310893401e-01
    5.4334649582961980e-01 -9.0029433758457544e-01
    3.9042885610634553e-01 -1.2120297603695755e+00
    1.7000710093741289e-01 -1.7122941986362683e+00
    1.6148289628903112e-01 -2.4061880372270257e+00
    3.4871188647669005e-01 -9.9298360113801920e-01
    7.5677699406010035e-01 -7.5988618466839997e-01 1. 0. 1. 0. 1. 0. 1.
    0. 1. 0. 1. 0. 1. 0. 1. 0. 1. 0. 1. 0. 1. 0. 1. 0. 1. 0. 1. 0. 1. 0.
    1. 0. 1. 0. 1. 0. 1. 0. 1. 0. 1. 0. 1. 0. 1. 0. 1. 0. 1. 0. 1. 0. 1.
    0. 1. 0. 1. 0. 1. 0. 1. 0. 1. 0. 1. 0. 1. 0. 1. 0. 1. 0. 1. 0. 1. 0.
    1. 0. 1. 0. 6.7992625392443229e-01 -7.2964970223936620e-01
    4.9626835665332031e-01 -6.0738842829508677e-01
    4.4270549406854975e-01 -6.5350897296150334e-01
    4.8589086439930496e-01 -7.3801911490724337e-01
    5.4288645857118489e-01 -9.5350846770411479e-01
    3.4872717940215825e-01 -1.2860210198495368e+00
    1.6221166208749468e-01 -1.7946581135390896e+00
    1.5311399307444853e-01 -2.1590079524684258e+00
    3.8367726910005334e-01 -8.9046544500665625e-01
    8.7001460135484066e-01 -6.7735319209836609e-01 1. 0. 1. 0. 1. 0. 1.
    0. 1. 0. 1. 0. 1. 0. 1. 0. 1. 0. 1. 0. 1. 0. 1. 0. 1. 0. 1. 0. 1. 0.
    1. 0. 1. 0. 1. 0. 1. 0. 1. 0. 1. 0. 1. 0. 1. 0. 1. 0. 1. 0. 1. 0. 1.
    0. 1. 0. 1. 0. 1. 0. 1. 0. 1. 0. 1. 0. 1. 0. 1. 0. 1. 0. 1. 0. 1. 0.
    1. 0. 1. 0. 6.8601070191508595e-01 -6.0258458533050685e-01
    5.3420957642339006e-01 -5.7327666952255341e-01
    4.1321586651018216e-01 -7.0827304645870170e-01
    4.3357700920724729e-01 -8.0231341391513633e-01
    5.3376463969093957e-01 -1.0438453923290356e+00
    3.1841112015527684e-01 -1.3204773405289090e+00
    1.6159905293520335e-01 -1.8899254892578057e+00
    1.4500214434485412e-01 -1.9175550625193774e+00
    4.2765704614249578e-01 -7.9557563883862814e-01
    9.8289864368458446e-01 -5.9119293934027595e-01 1. 0. 1. 0. 1. 0. 1.
    0. 1. 0. 1. 0. 1. 0. 1. 0. 1. 0. 1. 0. 1. 0. 1. 0. 1. 0. 1. 0. 1. 0.
    1. 0. 1. 0. 1. 0. 1. 0. 1. 0. 1. 0. 1. 0. 1. 0. 1. 0. 1. 0. 1. 0. 1.
    0. 1. 0. 1. 0. 1. 0. 1. 0. 1. 0. 1. 0. 1. 0. 1. 0. 1. 0. 1. 0. 1. 0.
    1. 0. 1. 0. 7.2625841224168830e-01 -5.1023084837029054e-01
    5.3563759480165984e-01 -5.6094504073518114e-01
    3.6310719156127486e-01 -7.7783109975369236e-01
    3.8351288202210931e-01 -8.7086101024494589e-01
    4.8509182670715900e-01 -1.0919548555992293e+00
    3.0853093516619634e-01 -1.3823047855330204e+00
    1.7325537018223081e-01 -2.0760036447677739e+00
    1.4524316960898342e-01 -1.7599247334748347e+00
    4.5802032665224185e-01 -7.1920858194941184e-01
    1.1164785226126757e+00 -4.8714058792714116e-01 1. 0. 1. 0. 1. 0. 1.
    0. 1. 0. 1. 0. 1. 0. 1. 0. 1. 0. 1. 0. 1. 0. 1. 0. 1. 0. 1. 0. 1. 0.
    1. 0. 1. 0. 1. 0. 1. 0. 1. 0. 1. 0. 1. 0. 1. 0. 1. 0. 1. 0. 1. 0. 1.
    0. 1. 0. 1. 0. 1. 0. 1. 0. 1. 0. 1. 0. 1. 0. 1. 0. 1. 0. 1. 0. 1. 0.
    1. 0. 1. 0. 8.1832417799961021e-01 -4.3135165175575174e-01
    5.3895214107451261e-01 -5.9298021109184262e-01
    3.2169082983075170e-01 -8.6475887410953500e-01
    3.5821900852829613e-01 -9.7973046005458808e-01
    4.4211943474030624e-01 -1.1714166945933586e+00
    3.1270731922468586e-01 -1.4856809529639554e+00
    1.8629423288848632e-01 -2.2611711266329300e+00
    1.5292377359614165e-01 -1.6579098346980221e+00
    5.3138324256750025e-01 -6.5975355753450515e-01
    1.2593498011008688e+00 -4.1340200948216688e-01 1. 0. 1. 0. 1. 0. 1.
    0. 1. 0. 1. 0. 1. 0. 1. 0. 1. 0. 1. 0. 1. 0. 1. 0. 1. 0. 1. 0. 1. 0.
    1. 0. 1. 0. 1. 0. 1. 0. 1. 0. 1. 0. 1. 0. 1. 0. 1. 0. 1. 0. 1. 0. 1.
    0. 1. 0. 1. 0. 1. 0. 1. 0. 1. 0. 1. 0. 1. 0. 1. 0. 1. 0. 1. 0. 1. 0.
    1. 0. 1. 0. 1.0130970595896187e+00 -3.7502072748161319e-01
    5.1043821612082818e-01 -6.3290983412188151e-01
    2.7845282219771511e-01 -9.4335331628691810e-01
    3.4342028702466776e-01 -1.1039113909946592e+00
    4.2161048848331828e-01 -1.2476829698214222e+00
    3.2697729388103147e-01 -1.5918984932170184e+00
    1.8746585627655951e-01 -2.2496672949802901e+00
    1.6654776990516215e-01 -1.5998576040068184e+00
    5.8544218106833512e-01 -6.2897752814038466e-01
    1.2922413717599093e+00 -3.6048968423376271e-01 1. 0. 1. 0. 1. 0. 1.
    0. 1. 0. 1. 0. 1. 0. 1. 0. 1. 0. 1. 0. 1. 0. 1. 0. 1. 0. 1. 0. 1. 0.
    1. 0. 1. 0. 1. 0. 1. 0. 1. 0. 1. 0. 1. 0. 1. 0. 1. 0. 1. 0. 1. 0. 1.
    0. 1. 0. 1. 0. 1. 0. 1. 0. 1. 0. 1. 0. 1. 0. 1. 0. 1. 0. 1. 0. 1. 0.
    1. 0. 1. 0. 1.1563834019619028e+00 -3.6297326174975092e-01
    5.1182170164298402e-01 -6.8277940231502432e-01
    2.4993290474575153e-01 -1.0486092125158646e+00
    3.1879147918595430e-01 -1.2192398848570454e+00
    4.1354775211859629e-01 -1.3252557380957481e+00
    3.4693052744727376e-01 -1.6813444953853907e+00
    1.8563241334257352e-01 -2.1458313811859693e+00
    1.8360178081375961e-01 -1.5652919283756475e+00
    6.4751366740708116e-01 -6.0069262982957650e-01
    1.2868545961657891e+00 -3.4524077703215300e-01 1. 0. 1. 0. 1. 0. 1.
    0. 1. 0. 1. 0. 1. 0. 1. 0. 1. 0. 1. 0. 1. 0. 1. 0. 1. 0. 1. 0. 1. 0.
    1. 0. 1. 0. 1. 0. 1. 0. 1. 0. 1. 0. 1. 0. 1. 0. 1. 0. 1. 0. 1. 0. 1.
    0. 1. 0. 1. 0. 1. 0. 1. 0. 1. 0. 1. 0. 1. 0. 1. 0. 1. 0. 1. 0. 1. 0.
    1. 0. 1. 0. 1.3368346507748110e+00 -3.7842196975507186e-01
    4.9863147084276216e-01 -7.0164863912755149e-01
    2.3375650718953112e-01 -1.1849169209960702e+00
    2.8451670073265967e-01 -1.3051063942810786e+00
    4.1093459779092345e-01 -1.3722581802977099e+00
    3.5651635068054371e-01 -1.7150574979944480e+00
    1.8087061710199714e-01 -1.9947784903393637e+00
    2.0623964784252147e-01 -1.5344263692605675e+00
    7.4071984479944164e-01 -6.1351323217570841e-01
    1.5897739566465465e+00 -3.2853586696516551e-01 1. 0. 1. 0. 1. 0. 1.
    0. 1. 0. 1. 0. 1. 0. 1. 0. 1. 0. 1. 0. 1. 0. 1. 0. 1. 0. 1. 0. 1. 0.
    1. 0. 1. 0. 1. 0. 1. 0. 1. 0. 1. 0. 1. 0. 1. 0. 1. 0. 1. 0. 1. 0. 1.
    0. 1. 0. 1. 0. 1. 0. 1. 0. 1. 0. 1. 0. 1. 0. 1. 0. 1. 0. 1. 0. 1. 0.
    1. 0. 1. 0. 1.4229743398263037e+00 -3.4843578740200370e-01
    4.8330808960572441e-01 -6.9339024194872212e-01
    2.1732055454401070e-01 -1.3045483247504273e+00
    2.5418200880916475e-01 -1.3764885201781434e+00
    4.0360553647083625e-01 -1.3836009023470244e+00
    3.6358002187125305e-01 -1.7597930310867838e+00
    1.7283713626994171e-01 -1.7985997635913533e+00
    2.2372147089449296e-01 -1.4166881803191536e+00
    8.2099640546063080e-01 -6.1254292206922989e-01
    2.1332361398251121e+00 -3.1814491321138688e-01 1. 0. 1. 0. 1. 0. 1.
    0. 1. 0. 1. 0. 1. 0. 1. 0. 1. 0. 1. 0. 1. 0. 1. 0. 1. 0. 1. 0. 1. 0.
    1. 0. 1. 0. 1. 0. 1. 0. 1. 0. 1. 0. 1. 0. 1. 0. 1. 0. 1. 0. 1. 0. 1.
    0. 1. 0. 1. 0. 1. 0. 1. 0. 1. 0. 1. 0. 1. 0. 1. 0. 1. 0. 1. 0. 1. 0.
    1. 0. 1. 0. 1.4786195437938254e+00 -3.0374271647366996e-01
    4.8226749774178407e-01 -6.6693196277684685e-01
    1.9929904447941818e-01 -1.4051647092486834e+00
    2.3406828355577466e-01 -1.4777844344295765e+00
    3.9339679228139818e-01 -1.3688074913028601e+00
    3.5414475765209208e-01 -1.7270740646385920e+00
    1.6717276756647056e-01 -1.6135537503858230e+00
    2.3393364636727237e-01 -1.2412707653382591e+00
    9.4542303349094670e-01 -5.8341224170230155e-01
    2.2754491519535733e+00 -2.6456536976288464e-01 1. 0. 1. 0. 1. 0. 1.
    0. 1. 0. 1. 0. 1. 0. 1. 0. 1. 0. 1. 0. 1. 0. 1. 0. 1. 0. 1. 0. 1. 0.
    1. 0. 1. 0. 1. 0. 1. 0. 1. 0. 1. 0. 1. 0. 1. 0. 1. 0. 1. 0. 1. 0. 1.
    0. 1. 0. 1. 0. 1. 0. 1. 0. 1. 0. 1. 0. 1. 0. 1. 0. 1. 0. 1. 0. 1. 0.
    1. 0. 1. 0. 1.4296973444412204e+00 -2.7372184162268232e-01
    4.9138953750727954e-01 -6.2079820371194927e-01
    1.8110345837423300e-01 -1.5230845492689193e+00
    2.2984531946562817e-01 -1.6178881916206276e+00
    3.9403647217195847e-01 -1.3773468797202231e+00
    3.4313490290750231e-01 -1.6753554585672790e+00
    1.6512704499898842e-01 -1.4588709842474308e+00
    2.4769369101425517e-01 -1.0519349564561855e+00
    1.0255595319691979e+00 -5.4438081976343622e-01
    2.3795495034665279e+00 -2.5125070763800234e-01 1. 0. 1. 0. 1. 0. 1.
    0. 1. 0. 1. 0. 1. 0. 1. 0. 1. 0. 1. 0. 1. 0. 1. 0. 1. 0. 1. 0. 1. 0.
    1. 0. 1. 0. 1. 0. 1. 0. 1. 0. 1. 0. 1. 0. 1. 0. 1. 0. 1. 0. 1. 0. 1.
    0. 1. 0. 1. 0. 1. 0. 1. 0. 1. 0. 1. 0. 1. 0. 1. 0. 1. 0. 1. 0. 1. 0.
    1. 0. 1. 0. 1.2713636196768212e+00 -2.9511932831446347e-01
    5.0349796777907552e-01 -6.1189276445789043e-01
    1.7088319804438043e-01 -1.6922631904937331e+00
    2.3487045059259606e-01 -1.7502383865441689e+00
    4.1050688992098705e-01 -1.4295219387716869e+00
    3.3522938715437167e-01 -1.6188521843107988e+00
    1.6424432960198640e-01 -1.3223220554151707e+00
    2.7573725805945221e-01 -8.9960130084228018e-01
    1.1993605876916593e+00 -5.3808617985180440e-01
    2.1624085551869294e+00 -2.6830212969040784e-01 1. 0. 1. 0. 1. 0. 1.
    0. 1. 0. 1. 0. 1. 0. 1. 0. 1. 0. 1. 0. 1. 0. 1. 0. 1. 0. 1. 0. 1. 0.
    1. 0. 1. 0. 1. 0. 1. 0. 1. 0. 1. 0. 1. 0. 1. 0. 1. 0. 1. 0. 1. 0. 1.
    0. 1. 0. 1. 0. 1. 0. 1. 0. 1. 0. 1. 0. 1. 0. 1. 0. 1. 0. 1. 0. 1. 0.
    1. 0. 1. 0. 1.0568413800918632e+00 -3.0654478814496938e-01
    4.7912441749465234e-01 -6.0727149875554742e-01
    1.6386912314330773e-01 -1.8593826799391424e+00
    2.3534174038854927e-01 -1.8325521797798578e+00
    4.3487291806821227e-01 -1.4754234007425213e+00
    3.3086040233335567e-01 -1.5591490611189767e+00
    1.6547285200139578e-01 -1.2092979011507101e+00
    3.2485840057409865e-01 -7.7570954155162752e-01
    1.4582159158007986e+00 -5.1223278882895762e-01
    1.6618175432530651e+00 -2.6012838290033596e-01 1. 0. 1. 0. 1. 0. 1.
    0. 1. 0. 1. 0. 1. 0. 1. 0. 1. 0. 1. 0. 1. 0. 1. 0. 1. 0. 1. 0. 1. 0.
    1. 0. 1. 0. 1. 0. 1. 0. 1. 0. 1. 0. 1. 0. 1. 0. 1. 0. 1. 0. 1. 0. 1.
    0. 1. 0. 1. 0. 1. 0. 1. 0. 1. 0. 1. 0. 1. 0. 1. 0. 1. 0. 1. 0. 1. 0.
    1. 0. 1. 0. 8.1387601054953840e-01 -3.1665594987280726e-01
    4.1519856823137491e-01 -6.0335141159998895e-01
    1.5476018256131766e-01 -1.9690276637464608e+00
    2.3696658250879060e-01 -1.9156908151296108e+00
    4.2960834133803233e-01 -1.4640925190628507e+00
    3.3919680770853161e-01 -1.4994895854329497e+00
    1.6369749810884532e-01 -1.0739874064503496e+00
    3.8968404231987525e-01 -6.1398451203645088e-01
    1.9409758754895645e+00 -4.3620123413836970e-01
    1.5095105578142962e+00 -2.4248916520352909e-01 1. 0. 1. 0. 1. 0. 1.
    0. 1. 0. 1. 0. 1. 0. 1. 0. 1. 0. 1. 0. 1. 0. 1. 0. 1. 0. 1. 0. 1. 0.
    1. 0. 1. 0. 1. 0. 1. 0. 1. 0. 1. 0. 1. 0. 1. 0. 1. 0. 1. 0. 1. 0. 1.
    0. 1. 0. 1. 0. 1. 0. 1. 0. 1. 0. 1. 0. 1. 0. 1. 0. 1. 0. 1. 0. 1. 0.
    1. 0. 1. 0. 6.5116050720951302e-01 -3.2210240373058902e-01
    3.4664452184146144e-01 -6.3974001319303408e-01
    1.4590024067069254e-01 -2.0545319428874227e+00
    2.2742283032781432e-01 -1.8855352161114598e+00
    4.0527306184903483e-01 -1.4091314389598939e+00
    3.4901559100272983e-01 -1.3917606106296203e+00
    1.6492212340398002e-01 -9.2441763746939165e-01
    4.4010316250743980e-01 -4.5131367856145016e-01
    2.7143936728222480e+00 -1.7954699314888328e-01
    1.6523129553449478e+00 -2.0772710120606161e-01 1. 0. 1. 0. 1. 0. 1.
    0. 1. 0. 1. 0. 1. 0. 1. 0. 1. 0. 1. 0. 1. 0. 1. 0. 1. 0. 1. 0. 1. 0.
    1. 0. 1. 0. 1. 0. 1. 0. 1. 0. 1. 0. 1. 0. 1. 0. 1. 0. 1. 0. 1. 0. 1.
    0. 1. 0. 1. 0. 1. 0. 1. 0. 1. 0. 1. 0. 1. 0. 1. 0. 1. 0. 1. 0. 1. 0.
    1. 0. 1. 0.</input_scale>
  <output_scale>
    5.2631578947368418e-01 4.9999999999999994e-01 5.2631578947368418e-01
    4.9999999999999994e-01 5.2631578947368418e-01 4.9999999999999994e-01
    5.2631578947368418e-01 4.9999999999999994e-01 5.2631578947368418e-01
    4.9999999999999994e-01 5.2631578947368418e-01 4.9999999999999994e-01
    5.2631578947368418e-01 4.9999999999999994e-01 5.2631578947368418e-01
    4.9999999999999994e-01 5.2631578947368418e-01 4.9999999999999994e-01
    5.2631578947368418e-01 4.9999999999999994e-01</output_scale>
  <inv_output_scale>
    1.8999999999999999e+00 -9.4999999999999996e-01
    1.8999999999999999e+00 -9.4999999999999996e-01
    1.8999999999999999e+00 -9.4999999999999996e-01
    1.8999999999999999e+00 -9.4999999999999996e-01
    1.8999999999999999e+00 -9.4999999999999996e-01
    1.8999999999999999e+00 -9.4999999999999996e-01
    1.8999999999999999e+00 -9.4999999999999996e-01
    1.8999999999999999e+00 -9.4999999999999996e-01
    1.8999999999999999e+00 -9.4999999999999996e-01
    1.8999999999999999e+00 -9.4999999999999996e-01</inv_output_scale>
  <weights>
    <_>
      -1.1345073518294035e-02 2.1165924461398426e-02
      8.8113155264426202e-02 -7.8787569086363987e-02
      9.3840973319264415e-02 6.9283754976085399e-03
      6.2798286307866390e-06 -1.1047716139819104e-01
      -4.7324942125105289e-02 -3.5546147403414013e-01
      6.1316510265944521e-02 -1.4925829822003744e-01
      1.0869604529908386e-01 -2.8989998295196590e-01
      2.7860220880212194e-01 -1.9474780076567935e-01
      8.3014738749219146e-03 1.1081683811057421e-02
      -6.4835421235235240e-03 1.0098835853812599e-01
      -1.6678080680522536e-04 -1.3997314626788182e-01
      2.0788119643262173e-01 2.2269115230400233e-01
      -5.6509428130618371e-02 9.2953499935903280e-02
      -1.4099904772936095e-01 3.1501552678585509e-01
      -2.0808074895807244e-01 2.1920949158016254e-01
      2.9773425303702167e-01 -1.4341033448112342e-02
      1.1298482042827437e-01 -2.3947174897512100e-01
      1.2460674117375721e-01 -6.4199617811844213e-04
      -8.6211718203338980e-04 6.5005175724324436e-04
      1.3441750579140736e-04 -9.9902493296686982e-04
      9.1960903295276947e-04 7.8053593901586870e-04
      7.6051324825622405e-04 -6.9793728430635811e-04
      8.3287152231225616e-04 -4.2205896104317592e-04
      4.7542809877715683e-04 2.4585734116132699e-04
      2.7772809326658796e-04 -5.2610908245586026e-04
      -8.0904480631996910e-04 -9.5869114245944291e-04
      6.9548017989937703e-04 1.0907994870830357e-04
      -1.4142901782983515e-04 2.3739060988643769e-04
      -5.9259885196249616e-04 -9.3873789494019761e-04
      -1.0679568833676238e-04 7.2708907002708915e-04
      -7.0473346176982792e-04 -4.6485545310428529e-04
      -8.4104172778923258e-04 7.2302445100229753e-04
      -3.8679533955429652e-04 -3.0317822367722656e-04
      3.2857192993668966e-05 -9.7286666426835513e-04
      9.2667436991159392e-04 -5.2875012525211774e-04
      7.8402717701742748e-04 7.2105518525514864e-04
      7.0212124507218997e-04 7.1140526844732689e-04
      -8.8600488886475689e-04 -8.1047143313487085e-04
      -7.0718354259218267e-04 1.1113420998947012e-04
      -8.2361012692973691e-04 -2.5610227263263204e-04
      9.4857795238092264e-04 -1.1039634126189139e-04
      -2.6066340784783489e-04 7.8807783311590567e-04
      -6.8964970074328780e-04 -5.6578281063340407e-04
      -9.9351389038756130e-05 5.9497114030610345e-04
      2.2095220577600296e-04 -6.2044306956004851e-04
      -8.2588666192740000e-04 -6.0480173247246796e-04
      7.7402152427477004e-04 -4.9124275686995410e-04
      5.0065227934141413e-05 -8.9980694630273448e-04
      3.8569250487144270e-04 4.7890821461976088e-04
      -4.5870431263909494e-04 8.4698124232355414e-04
      8.5710519044320227e-04 -3.1486723229901681e-04
      -1.0607205068989332e-05 -5.3291992624565870e-04
      -5.1837263197564165e-05 -6.9945622740576077e-04
      2.9184341379787425e-05 -6.7177480452663776e-05
      -7.5514324861033339e-04 -7.9165804717118665e-04
      4.4864438511044863e-04 6.6226206635638582e-04
      -5.5635433043212687e-04 2.9018337353957076e-04
      -7.7280067497882471e-04 -1.7704216477271796e-04
      -9.8343860906660607e-04 -3.3639348763274060e-04
      9.5032213498160269e-04 -2.9477045970898169e-05
      -7.0459407328645927e-04 -6.8110657356880249e-04
      8.4412531420718451e-04 8.7185864551177195e-04
      6.7968841226263247e-04 -5.9313891134498851e-04
      -4.4577378739992521e-04 -1.2406368540226098e-04
      5.4528662095174735e-04 5.0931861640068790e-04
      -8.1657981211166156e-04 -2.0919824745492660e-04
      -1.6739703255916934e-05 -3.2103530192319131e-04
      -6.2228264886558706e-05 -6.0183812876697456e-04
      4.5483336824524135e-04 -5.6854703411633191e-04
      3.9735861681180004e-04 4.2126965467145983e-04
      5.8911197563801896e-04 -8.2393510439992710e-04
      -3.6897192898984041e-04 3.2814464488270973e-04
      -3.4464182569193943e-04 9.0798113036502214e-04
      2.1362972859215171e-04 -6.0266150546680144e-04
      3.1502317669583580e-04 2.3947078311953006e-04
      3.5044758574252527e-04 -1.2690371717209115e-04
      -3.5055116253269775e-04 -8.3303435633319729e-04
      -2.8564015745872535e-04 6.8731980982874024e-04
      -3.9864580466855302e-04 -3.7164180915211589e-04
      5.6799821993364411e-04 8.0698728988508263e-04
      -4.5137992045443225e-04 -7.6123703999473474e-04
      5.8467647667834308e-04 3.5719328546666155e-04
      1.8375597117685835e-04 -7.1967011739098381e-04
      1.4888108326014562e-04 6.3736711422032635e-04
      6.7864259291294804e-04 6.4563596463408722e-04
      1.8062579549231889e-04 4.0618464622326807e-04
      -8.5143920019681903e-04 1.1566427252267781e-04
      3.5522032086966038e-04 -9.3577459122435105e-04
      -4.2237872389888132e-04 9.0358604259188358e-05
      -8.1004518673055906e-06 1.6837645822786405e-05
      -2.4807982805056814e-05 -1.4970074721904432e-04
      -8.5551553914416383e-04 -6.4068338308590498e-04
      2.6756689668756660e-04 9.7494435893449448e-04
      -8.3305161452018194e-04 5.6206797165349082e-04
      1.9008914966585548e-04 -9.4657528328764102e-04
      1.2064828600488566e-04 -8.6785087107321603e-04
      -4.3910832060403075e-04 -5.2206808316043729e-04
      -1.6434489668055676e-04 1.6135320111144844e-04
      7.6161620601661285e-04 8.3973163484540750e-04
      -4.7810588664354059e-04 -4.7030478824052792e-04
      5.9920433769562092e-04 -8.1494710341352623e-04
      -9.8426817661468962e-04 -8.3371732604091756e-04
      2.4692176449106549e-04 -9.0799892168333092e-04
      9.7569576191034845e-04 -9.9595808451661129e-04
      -7.9925970787715010e-04 -9.1959838917654482e-04
      -8.2176459933700006e-04 -6.2900476874262973e-04
      1.5382208007641175e-04 -8.3908753168673075e-04
      -2.7799986396337618e-04 -8.5115117017702283e-04
      6.2744486143352109e-04 4.2946324202352258e-04
      2.9824024830496808e-04 -5.7778157231888649e-04
      -4.8032471105782267e-04 -3.0438153079636964e-04
      8.5248468602734857e-04 -2.0473732084336761e-04
      -1.7079294836977744e-04 -4.3845729904625261e-04
      1.7611154294212565e-04 7.7340337283093679e-04
      7.2286460931067584e-05 9.0228124066067238e-04
      3.4037847831906243e-04 4.0355012463134715e-04
      -1.0040256655637850e-03 -1.1160323427410711e-04
      -9.0623201054500268e-04 1.0524136757729613e-04
      7.1161106630900474e-04 3.9912840318943220e-04
      1.5247079755293026e-04 1.3498030811286859e-04
      2.9932843707594691e-04 -5.0882618502972167e-04
      1.3094871452317696e-04 -8.7132520550752695e-04
      6.9122011677348702e-04 -7.4532171523160600e-04
      -3.1970175691813861e-04 -4.4524201993677428e-04
      3.0907518845817286e-04 -2.8984281320624026e-04
      7.7604320391478298e-04 -3.2577429379029285e-04
      -3.6932094757723507e-04 3.6064184623653503e-04
      -5.8029356311493333e-04 2.1442167390581094e-04
      -6.4710148486272492e-04 -9.0742138662101401e-04
      5.6335826952376000e-04 8.0450254991900087e-04
      -5.7132434081827855e-04 5.1702616133960505e-04
      -8.2236350761475026e-04 9.2565938921061091e-04
      -7.1638605132710994e-04 -6.6325247087107252e-04
      3.7964460765561967e-04 -6.7896587106021540e-04
      5.6143272558712607e-05 8.9472933583992144e-04
      -1.7302077069736828e-04 -1.7347932911078041e-04
      -8.3226172776083851e-05 6.7918425734969027e-04
      -7.0417533133174484e-04 9.4950012811693962e-04
      -7.4996362510844187e-04 6.4624497520931524e-04
      5.4542622460217410e-04 -7.6686277837423509e-05
      -9.7312284497186232e-04 -6.7786808963373575e-04
      5.5896467467185876e-04 -9.7812429301497028e-04
      -7.2719839849974099e-04 -3.4649997304939830e-05
      -7.5687948712707264e-04 -7.4126525665096227e-04
      -9.4824839810895211e-04 -2.5380339360424732e-04
      1.9845980564530652e-04 -2.1791086206524350e-04
      2.5615800307919958e-04 -9.1274653024059718e-04
      3.6411647073428683e-04 -3.7988020388237239e-04
      -1.2409547727710389e-04 -8.3430253770002641e-04
      -3.0895163208502930e-04 -8.3051162785503308e-04
      4.8779683494611385e-04 5.7697811513177826e-04
      9.7017481961604298e-04 -5.8426376295673296e-04
      -4.6114996293453148e-04 2.1958617805538917e-05
      -9.3787696219821122e-04 1.8875840711163143e-04
      -8.5683497021169094e-04 6.4346105874049328e-04
      -2.3463464048131087e-04 7.0796773687903250e-04
      -9.9117672437261533e-05 2.4822261535656554e-04
      3.2579502446610501e-04 9.8745459137959007e-04
      -6.5850484317487234e-04 8.4569186246584796e-04
      7.1042617352393177e-04 2.6433008666863132e-04
      4.3374564223810848e-04 -4.1177944285701953e-04
      -1.6930838433570154e-04 -7.9640092838387819e-05
      5.1209430857763647e-04 3.2286425846419006e-04
      -8.8871866567530962e-04 7.8275638897426210e-04
      8.7233027255723583e-04 -7.8180932069858407e-04
      -8.0913350999604438e-04 4.8614001582941393e-04
      -3.8482783113518712e-04 -1.8104052765259690e-04
      2.9382084886461074e-04 1.3421040093459426e-04
      3.8832490636027736e-04 4.0900837837032125e-05
      -7.2175181065009563e-04 -8.5220319429923225e-04
      7.1394895657984892e-04 3.5119014795452524e-04
      -1.8673696332036993e-04 5.7079788847675241e-04
      9.1972045028571698e-04 -7.5815140502560809e-04
      8.3885577563411458e-05 -4.2005045278467444e-04
      5.0821815106969837e-04 2.0928576601656184e-04
      -1.8976554177429536e-02 5.8110074946356519e-02
      1.0301286652707431e-01 -2.0448330465059287e-02
      1.4203244250136349e-01 1.4454551706385727e-01
      1.8640461336686565e-02 -3.5322407724428351e-02
      -3.3171227813644583e-01 -9.9501863343384067e-02
      1.4909492642956193e-02 -2.4164708287103837e-01
      1.0785861511494620e-01 -2.9073723906763488e-01
      2.2956264047094105e-01 -4.3912527388789348e-02
      -2.6206457527536359e-01 5.4446162714621237e-02
      -8.1597151723956082e-02 1.4339813232906476e-01
      -7.8467970744266466e-02 -1.3559198617829502e-01
      4.4300515907655952e-01 2.4464064415457706e-01
      -8.0160444938525741e-02 1.7979017480344495e-01
      -2.4419907973451754e-01 4.6274938158829731e-01
      -2.3599409547192771e-01 6.0183251672350516e-02
      2.5965155027229436e-01 -5.2063838974078451e-02
      3.1243815736781727e-01 -2.6693386363596849e-01
      7.5253663256742112e-02 -1.8621349494271547e-01
      4.2420484539549730e-01 5.3667486189928204e-01
      8.3735384673890870e-02 1.5684029163081437e-01
      -2.8621696925005707e-01 4.8808507114670724e-01
      -7.4354735171840797e-02 -6.7178731362959598e-02
      -3.8557402106039203e-02 5.4783438563733883e-02
      2.9289972195502278e-01 -1.1819872628559935e-01
      1.6394884174147928e-01 1.4072744895860160e-02
      9.9962920626185420e-02 1.4418055689104742e-01
      -7.5040451287699775e-02 3.2397793725005231e-01
      -2.4918642964698298e-01 2.3334988853568678e-01
      -6.4256524151351690e-02 -3.6708172970396885e-02
      -1.1764996705603234e-01 4.0516291622564371e-02
      -1.7007503522262463e-02 3.9538419980309499e-02
      -1.8302304984823331e-01 1.0581746606523058e-01
      1.3294378341238824e-01 1.3312447571268510e-01
      -7.2109656281027237e-02 -1.2052901643115210e-01
      6.6325099959034961e-02 -4.1060118249106901e-02
      5.9406465926234724e-04 -2.9818150472483540e-04
      3.7313349680801838e-04 -8.3504568091534101e-04
      1.8058388832502636e-04 9.5975986664517373e-04
      -6.3062418210129453e-04 -6.0641585935893656e-04
      -2.4579708023728564e-04 3.2392946576070256e-04
      -5.9699062424200405e-04 9.3891584459894917e-04
      -9.5776004918592510e-05 1.0720074928231498e-04
      -4.2673711982365616e-04 -8.4414661420914876e-04
      -2.2945272106726574e-04 4.2227996177690096e-05
      8.1479797998233909e-05 4.6761823780154657e-04
      4.2397425819596209e-04 1.0954454060922870e-04
      4.7843023852392919e-04 -6.2772178393918942e-04
      6.0536950587042381e-04 -1.8261105665051859e-04
      -4.7512427350547640e-04 7.8185223249418361e-04
      -4.5499262995118424e-04 1.9930158798093768e-04
      1.4234893626479566e-04 -1.4202439993095075e-04
      6.4839203718452328e-04 -4.3769146274199103e-04
      8.6647204314070614e-04 -6.5477776978746060e-04
      -5.2356976939866272e-04 -9.0723437842420065e-04
      -6.8865107151535731e-04 6.0643611849280511e-04
      -2.2191436592061873e-04 -7.4837976517379593e-04
      8.3206773067841559e-04 8.9507892491019433e-04
      -3.2438093328560432e-05 -1.8981629997751628e-04
      -4.0988471965882608e-04 -8.0889100256879560e-04
      4.1493068002824903e-04 -6.5038890330735048e-04
      7.7876922458898858e-04 -3.4318148050347145e-04
      8.8850761445244397e-04 2.7050160275396895e-04
      -2.0971577982376025e-04 -7.3257545697851022e-04
      4.4507541287900130e-04 -9.1561650853316215e-05
      -6.3979020836026865e-05 -8.6638347092964129e-04
      -2.6520923919439772e-04 -3.4668599723913015e-04
      7.2067797571649542e-04 -7.4825428930062096e-04
      -6.2356098318843963e-04 8.7782181644509175e-05
      8.1794810942055431e-04 1.6104314622546645e-04
      1.6085232508939137e-04 3.3879844454306834e-04
      -7.1116312698827700e-04 -8.1062656753948411e-04
      -2.8563800921759794e-04 2.5209224951641045e-04
      -9.6423881688523325e-04 5.3453190227739124e-04
      3.3224840658316383e-04 -7.2284193970513695e-04
      -1.0034039773773019e-03 8.4205909030655665e-04
      9.1723042188265565e-04 -7.6027117761169312e-04
      3.4101723375275580e-04 2.9364091728977860e-04
      7.0496424110311955e-04 -3.7750002589076426e-04
      -2.8528499641966153e-04 8.8260737976973615e-04
      -3.0154275026119503e-05 9.3291155003547889e-04
      -1.9693043115218451e-04 -5.0589936053945742e-04
      7.7929473789941609e-04 8.8660087775925252e-04
      2.1210058677784385e-04 3.7217514418615860e-04
      1.2254341604727275e-04 -4.0853506460959059e-04
      -5.3209753943311139e-04 2.1571808395562253e-04
      3.8881456175529535e-04 6.3441789033597852e-04
      4.1353983382021582e-04 -3.6974458288194337e-04
      -4.0912709870056699e-04 1.1108523411209951e-04
      9.2726531694901091e-04 7.2653942469638505e-04
      6.2338641252882688e-05 8.8867206703648711e-04
      -2.9247710421637124e-04 -1.4636458850990531e-04
      3.6654728293399253e-04 3.4836691365331454e-04
      5.7817607115955422e-05 1.6319680229146254e-04
      -6.3691372916098617e-04 1.9420678183860310e-04
      4.7397560201209535e-04 -4.2873556088442345e-04
      -6.8139644824313566e-04 -4.2235699877526917e-04
      -9.1699088821475393e-04 -1.7470827288412405e-04
      -9.5803155223547418e-04 3.5991409696301609e-04
      4.0554290062947654e-04 5.4269883939275657e-04
      3.2639741858041189e-04 -8.5794048776703419e-05
      -2.9601460333730800e-04 7.3082549383900934e-04
      -9.4988315388490840e-04 1.8245425472625032e-04
      -7.6009102840247098e-04 -1.3742902584565835e-04
      6.9405579933862552e-04 -6.4000277007734497e-04
      -3.2563045553223296e-04 4.6548755142435371e-04
      -9.0198336718998889e-04 2.6138191670554192e-04
      -8.8587550902402177e-04 1.1263632717961943e-04
      -9.7200826136978249e-05 4.9265207954922029e-04
      9.7306646018983022e-04 -7.2010718805646699e-04
      -7.2694433505929410e-04 -5.8263436621331798e-04
      -5.2462995269000944e-04 -3.1203833044193905e-04
      -9.4337267763943929e-04 5.7415713921801022e-04
      -2.7899954006182208e-04 -9.8246237827167302e-04
      -1.8455731648302548e-04 3.2117996991029232e-04
      -5.2761211292659955e-05 -4.5179495698800825e-04
      -9.2791091318321730e-04 -3.6832564033706828e-04
      2.8406864173257621e-04 -8.4105028369544537e-04
      -7.7047276342599020e-04 -9.7828561445702776e-04
      9.6613228821363706e-04 -7.7354001050900921e-05
      -6.4546098240147174e-04 -9.4257430120285102e-04
      5.3775811461906115e-04 -7.6560374850799875e-04
      -7.3844268228997849e-04 -4.0691693407763458e-04
      -2.6003200006300683e-04 -4.8276202620685090e-04
      -5.9210107400348069e-04 -3.7059942763893565e-04
      -9.7231042977166757e-04 1.1296054642119211e-04
      -3.5473179738842358e-04 -4.5073396705072480e-04
      8.9787364044843668e-04 -6.0254787808320461e-04
      -7.4221906239388727e-04 -2.5809765813781513e-04
      5.0411588994499993e-04 9.6318412574280718e-04
      -8.3219181415500494e-04 -1.6262001667739407e-04
      -5.0445894384171643e-04 -2.8629882748348309e-04
      -8.4910514053153623e-04 4.7139078162177932e-04
      6.0167514650714851e-04 -8.8127498692238521e-04
      -4.5046459177915685e-04 -9.8704383908063326e-04
      -3.2869701499455326e-04 -2.3549184968846523e-04
      -8.2761910552255861e-04 -3.2101037221667246e-04
      2.8540355280879895e-04 -3.0003166792896916e-04
      5.3856615756195251e-04 2.5264552140817750e-04
      7.7827514851220507e-04 -6.6539214932569222e-04
      6.3099526128342466e-04 7.3856160717866465e-04
      -5.7029299357202350e-04 -3.9073852965752309e-04
      8.6197277020074272e-04 -2.9548952316858480e-04
      -7.0107949605297752e-04 -5.5134308934861708e-04
      8.8126366165865221e-04 4.1513250017167005e-04
      5.1180005656259995e-04 3.7647394022589459e-04
      9.7780409730451696e-04 5.5435099525443920e-04
      -7.2025465670227538e-04 -6.4425089354378274e-05
      -7.1770171095265477e-04 -1.8440346887403449e-04
      9.0516817794120401e-04 -4.2622489290228971e-04
      -9.2444808776892594e-04 -1.7901423038560555e-04
      -9.8029458861400871e-04 -2.5440820592997687e-04
      -1.4834439756586525e-04 1.5566774825797480e-04
      8.4107914587510095e-04 -8.3362216446394811e-04
      -4.0129833697023998e-04 4.7418849451251894e-04
      -3.9359315639186579e-04 3.2707067378690463e-04
      9.9512709711923209e-04 5.7403901747513010e-05
      3.2022497556388063e-04 5.9174691574727769e-04
      9.9990238185377689e-04 -5.0451635589928042e-04
      -4.2371372517364134e-04 1.7638933755887229e-04
      3.2735936443856060e-04 -5.0023929994781580e-04
      7.4509277173179201e-04 -9.8715058598927057e-04
      -4.9378112407064427e-04 -3.3930923665372118e-04
      5.3862372845340481e-04 7.4314318161543172e-04
      -2.0006173879381071e-04 -2.2717425139853168e-04
      -5.5245047006166452e-04 5.4978130043961009e-04
      -2.9394654962669014e-05 -8.1523781041664516e-04
      5.7898578520947531e-04 2.4397515905270890e-05
      3.7728961197748599e-04 -6.1271000321467585e-04
      3.9054610473848137e-04 -5.0142703691185013e-04
      -3.7868133373393471e-04 -8.9440984321070187e-04
      6.5274320670907304e-04 2.9314338740762963e-04
      -2.8962301404727786e-04 3.2879688690788677e-04
      3.0710049196499932e-04 1.0303989485561957e-05
      -4.4314137425519279e-04 -2.8781889409008318e-04
      -4.6479911913537816e-04 -7.2926940135404066e-04
      -2.2583723883892845e-01 1.9595445487248950e-01
      -1.8969069334020147e-01 -5.2563889421162434e-02
      4.6030350642476042e-02 8.7866048130060367e-02
      -1.9369002561460638e-01 2.5143059795356602e-02
      -1.7196861992471890e-01 1.3609019460382948e-01
      3.0636600323753933e-02 -1.3519373446125074e-01
      1.8877665992987937e-02 7.1490207871542351e-04
      2.0182339292594020e-01 9.6209053510335017e-03
      -4.9525754078315876e-01 -1.6716129165630481e-02
      -2.2078850186336066e-01 8.6624306016777328e-02
      -8.1022081860612591e-02 -7.6288409732695101e-02
      1.9688239510533267e-01 3.0276541771871174e-01
      -3.5823000339243387e-03 -4.6482047826234420e-02
      1.0947500085188293e-01 -1.0811237174432316e-01
      -2.5547566719009729e-01 -4.7829838859037785e-02
      1.4880431609342612e-01 -6.6529258827858526e-02
      3.3303475716381642e-01 -9.2136357804437588e-02
      1.2693865136396726e-01 -1.1194952021028964e-01
      4.1377163607827221e-02 4.7956576449389499e-01
      1.0722763242575781e-01 4.8247293940558023e-01
      -3.5833979170853947e-01 2.6128270045126767e-01
      -2.2421320111900907e-02 -4.4377412820633955e-01
      1.7994556834224909e-01 9.4711314190011262e-03
      1.4077550504866224e-01 1.6033958519120514e-01
      -1.4361933688386874e-01 9.0113765831945983e-03
      -1.9789114464142255e-01 -1.4877964874231309e-01
      6.8146042543002314e-02 1.7892900536880804e-01
      -1.6832342898092342e-01 -1.7999700177580982e-01
      2.7048195552930931e-02 1.1285856454479980e-01
      -5.9432166981745839e-02 8.5456888586608770e-02
      2.3411364094447715e-01 3.4048151086632499e-02
      3.0655550184973906e-01 1.5193237825180819e-01
      2.3790395919590290e-01 4.1888548134829540e-01
      -8.7171669828293441e-02 5.5054708264579817e-02
      -2.1323659331145306e-01 3.0663192509554249e-01
      9.5454492177305197e-04 5.5260490186286753e-04
      -1.3749732722317733e-04 -6.4172868095732161e-04
      -3.3100253350228488e-04 -9.7873880552676491e-04
      7.4047821736401636e-04 8.0044053076223757e-04
      -7.4771908242571956e-04 -8.4991908113236122e-04
      -7.3947012084334552e-04 -6.9190685422056023e-04
      -9.5913926528689479e-04 2.9657204856818928e-06
      -3.7607136466284317e-04 5.8467562633983316e-05
      -2.9807571230780347e-04 4.3731562403085029e-04
      4.6253045116212383e-04 -3.2302094981193329e-04
      -4.8760915179008610e-04 7.2648728319632181e-04
      -6.6685120358139750e-04 2.6956499299843266e-05
      -2.6804323240434548e-04 6.3293082503190008e-04
      -1.3773251585483209e-05 -9.2898245741906374e-04
      3.3209995183556743e-04 4.4021037165078753e-04
      4.3354719172126408e-04 4.1722492447505082e-04
      -2.6484343921940007e-04 -5.6641910581180287e-04
      -2.5054923938343530e-04 -2.0989275373314831e-04
      -9.3099009167277823e-04 3.4492923245529693e-04
      6.1589340209170439e-04 -4.9723431351691213e-04
      7.4401806128312987e-04 5.5649937527081812e-04
      5.2139967697755645e-04 -1.6769934933616489e-04
      -2.0429662174897790e-04 7.3648322299379326e-04
      5.9513468730905536e-04 -4.6608690773715530e-04
      -9.4688442923293473e-04 6.0760608179446552e-04
      -6.3883595008009156e-04 2.0853652646516657e-04
      4.5280987183198148e-04 6.0947174115044103e-04
      7.4159802779402359e-04 -9.1529012509607534e-04
      -8.3087425967727014e-04 -1.5335144219896118e-04
      -2.3673513484233102e-05 -1.8110519890010953e-04
      -6.7451307361155149e-04 8.8250914212081299e-05
      -4.7784087398047430e-04 7.0226185583369442e-04
      -6.5723211200713349e-04 -2.4069858447581024e-04
      8.5157496681257576e-04 5.6547195704341772e-04
      4.8724667834803702e-04 6.7542554311453588e-04
      2.2211890889493139e-04 -9.8192133966789556e-04
      2.3940562753755270e-04 -8.7664554348354301e-04
      -2.7869508353152108e-04 -4.3835850629052352e-04
      -7.9743858636358153e-04 -7.6731419888202598e-05
      1.9451271207252319e-04 1.1731657675461069e-04
      8.2167954137361105e-04 2.5178187985309454e-04
      1.1262631320286663e-04 4.9651814914670350e-04
      6.0121620048169972e-04 -8.5794711302188554e-04
      -2.5797912361500281e-04 -5.1293712037197648e-04
      -4.0732650842845175e-04 8.5790443265684659e-04
      -1.9438121437823769e-04 9.7302983046529856e-04
      5.2793668431909066e-04 -7.6762447392462931e-04
      4.2572376513273486e-05 2.2032754959956779e-04
      3.8428341102762277e-04 5.2794616843670063e-04
      -8.3446498291405834e-04 -3.1719688858783054e-04
      5.8230248708333822e-04 -2.3651956026778191e-04
      -2.7182445451878133e-04 1.7505740356031012e-04
      6.0045496911044396e-04 -3.7102203737025358e-04
      6.5714437192646794e-04 -3.3578244381933541e-04
      -5.8465684153858992e-04 2.0498530119843868e-05
      -9.1286936577586160e-04 9.9857276451678981e-04
      -9.7845156584211766e-05 -9.6883479418280859e-05
      -2.4502983843141985e-04 5.0065010047039258e-04
      2.3878222185580699e-04 5.7413404592922778e-04
      -1.0523196691943308e-04 -1.7018936506349360e-04
      -9.9970413896164216e-05 -4.5079920543643099e-04
      9.0205719749444642e-04 -1.9057320606418628e-04
      1.5692328050046888e-04 7.7947954722192543e-05
      5.4992844145152137e-04 5.4603063868207075e-04
      2.4057766657929798e-04 -9.3486892388513414e-04
      1.3409099439332906e-04 -4.8777713487674937e-04
      -1.6252414353891645e-04 3.8940530560350214e-04
      9.4938185942379516e-04 9.5726735166539888e-04
      -7.1922722539328684e-04 8.8868347663734334e-04
      4.4997776433464896e-04 7.5409698173182257e-04
      2.4643996159895383e-04 -8.9874790299456810e-04
      -2.2030030467129136e-04 2.4018263940609093e-04
      7.7160076070196745e-04 -2.6417435204831286e-04
      2.9619396071153538e-04 4.1457621487410001e-04
      5.1076720078575822e-04 -2.4649776041547493e-04
      1.2235286963631418e-04 -4.9956695440090521e-04
      -9.5913309155154286e-04 2.6718198654649794e-04
      7.9812983474869504e-04 2.7128545262559949e-05
      5.0975995073412178e-04 -6.7813546960113821e-04
      6.5345490202309238e-05 9.7573286006416105e-04
      7.4463178112626056e-05 2.2143686311205653e-04
      -5.2624456729345075e-04 5.8141862176737185e-04
      6.9122755043602758e-04 -5.4246599374310972e-04
      1.3784335536276687e-04 -3.1674293946761878e-04
      -6.3008199943027050e-05 2.1513764666640571e-04
      -3.4684438310505502e-04 -9.2173808292088738e-05
      -5.8358887207482181e-06 -8.0647304346253461e-04
      -2.2449532455119873e-04 8.7458238428963792e-04
      4.3350100640280893e-04 -2.5028581334113901e-04
      9.4942856719154817e-04 -6.4565540171532840e-04
      1.4937507396144882e-04 9.2586707674876005e-04
      3.5612285655320830e-04 -9.7069093972805282e-04
      -4.0925710147568082e-05 -2.8055347533207010e-04
      -2.5856317004134197e-04 -1.9020698714038083e-04
      6.2295887304059667e-05 5.8081553437214727e-04
      3.0045514743731538e-04 -9.0278424823394849e-04
      -1.4941776126323693e-04 -1.6577683648109237e-04
      1.1496237872242433e-04 8.9795486206428906e-04
      6.7297619775439504e-04 -6.6978717938650405e-04
      -7.5713892937692197e-04 -4.6311340570135865e-04
      5.5908033661036729e-04 4.3587904414308873e-04
      -8.5105378481447073e-04 -4.9699135560649815e-04
      4.8480842755960730e-05 3.1191139522815473e-04
      -7.8247771652934493e-04 -4.3194025656977792e-04
      -9.2347252811240672e-04 -1.9967952617470260e-04
      4.3535336679844164e-04 5.3982822736959950e-04
      1.8962486969376587e-04 2.9033254394603825e-04
      -7.2019955116469974e-04 -9.2010735109369793e-04
      -8.1532168419707436e-04 2.6502096038610927e-04
      -8.8296308813768829e-04 -3.3948138299989578e-04
      3.5066643608014689e-04 -8.0455964831469484e-04
      7.8967254018016324e-04 4.4430402971781466e-05
      -3.0160440778433475e-04 3.3453616735613131e-04
      1.5611071066382973e-04 8.0840404181768623e-04
      -9.8446223061700959e-05 6.5213968962322120e-04
      4.5326438279310162e-04 3.3015437904691482e-04
      -2.3928529320245217e-04 6.0650588878045388e-04
      5.4388665710574562e-04 7.9809723982140080e-04
      3.4504633683895121e-04 -7.6786835258601629e-05
      6.7209580226056391e-04 5.2754093477155619e-05
      9.4868780736363486e-04 6.8897724552686253e-04
      4.4783725114802271e-04 -5.8666249204030211e-04
      -4.1553917244671222e-04 -6.1221726698046190e-04
      -9.3187224694998231e-04 -9.2679023123984133e-04
      -9.5708304970924492e-04 -8.1805560619392322e-04
      9.1990343669182446e-05 3.7684982644680678e-04
      -1.8390323243004699e-04 -3.0904159547843482e-04
      5.4907221466922072e-04 2.9754758031582475e-04
      7.4933980249162623e-04 8.3746848838448472e-05
      1.7786082777571026e-04 7.1393891909655983e-04
      3.9491768192914579e-05 -6.0394155007162430e-04
      1.7352942497505405e-04 -1.6450796010570836e-04
      -5.5832657171292358e-04 -5.0548969483491825e-04
      1.6344468821207406e-04 -7.2729700604616510e-04
      9.8973377224739756e-04 2.7343025276779293e-04
      -4.7498423133698317e-04 -2.1324850228636813e-04
      9.8586365281518084e-04 2.1611908247843231e-04
      7.3196102824773390e-05 4.0766656133304856e-04
      9.5864617904444416e-04 5.8834705886343921e-04
      -7.0844622103817577e-04 8.2375920050285008e-04
      -2.1837368941550719e-01 2.3354970625380753e-01
      -1.0206679134813407e-02 7.2860978824200199e-03
      -1.8550063577432968e-01 2.6459773374656004e-01
      -2.8966189824343774e-01 4.1203393889612056e-02
      7.5444422656356022e-02 2.5395638044227653e-01
      9.0252842131584229e-02 2.7616503252453434e-02
      3.5548902566017587e-02 2.0878892695440163e-01
      1.6399935010538022e-01 -4.1610805592243810e-02
      -4.3383423714220931e-01 -7.5360535176479754e-02
      -1.5996387178853314e-01 1.1641494856902733e-03
      -9.8789041014807372e-02 -1.1803430483149207e-02
      -5.5221558080504662e-02 3.4174101389508139e-02
      1.3435450162591038e-02 -2.7841262992473409e-01
      1.2614273452350255e-01 -3.1356499004421146e-01
      -2.0311497993258040e-01 1.2479019438056244e-01
      6.7617232310967737e-02 -7.7652819898900383e-02
      2.8756455452149476e-01 -8.2428290405458196e-02
      1.7794358881571593e-01 -1.2351941121947893e-01
      -2.3446840973043148e-01 9.3359850047338822e-02
      6.6278202545109535e-02 3.7219433995512330e-01
      -3.1143878795747476e-01 6.7176226104753420e-02
      -6.3047373517059566e-02 -5.1567460278298227e-01
      -2.9821515728521131e-03 1.5453975531437872e-01
      2.1180325377463738e-01 -2.4822045795794234e-01
      1.5354322274249249e-01 5.5178034888983311e-02
      2.3180635711118536e-01 -1.5015401426459585e-01
      -1.2708012842540134e-01 2.2066951177215385e-01
      -3.3319364997781997e-01 -6.5639771988686230e-02
      -1.0466218056178735e-02 -3.6183422739877680e-01
      1.2956132213233920e-01 -1.3920797966340892e-01
      -7.6142714945160034e-02 1.7972870886137016e-01
      -1.5192183782273580e-01 1.7803692425148013e-02
      1.9542477150851473e-01 4.9848153263276390e-01
      3.5227768536989161e-02 8.6113190365899442e-02
      9.5738616739538790e-02 2.9639567912884873e-01
      -5.2988076392893860e-04 -7.4120430952185614e-04
      8.2303417398765766e-04 8.2183852054509667e-05
      4.1699244549813066e-04 -5.4197503385178031e-04
      2.0661328749073515e-04 4.6852375283955641e-04
      1.5508412294217897e-04 -1.5242693435254265e-04
      -1.4154950529318271e-04 7.2913688201068627e-05
      2.2358967628231542e-04 9.1714957997346435e-04
      -9.5382624290909698e-04 -5.5256161155248901e-04
      -5.3123524412365154e-04 8.5678148167097614e-04
      -1.1621221987660276e-04 -7.8333897660393494e-04
      -8.6064326495065117e-04 4.5294668904180660e-04
      2.9599784089196434e-04 5.2206558903455805e-04
      -5.0962753112726155e-04 -4.9824981680244229e-04
      2.1095062053256726e-04 8.0581606695481886e-04
      3.9781079380064285e-04 9.2530213930107276e-04
      -4.5800428316905767e-04 -9.7200220142833562e-04
      -4.3395795314228966e-04 8.7031257068499008e-04
      6.2025041066874047e-04 -2.4831430332106913e-04
      -9.4100831926777992e-05 6.3053750367679474e-04
      4.7174711850714008e-06 1.5113865907068650e-04
      -8.4764753187388227e-04 4.6526849394603530e-04
      3.9844805601358107e-04 -1.5773643681421537e-04
      -2.4461005964632307e-04 -6.1419453406741950e-05
      -4.8667179873869578e-04 5.9873220328423313e-04
      -3.4983857450362772e-04 6.9917319861642038e-04
      1.8214728927939738e-04 -7.7796469589473780e-04
      -1.9078604969477108e-04 3.4938985719707406e-05
      4.5019811164374282e-04 -3.4924752134011584e-04
      -4.3147265951459760e-05 4.3308489530612029e-04
      5.3536278484528485e-04 -7.3484238343703373e-04
      -3.3969847950893900e-04 -1.9574392217216411e-04
      9.5184110899842274e-04 -2.4249203276550862e-04
      6.0696365924798722e-04 9.6430738627757890e-04
      7.3946381444251483e-04 8.7307383502777721e-04
      -9.0975751325276220e-04 7.2281703876724750e-04
      -3.7797985923479106e-05 -8.4754248998297071e-04
      6.2790231031113904e-04 -8.7411720380382581e-04
      1.2986928768534997e-04 -3.8811616613053932e-04
      -8.3464560697202870e-04 5.4111748226674046e-04
      1.6169442997299036e-04 7.1724243146180562e-04
      -9.8137506628543400e-04 -6.9703683111487608e-04
      5.4851197076257873e-04 9.2949246692360175e-04
      2.5889651054073238e-05 -2.9564767703870592e-04
      1.9060258867549656e-04 -4.9023558811708411e-04
      -5.2171986693135778e-04 -8.2383943691357675e-04
      -8.6335268300624928e-04 -9.7251647532682736e-04
      1.6631563937324748e-04 -6.9798673101877375e-05
      -5.5747915286378461e-04 8.2292619680546632e-04
      -3.0370273732523156e-04 -4.1184084633324108e-04
      -3.1444588340824185e-04 6.9303717568570380e-04
      3.0642408480347600e-04 -8.4160322807059985e-04
      -1.4638827134502395e-06 -9.6308499655709640e-04
      -8.9529675965325020e-04 7.6485688858558723e-04
      1.7744161943006027e-05 -8.5045050056168790e-04
      8.3988422557060478e-04 3.0682878565285379e-04
      -7.7023536771739340e-04 -7.6925699746759372e-04
      -1.0593456126256314e-04 -5.4423494494445026e-04
      -6.7841185403956560e-04 4.5351145871802047e-04
      9.8058202973171928e-04 -8.5922234780836824e-04
      -3.9733259774455879e-04 -8.5036332389381924e-04
      -2.9859745654629339e-04 -8.0568125606569831e-04
      2.6368791061316194e-04 9.5055376562938826e-04
      -8.6248079952113972e-04 -2.8777391064489127e-04
      4.3467398036545912e-04 9.8974127366062772e-04
      -7.9069033770011042e-04 6.7956916231775135e-04
      -8.2196784258805288e-04 6.0555863189373619e-04
      -1.5858458403750043e-04 6.8121359332502590e-04
      4.1656665354624381e-04 -7.9860365696184630e-04
      -5.6320628576036905e-04 -2.6997441568928744e-04
      6.0847598262443216e-04 4.0327807395105673e-04
      8.3793899036915733e-04 7.6605574203129738e-04
      -2.5707256955570800e-04 8.2995828828376697e-04
      -7.5388578172897239e-04 -7.5706788206616197e-05
      2.4424327627078327e-04 -1.6390448694533440e-04
      5.4391974565517922e-04 2.2103683490200715e-04
      4.0342370062850799e-04 -2.3024098415838303e-04
      -4.9123201564458456e-04 -1.2056422598372206e-04
      9.2874404609251866e-07 -1.1605543575320884e-04
      7.5852882186299494e-05 -7.0217913411161584e-04
      2.8251084720311629e-04 6.6026318811398046e-04
      2.8243426011211471e-04 7.5383211401667432e-05
      -6.4680973712824964e-04 2.6115236530188348e-04
      -8.3073951831001572e-04 9.8187397819093198e-04
      -9.7623991936392543e-04 -2.4279986490907297e-04
      -3.1852553745598494e-04 -2.1383418276740841e-05
      -8.0687905461091088e-04 -5.5303704865058544e-04
      7.5311873536467130e-05 6.9631683630068766e-04
      6.4378801315067311e-04 7.0769727995859003e-04
      -7.7447446165137819e-04 5.6165830388341749e-04
      4.1106056804259624e-04 -5.1007075130400008e-04
      -3.7226408041605844e-04 2.6902831781319648e-04
      -9.2314083007762168e-04 1.3629606553593876e-04
      7.0582498645982395e-04 4.2558460894818355e-04
      -8.9687632112304743e-04 7.2556534125877488e-04
      1.7782987689563928e-04 4.7497511962127056e-04
      -3.0758306202795805e-05 8.7335267163843018e-04
      -2.8630254229710652e-04 -7.3291264518399754e-04
      -6.4051553591138344e-05 -1.5631116055133074e-04
      -7.3368585029405162e-04 8.2192557180090756e-04
      3.3047245171014855e-05 -5.7045946413400081e-04
      8.5529397209916551e-04 -6.8575808842712463e-04
      -5.7282915696295378e-05 9.6747475359812993e-04
      -2.7146100018234521e-04 9.5800373008762439e-04
      -2.2048077121311833e-04 1.3738291121230095e-04
      7.9773346828907211e-05 -6.7251708206251561e-04
      6.6092766923699813e-04 -9.6474849645501303e-04
      8.7541599509831597e-04 -7.4008298826405380e-04
      -6.9368356700360472e-04 7.1529599762445127e-04
      -7.0018744527355247e-05 1.4963851488349742e-04
      8.7330606608604364e-05 7.0785538791861332e-04
      8.1857273337902065e-04 5.8235105389861880e-04
      -9.0494995135903175e-04 1.5254637873952595e-04
      -9.8901897155341729e-04 6.4255909620271226e-04
      9.3241900053341400e-04 -8.3413232835373885e-04
      -1.1986748772556334e-04 1.8440639278534206e-04
      2.0303300423689781e-04 -8.9177006405019479e-04
      -2.0938335152048736e-04 6.8419979651477287e-05
      -7.4283751419455433e-04 -9.0690295421690158e-04
      -3.8359247097389772e-04 4.7526212432639272e-04
      9.8043713951084062e-04 3.5862213795209355e-04
      -7.5177549451584948e-04 2.0576547604902486e-04
      -3.6273368176440585e-04 6.3223520862192798e-04
      -7.9927432915745552e-04 5.2022184689806314e-04
      5.5084011133115689e-04 6.8493752035963997e-04
      -1.6790860801105999e-04 4.7780499606193846e-04
      1.5406924986284025e-04 -6.6995806001695789e-04
      4.1795234840789761e-05 6.5121758929787043e-04
      9.6586676269231936e-04 -1.1757984479033153e-04
      5.2703111024344021e-04 -4.5213286281858752e-04
      8.1545943609691621e-04 5.6122463888013915e-04
      -8.4620829050350682e-05 4.6127696074518555e-04
      -4.0649801812955946e-05 7.2891860298928757e-04
      -7.2631727860752180e-04 -4.9753911963511027e-04
      4.6801148475136264e-04 -7.3786517828066365e-04
      -3.9938665307071106e-04 1.6430708846750628e-04
      -6.6422580630125282e-04 1.2336407784829631e-05
      5.8532125131168736e-04 7.1518971795846912e-04
      -3.5818124333278633e-04 3.9772943208109848e-04
      -6.1132489919438172e-04 -5.3400389366547139e-04
      3.9703856205692835e-04 1.3951449199030479e-04
      -9.5903955542316288e-02 -1.1636638814878123e-02
      1.3602176891716863e-01 3.9337304261585125e-02
      -2.1947680932824160e-01 1.1278228822994515e-01
      -3.5430826076284055e-01 2.8452380820422150e-02
      1.6842041745402894e-01 2.3003082564209723e-01
      -2.5546032248993475e-02 2.4753233667768680e-02
      3.0477470265366832e-02 3.5667579017263740e-01
      1.0108089091306645e-01 2.7060856587635133e-02
      -3.1161635513613634e-01 4.5429481788481869e-03
      -8.6955790057873447e-02 -4.2315044842937702e-02
      -4.5261169692526138e-02 5.6694096052355647e-02
      5.5205615898697873e-02 5.6910164376354627e-02
      1.2191248963947211e-01 -6.0805393475524057e-02
      9.6134376183106777e-03 -2.5853847667540625e-01
      -1.3567145412816750e-01 1.1852381021145104e-01
      9.0610912589929413e-02 9.1670413582225965e-03
      1.7367691320769132e-01 -1.9004875021889697e-01
      -1.2439611910938862e-01 -1.3581685439418323e-01
      -3.3695571828428134e-01 3.1926464969371897e-02
      -3.6460059109151656e-02 2.3216600515112207e-01
      -6.1989172487632194e-02 1.7101912459292712e-01
      -1.4458293098518440e-01 -1.2995062993583267e-01
      -1.5301542202021989e-02 9.7277474983786902e-02
      4.6683254777664462e-01 -1.4079193066995083e-01
      1.8943455635507264e-01 6.4645586284059794e-02
      -3.4972968740774754e-02 -7.3543875698900099e-02
      4.3370565849675125e-03 -4.6501077686944364e-02
      -3.8145741156520019e-01 1.5837263612405830e-01
      5.0432184785570842e-02 -2.1882747037726741e-01
      -1.2668743088177753e-01 -2.5579455319165817e-01
      -1.0512277576114788e-01 4.2900597657469847e-01
      -5.4523131890762599e-01 -1.0285825885510995e-01
      -9.1363303251284875e-02 2.3077414790388043e-01
      4.3699867207103407e-02 2.8091855785790893e-02
      2.1356163995891389e-01 8.1051590376963106e-02
      -6.5896271267508781e-04 9.6457643337980001e-06
      9.2675658917622987e-04 2.4444217828338192e-04
      1.1765993325022576e-04 -8.5117991098880195e-04
      5.1953825870492115e-04 1.6805229873407235e-05
      -9.0070431906624001e-04 5.7658794489517311e-04
      -8.2508369496220064e-04 -5.5071163961935234e-04
      7.7750415936667886e-05 6.3839161001961922e-04
      8.8580666500362372e-04 9.7869445085346091e-04
      -2.2697783799720351e-04 -1.0527310751802320e-04
      7.8689823324566254e-04 3.7436784112421104e-04
      9.6652668228327512e-04 2.4682040988695296e-05
      -5.1109071173663739e-06 3.7589412167839467e-04
      -2.2874821168337780e-04 -6.4303463123066367e-04
      2.6420164607637132e-04 6.8311914582131568e-04
      -7.8375638616499466e-04 -8.9218163545922368e-05
      -5.9434600344267111e-04 -4.7724423126247010e-04
      -5.3905444145432206e-04 1.3579957114682339e-04
      -3.3137272417852430e-04 2.9716080763022001e-04
      7.8021501779583946e-04 -7.5949535213699242e-04
      8.7915087537822215e-04 8.3596561949088701e-04
      -9.6168737754468196e-04 -7.3975147807663945e-04
      -7.7141941749746517e-04 1.2298357749642859e-04
      -3.0448648200138723e-04 -7.1782753105015913e-04
      -8.0137888990073150e-04 -3.0791442352901406e-04
      5.4811076083265402e-04 -9.5959869664665560e-04
      8.8278385582556628e-04 6.1828368703851513e-04
      -4.9356021229617607e-04 -7.2820629435882097e-04
      5.0871057280757091e-04 7.2060312543417292e-04
      6.7495354665342332e-04 8.7496938168573119e-05
      5.4229912445648970e-04 5.1759181999133609e-04
      1.5349488135224263e-04 -6.3709575032837871e-04
      2.4322716907628929e-04 6.2257538680309747e-04
      -7.9435989201444594e-04 -7.3082186204398366e-05
      5.8782383146966592e-04 7.0978814812247895e-04
      7.4639375589109454e-04 2.3226124390967617e-04
      5.0997398947122646e-04 -3.9565730034754777e-04
      -2.0747427771756555e-04 -1.4670522118840886e-04
      1.4407289657703503e-04 -4.6626650295712903e-04
      4.2295869778754885e-04 7.3356111282382481e-04
      9.9199438175645409e-04 -6.6572693371505162e-04
      1.7004966558468749e-04 -9.7177291406815318e-04
      3.2878823209152021e-04 -5.9859719757065783e-04
      -6.4392525647043489e-04 5.1606387270297454e-04
      -8.4990708875377777e-04 3.6938691553136326e-04
      1.1527665062568669e-05 1.1161629099844276e-04
      -2.7620046449550965e-04 5.5820318016081266e-04
      9.9298350591300508e-04 9.4074840764973757e-04
      6.6336510744773134e-04 5.9114061057973581e-05
      8.4834701505719079e-04 -2.9602557354441698e-04
      3.3732373167563945e-04 -2.5659740010641378e-04
      -6.0504886976023386e-05 7.4397269286522274e-04
      1.0146527873743437e-04 -8.5804844615902697e-05
      -1.7588951629236012e-06 8.3005111222543993e-04
      6.1846228680715730e-04 6.4941479624399041e-04
      7.9023236398103965e-05 -3.8807097382724385e-04
      7.9591902210582549e-04 -4.4412536757701664e-04
      -3.3388664183843259e-04 -8.0104304015184190e-04
      -3.0411007824694805e-04 -6.0433589749305146e-04
      -4.8249248639128305e-04 -5.6639571826712148e-04
      7.8915067431990684e-04 -9.7031802089705391e-04
      6.4885428678567217e-04 -1.8486566291648601e-04
      6.2464215331480908e-05 9.0118941389418395e-04
      3.7948436215131390e-04 8.5187470707566199e-04
      2.0526336514799709e-04 6.7712484543436424e-06
      -8.6319266375819341e-04 -5.0846950988789710e-04
      -3.9572114159501235e-05 3.8666609338099009e-04
      4.0312285546968698e-06 1.1372134551819137e-04
      8.0446625444837035e-04 -7.2395030958503372e-04
      9.0431772436792227e-04 -2.2159381161901716e-04
      -2.0889880766253489e-04 -2.9425662764226776e-04
      -9.3063244297340040e-04 1.8063531200613133e-04
      4.4980896133950366e-04 -8.5297665567581928e-04
      9.6770829395319356e-04 3.1984385224914702e-05
      3.8177247611661630e-04 6.3480745093704707e-04
      1.3356041795351011e-04 4.7737591210498598e-04
      7.1325301978967745e-04 -6.3053768533371268e-05
      1.6358852486249076e-04 3.3558858110739994e-04
      2.0435797994402001e-04 -2.2573418468194175e-04
      -5.2318447983985491e-04 8.1324544464801587e-04
      3.1880727868690038e-04 4.7655141754191871e-04
      -5.9412876581487926e-04 -3.7670048325865981e-04
      -4.7339771734204310e-04 7.5304695058210787e-04
      5.7688952257145900e-04 1.8933261434079222e-04
      -6.2859180927728897e-05 -9.8067920267473453e-05
      7.1045654223948936e-04 -8.3177059602576611e-05
      -5.0823414383570483e-04 -8.9040032577577795e-04
      1.6907201378823457e-05 -8.1663450357916285e-04
      -1.0455288222798747e-04 -6.1594342485760340e-04
      -5.0395453386237632e-04 -9.0378827632356384e-04
      -3.1414350869585819e-04 -8.1060847277696730e-04
      6.5438535576881876e-04 -5.0259933124386757e-04
      -5.4201719636851942e-04 6.0083241278096114e-04
      -3.7108464840769119e-04 5.0088539024122287e-04
      7.5130370098268979e-04 -3.9330262756916167e-04
      2.8831673337114723e-04 1.2884441405077525e-04
      5.6288009790521202e-04 -2.2021479552524587e-04
      9.0440928832000460e-04 4.0860222452289885e-04
      7.1650055725342885e-04 6.5859702916833216e-04
      -2.4939595194667291e-05 -8.1320012579341923e-04
      -3.4714561418786806e-05 -4.5732841824761391e-05
      3.1674134020262280e-04 -9.9087211307414213e-04
      7.8701571166280341e-04 9.2219629256715455e-04
      -9.3181751191885598e-04 2.0466778169800766e-04
      -9.8306503856831801e-04 5.3975087728311397e-04
      -5.9463864238852842e-04 6.7687960384009058e-04
      -7.2905357917503368e-04 -2.4298375532052379e-04
      -4.3171253801419776e-04 6.7199104343538965e-04
      6.2807045930172187e-04 -1.7172505361355016e-04
      2.7027465002867838e-04 -7.7113671088306971e-04
      -7.7587442608398403e-04 5.2971586890186240e-04
      5.7006710891509672e-04 5.7018168085390050e-04
      -8.5328415365418730e-05 2.1088872355905220e-04
      -3.0113102398953231e-04 -1.0873828110658194e-04
      9.7110742217254922e-04 -6.5904362428283474e-04
      -6.3777110142875122e-04 -5.2311764217944875e-04
      9.1811230838108884e-06 -6.3674201604352278e-04
      2.2454761740357606e-04 3.7431211804259411e-04
      -1.3880515751349320e-04 9.9193556479668793e-04
      7.0338520769212104e-04 -9.1318131507725693e-04
      -4.0817727377044584e-04 -5.9153038217051303e-05
      -4.9418968989466247e-04 -5.1998529339558619e-04
      3.2437407352576886e-04 9.1692957941350147e-04
      -2.0826739341418393e-05 5.2058116535649271e-04
      9.2695099120368896e-04 9.1945693663585755e-04
      -4.0788941255082123e-04 7.7336070119165493e-04
      5.3009037099696870e-04 4.9372954035297443e-04
      -2.8221329180046204e-05 -5.4144179752424935e-05
      -3.4938651867961611e-05 -9.5661101460236869e-04
      5.8672167760099138e-04 -1.5940495612938555e-04
      -5.9118114837906910e-04 4.1339388240330908e-05
      -5.6578106828612145e-04 4.1037613844336983e-04
      8.3985172665589200e-04 -6.4242080847192720e-04
      2.3435306681279786e-04 -7.7421856500771121e-04
      9.7556056122205450e-04 -4.7169168126090039e-04
      9.6361610708860332e-04 -3.2714132242099808e-04
      7.9428809661305792e-04 6.4758451994407986e-05
      -5.1599416911587287e-04 9.1207003518293443e-04
      9.0992591484202767e-04 7.2569146606281084e-04
      -1.3866519643093096e-04 5.2801749332287808e-04
      4.5504665616984520e-04 8.1022517420223177e-04
      9.4738911775482538e-03 1.2641017272225624e-01
      -8.5830055223420340e-02 8.8049726007664184e-02
      -9.6928871723033175e-02 1.1159237965723681e-01
      -2.0909069358889609e-01 -1.8908968371015002e-02
      1.2180103761030921e-01 2.3004505729850844e-02
      3.4340012920956779e-02 1.0999972776552121e-01
      -1.4063251856762818e-01 1.8826844009859328e-01
      6.3433867217402601e-02 8.4778467047869802e-02
      -1.0324916524141098e-01 3.6723462868302310e-02
      -6.4194783351513893e-02 9.4784022120426040e-02
      6.3609056388371513e-02 1.0448625709775354e-01
      -1.9200156514837224e-01 8.3765621803729096e-02
      -1.9236530284987796e-01 -1.4062891366883404e-01
      -1.5813235700358901e-02 -1.8627754522926054e-01
      -1.2546276930282518e-01 -2.1781787330360844e-01
      8.4502384754256116e-02 -6.5052276280865379e-02
      1.0871562896801050e-01 -1.1479038507124337e-01
      -2.1970264037055670e-01 -1.3098100605317248e-01
      -4.4873105767906968e-01 4.2030434341568879e-01
      -5.6996084680355809e-02 1.6861825111960743e-01
      2.9429114060950997e-02 1.9382614972362458e-01
      -2.7598378520877437e-01 2.5178189837892312e-01
      2.5297021704939231e-02 -1.9198634235003131e-01
      2.1561628403751038e-01 -1.7198198895445313e-01
      2.3222060387128898e-01 1.1380123818658675e-01
      -4.7628023790518487e-01 1.5365391949620322e-01
      1.2892883762966356e-01 7.1121965380792712e-02
      -1.8194780162479382e-01 9.4479667343217250e-02
      8.3718059877046058e-02 -5.0999950066948317e-02
      -1.8517770923129728e-01 -1.2023724715744190e-01
      -3.0078675165574997e-01 3.0006882151835818e-01
      -4.8854437957904873e-01 -1.0621094028578168e-01
      2.2177961772365432e-01 -1.3034960482977110e-02
      3.0905092810505512e-02 8.0076750784565054e-02
      -3.6594967924284828e-02 -8.2374650753172119e-03
      8.3263423979676563e-04 -8.4786069671006592e-04
      -7.5565192616670722e-04 5.0014727632140656e-04
      8.1445496445916240e-05 -1.5375977901624068e-04
      3.1157413042782664e-04 5.7440954913343036e-04
      -4.4809022763381570e-05 -8.6139293062038565e-04
      2.0323147842432624e-05 9.9788374473865112e-05
      4.2210588118861284e-04 9.6862471532498421e-04
      -1.6058016952456380e-04 -3.0764871430129747e-04
      -4.2679735784217020e-04 6.5934316623317095e-04
      -7.0869080937230620e-05 -8.0294539393136366e-04
      6.4911610702451451e-04 -3.4126178660597674e-05
      2.3409328900649714e-04 -5.8679994313430669e-05
      3.8543929840662120e-04 -9.9791668106307286e-04
      -8.1499711187068248e-05 8.6771172670026511e-05
      -5.9718540487702944e-04 -1.4477181929742230e-04
      -2.6396761459002041e-04 -2.1723156281900293e-04
      8.3788236555055594e-04 1.3346948651319973e-04
      -2.8792256848286709e-04 -6.8378261652817581e-04
      3.0766942514395612e-04 5.6762794760664367e-04
      -3.4684788540970959e-05 -2.6337501725420706e-04
      -2.0940759284786219e-04 7.4824696646637995e-04
      -3.7761754861208758e-04 -3.9803106533791680e-04
      -5.9954680335512684e-04 -7.1580106353523226e-04
      -2.3722159937118587e-04 9.3456374086815569e-04
      -3.5960825366043240e-05 -9.3685820684385492e-04
      1.4871929902171444e-04 -1.0017562883527762e-03
      6.0437727026244482e-04 -7.8900272186845403e-05
      -3.9201380182020792e-04 6.1703891808710600e-04
      -7.1722735018557712e-04 8.5766253039477804e-05
      -3.1151438291008302e-04 3.3007745003245912e-04
      -6.8031504712250156e-04 -2.3372762650441251e-04
      -1.9815419964496424e-04 2.6007780208453572e-04
      -1.5041410923918343e-04 -4.6528770032356590e-04
      2.5629121711157846e-04 -4.5502278451136247e-04
      3.6640594479098859e-04 4.5587258250047257e-04
      -3.3293361188871375e-05 5.9153362557780809e-05
      -1.9683167237522848e-04 4.7305232076407220e-05
      1.0051509137100484e-03 -3.6099809887887689e-04
      3.8902596667027728e-04 5.0309245373190167e-04
      -7.2972054968612138e-04 -6.9364331886229703e-05
      8.7220278349383021e-05 -2.2652315354467230e-04
      -1.5853017470016321e-05 -3.1505865059000521e-04
      9.0756710092304005e-05 8.0238839099878762e-04
      2.6214888451786035e-04 7.2515844384967885e-04
      -4.6791883999684270e-04 -5.6004470401203323e-04
      -4.3264008359051166e-04 -7.5351234552587941e-04
      5.4513364720386423e-04 -4.7473002474284295e-04
      6.3537662546663248e-04 1.3065940959947349e-04
      -1.0280558912879490e-04 9.5921784960779758e-04
      2.9436295886667551e-04 5.7076519223933240e-04
      -2.6816288548937064e-04 4.5856120415707191e-04
      -7.7591853517560783e-04 -4.9195574845334680e-04
      -7.9012348499098270e-04 -2.9634449782711057e-04
      -4.2233084826218500e-04 1.7259531973329661e-04
      4.8664231750739876e-04 -1.5180791776352341e-04
      6.6746964245267725e-05 -2.6447501225227078e-04
      5.1257526875311452e-04 4.2993261043270092e-04
      4.0299343656719150e-04 -8.3127143232933148e-04
      -8.4449551920954137e-04 6.5883092934244892e-04
      9.9034383021615264e-04 6.6443509351512425e-04
      9.5466708100726933e-04 3.4383314264788177e-04
      2.8426585288405208e-04 5.7443438071664958e-04
      -5.5885863165715309e-04 -7.9238957402891772e-04
      -1.9808917504821134e-04 6.6656534319963639e-04
      -7.1856584997832904e-04 -2.2866697215535295e-04
      3.8425649064861779e-04 9.7626793876217906e-04
      1.5818503593798198e-04 2.3826416131117112e-05
      6.5164287140839923e-04 -5.5494682219542899e-04
      3.8688196259540849e-04 -6.3474211410968144e-04
      8.4117467319271455e-04 5.2655340487974293e-04
      -6.2345327872519402e-04 -8.9688118962142520e-04
      -5.7617255388632159e-04 6.0578698140717198e-04
      -3.7304384582509421e-05 6.3649548104750852e-04
      -9.6694335662825942e-04 -1.6933720594059756e-05
      1.9490415694556524e-04 -3.2262617321840404e-04
      -4.6576628910265383e-07 -5.0786045230636373e-05
      -7.2717390879123022e-04 -8.4839343259858718e-04
      -6.9640489709638467e-04 -4.7645053201693496e-04
      3.3942713651508813e-04 -6.3923181626193498e-04
      6.6747636697478527e-04 6.7092465203326347e-04
      -2.4502451806084356e-04 -5.3613954608284283e-04
      1.0475865828043900e-04 6.3096320508097110e-04
      2.8993663198161908e-04 6.9603087530762146e-04
      1.8613051771817536e-04 5.9356645786739272e-06
      -6.6431944791757393e-04 5.2950116054876724e-04
      5.8693150561941478e-04 6.8115705459404245e-04
      2.5018264537527221e-04 9.7164288813828356e-05
      5.1398497940937748e-04 9.8263582637435982e-05
      5.0359221642316831e-04 5.8426109606731141e-05
      5.4026337601049826e-04 -3.6112341489046799e-04
      4.0719071539225502e-04 -5.4708014313317624e-04
      4.5760128783871360e-05 -6.4760955018811750e-05
      -8.6080518293726990e-05 4.1809875490119943e-04
      -4.6920847391863463e-04 1.1836367245422612e-06
      -1.6737909788343782e-04 -5.7422647470076909e-04
      6.1956667954533005e-04 -9.8579954653645963e-05
      3.1892490176513077e-04 2.5910095808800228e-04
      7.2832567594465500e-04 -9.0854171908327384e-04
      4.4891590773545785e-04 -9.2284645024657240e-04
      7.5504003276324644e-04 3.8033302999586159e-04
      -6.1162742584017834e-04 4.7835384918366972e-04
      7.3565652541643769e-04 1.4136869832934897e-04
      6.9567974607640816e-04 1.2315672271667218e-04
      3.7650354486688071e-04 -8.8907465138858696e-04
      3.1847383731128953e-04 4.8068358833367982e-04
      -1.0585403523654341e-04 -6.6558650921198098e-04
      6.5140397344270337e-05 -9.3412119096432876e-04
      3.2284441629764363e-04 -4.1570939952245830e-04
      7.5884219374317983e-04 4.9632056268762779e-04
      5.9204047875012337e-04 -4.3824895449059954e-04
      -3.4080606990845910e-04 7.9153711457999050e-04
      -4.4368347392306675e-04 -9.3046843778786797e-04
      2.2573888449452944e-04 6.5814316279138500e-04
      4.7628505344831425e-04 5.3556295390066165e-04
      6.8383099443150575e-04 5.4367965019652279e-05
      -4.1873924069513538e-04 -1.7696505009773500e-04
      -2.1487003917643242e-04 -8.4331131266561163e-04
      3.7696036719022427e-04 6.1906679062850899e-04
      2.7867971886398537e-04 9.6718730739750447e-04
      -3.3856819256787351e-04 3.3319912508913404e-04
      6.1729484805741119e-04 -4.1567867954914043e-04
      1.7505820411692973e-04 -3.8109125812272818e-04
      -4.7390722087447103e-04 6.6517328326372814e-04
      -3.4918874684309925e-04 8.5051183742481436e-04
      2.8213002904037216e-05 4.1674065588875598e-04
      -5.5700142639732283e-04 -6.3013221855810666e-04
      -2.4948636053007009e-04 9.1521810471048223e-04
      7.5359504614295656e-04 1.0166511039630540e-04
      -3.1254958487735517e-04 4.1435385205090754e-04
      7.4653177155620731e-04 2.5504215745927373e-04
      9.9224765972145534e-04 -5.4156023006565561e-04
      -7.7213498269773704e-04 9.0249490168835343e-04
      -8.5570343104848009e-04 1.3493049733504029e-04
      -9.6659344762199022e-04 7.0168473544351831e-04
      -4.5155836158594995e-04 -2.0925931367072608e-04
      -1.9782453694320439e-05 5.3258940258148744e-04
      9.1573359811784796e-04 -3.6629471231335573e-04
      2.7556770640999257e-04 6.2717097694553578e-04
      7.6163966389574279e-04 -3.5060960760369624e-04
      -7.0772403203806509e-04 -9.1415299530250298e-05
      -8.1929913517946706e-02 -1.7608188819000836e-01
      9.9389712589217069e-02 3.7232875607504094e-02
      -5.1583757073763545e-02 9.6756682233584954e-02
      -2.4823042000656681e-01 -2.8116215282860315e-02
      -5.6724784861496208e-02 -2.3172503063634065e-01
      5.8416333550442831e-02 1.0853777329173507e-01
      -9.8799356167667954e-02 3.5459195414463740e-02
      4.9146576350612668e-02 1.9902503656776047e-01
      8.4335251964058291e-02 4.5375074393000099e-02
      -6.2967299434135940e-02 4.2708120929031021e-02
      2.0386623912823165e-01 1.6229091925934042e-01
      -5.2891663187778243e-02 -2.4497944986133953e-03
      -3.1046024063536554e-01 -2.4590751558845436e-01
      9.1234778861891463e-02 -2.8120329225744489e-01
      -7.1364502851427494e-02 -3.1359471540461614e-01
      -2.4964046028925817e-02 -5.7269958126049667e-02
      1.6989758975500391e-01 1.2296878475340703e-01
      -1.3106216860738062e-01 -5.8199464473713811e-02
      -1.2406830217235397e-01 3.3191778822994683e-01
      -8.0228124529123340e-02 1.8584641193097953e-01
      -1.4133892915500579e-01 1.9278827062439377e-01
      -3.9785015604192031e-01 2.2128564778870871e-01
      1.0766598841251565e-01 2.5121673220232833e-02
      3.7580573545335344e-01 -9.3234466743026503e-02
      8.9229051712583912e-02 1.9399966381818029e-01
      2.7983318478590441e-01 -6.2477336786695092e-02
      5.7418370816249488e-02 -3.0642839304348898e-02
      1.9169237284135002e-01 1.0905658380122051e-02
      9.0699357658681742e-02 -5.1672896792682832e-01
      -4.6802955954020259e-02 -2.0650863577228512e-01
      -2.9204035482975355e-01 -1.3576030116371712e-01
      -1.0706459637893732e-01 -5.1562041622984278e-02
      9.5582914121750892e-02 6.5488782895485168e-02
      7.2597189465501144e-02 8.1627411829371915e-02
      -1.4839133375437269e-01 -1.4970960687089263e-01
      8.1913493672804800e-04 9.1498569212958378e-04
      -1.5208692857049915e-04 8.6472799326793321e-04
      -5.6772005240991307e-04 -4.7864412996343776e-04
      3.0913387804981169e-04 6.1539896520395416e-04
      1.3649999390496784e-04 9.2501738817042461e-04
      6.2520487136625722e-04 -1.1158131274200565e-04
      3.7084259052423159e-04 1.3123625816798939e-04
      9.7631469113886656e-04 -6.9773639341454559e-05
      4.6477837575380969e-04 5.3536817994430028e-04
      4.2789405855587568e-05 6.8559057015231710e-04
      8.0438627730669926e-05 1.7763483729009482e-04
      1.2622463879015722e-04 -1.5587669304199060e-04
      6.5291413355851569e-04 5.7377510872469413e-05
      3.0750653735147807e-04 8.2404592150582231e-04
      -9.1120451535394256e-04 -3.1970586975069713e-05
      -1.2680086892369406e-04 2.3658137978733161e-04
      6.1876871356909022e-04 -1.9172625615072140e-04
      -8.6180468520728889e-04 9.4342846082458396e-04
      8.7684438397905308e-04 -8.5458310252251794e-04
      -5.2185543315818694e-04 -1.9690116091575170e-04
      -3.6680382160938704e-04 2.2107657104650509e-04
      5.7378634009761452e-04 -5.6103253561648506e-05
      -1.5682391144355878e-04 -6.8983041630410057e-04
      4.5334820406456696e-04 -6.2143551658360233e-04
      2.7974814071169118e-04 -8.2441537464888646e-04
      3.3905733750161517e-04 -2.2851722763796986e-04
      8.7388948544202608e-04 2.6137586296053674e-04
      -3.6880347433754018e-04 8.3794957984887285e-04
      6.6841496686155532e-04 -1.6243432274068605e-04
      -2.4495503685915564e-04 7.2568436542926181e-04
      -3.9014143404994935e-04 4.8444760920666709e-04
      -6.5953980749962218e-04 2.4327984485694097e-04
      3.8408135706829256e-04 -2.5557411816974184e-04
      -2.1369973634828237e-04 8.6328903353714533e-04
      6.6626289438955389e-04 9.0379759624826053e-04
      2.4880906891652408e-04 -5.8287023552437222e-05
      9.2617941931107312e-04 -3.3089503597480185e-04
      -6.6142167987071651e-04 -5.5001746828586872e-04
      1.2485377141990418e-05 1.2409497855440588e-04
      7.7765929773718526e-04 1.4307741819395516e-04
      5.7615126340469368e-04 6.0581893040039664e-04
      -3.9282181025505344e-04 2.3092412942558651e-04
      4.1691508837374811e-04 3.4092655357131489e-05
      -4.5786200395462885e-04 7.9827926009888854e-04
      8.6321958890963108e-05 4.9926143379879645e-04
      -1.8243012063766444e-04 1.3763571703038368e-04
      -9.5985981244013153e-04 -5.9812490599556046e-05
      5.8717066670253557e-06 7.3699602135585747e-04
      6.4586500145878039e-04 5.8268298318867886e-04
      -9.4618977867740614e-04 -4.9505002021220943e-04
      -4.2715970984961315e-04 -7.8500854626436853e-06
      -6.5784483044019695e-04 -2.8442295020345330e-04
      8.8617529823973717e-04 -9.1747021754316977e-04
      7.7647334810719917e-05 -1.5130747960349713e-04
      -5.6672770668118693e-04 -6.5805683963343110e-04
      2.6270435145879419e-04 -8.7661187788438879e-04
      3.8718347562983715e-05 -4.8173454906002167e-04
      -5.7773414391527357e-04 1.6400838531788352e-04
      9.1837413142363761e-04 -6.9847586458661568e-04
      4.4640307901773572e-04 9.5698921244286562e-05
      -5.7940100405441902e-04 9.7207256030425681e-04
      4.4047109469532168e-04 3.6589645571227423e-04
      -5.0521928565561668e-04 8.7504597862858918e-05
      -5.9738634477625517e-04 -4.6629219377151190e-04
      9.0405905494870056e-04 -2.3601964901191996e-04
      -7.6285605038608204e-04 5.1613604241230256e-04
      -2.9683360873175357e-04 8.4238065160835863e-05
      2.4987527148888892e-04 7.1573900804512030e-04
      2.6710522024037738e-04 -6.0624144405669938e-04
      -9.0108077851544877e-06 1.3242026472333216e-04
      -5.3103412403012829e-04 -2.7900442738440783e-04
      8.6898487562602432e-04 5.6391901192585263e-04
      4.5296099703029044e-05 7.7858630331750702e-04
      9.7438510174773754e-04 -7.9829273102321205e-04
      6.9621419987570899e-04 6.6737358195731716e-04
      2.0397332091976264e-04 4.6887431327463560e-04
      -3.0752741253881684e-04 -7.2033895263556868e-04
      -1.0991739318302369e-04 -6.8939616254615519e-05
      3.1908834486746665e-04 -3.4011908160165892e-04
      -2.3292212004111240e-04 -4.6392312024297127e-04
      8.7906799828575786e-04 3.7615752488207461e-04
      8.8678744141524593e-04 -2.9491342795293893e-04
      -3.2156587510185265e-05 1.8424981773420160e-04
      9.0700668315850527e-04 5.7138997026312240e-04
      5.7135019608235910e-04 -3.5613495348616321e-04
      6.1639489526496094e-04 -7.0042925884818282e-04
      3.6858005742001251e-04 2.6330729994218942e-04
      9.3258440134847537e-04 8.2918282602483008e-05
      -3.7919083699482458e-05 -2.9898518404303016e-05
      2.2323628440975329e-04 -6.3980960766160146e-04
      7.1544332786208282e-04 -9.5188062269309999e-05
      7.6715020972637122e-04 -9.1947561483510243e-04
      4.0656323056039920e-04 5.7052612002774815e-05
      -4.7107595516419969e-04 -7.7339912005184967e-04
      -9.7852853567970317e-05 4.8259235362144387e-04
      -4.4095315083145475e-04 -3.2560840448208874e-04
      -6.2097000220369717e-04 6.7920918440442430e-04
      -7.2553553719782260e-04 -7.9319041548748549e-04
      6.2285507029898968e-04 9.6894731772584342e-04
      -6.7074522343473940e-04 1.9860940904253716e-04
      3.8757615901084875e-04 9.3126359359077201e-04
      -8.7004938806967721e-04 -8.8725399760447847e-04
      -1.0918989488569331e-04 -2.7569385466705320e-04
      7.2227020620526294e-04 -1.9062391163649765e-05
      3.0953800434090539e-04 4.5750907661234075e-04
      3.6712456074741663e-05 8.8491060248387370e-04
      7.3503469179408574e-04 -8.0027733261885754e-04
      -2.9244905287006197e-04 -3.6081863950771328e-04
      8.8166220870926056e-04 6.0161147113282421e-04
      5.2742594453891552e-05 5.1610392861381102e-04
      -4.4915781955006003e-04 -3.8796744896806598e-04
      -4.8737832389647855e-05 1.7794699162655841e-04
      9.0487536463215723e-04 -1.7587903997228713e-04
      -2.5611765603870353e-05 -8.7946099607642510e-04
      -2.2514343637662618e-04 7.7236213192932366e-04
      -8.8560990015244627e-04 2.8662752452128873e-04
      -6.3798848367937512e-04 2.9209690312463252e-04
      -5.7900230873010009e-04 -6.1150450636422824e-04
      -4.6600261850348039e-04 -5.7351609503826647e-04
      -1.3664091796794620e-04 -5.3802147540680807e-04
      2.3165898608952488e-04 9.6765465410773605e-04
      5.8753714067252285e-04 -3.1240309601593196e-04
      -5.6220299047221567e-04 7.1143352759752798e-05
      5.0386774965471381e-04 2.1875040646408288e-04
      -1.9201861458047171e-04 -4.3053705513940464e-05
      3.3112964448330938e-04 9.9197785558113589e-04
      9.8528640025179800e-04 -5.6698778687731713e-04
      8.0626759929776717e-04 -3.5059274726005260e-04
      -8.6480570787213402e-04 -8.7497550584508224e-04
      2.2907300458301278e-04 -7.4053698949819939e-04
      6.0114466748435844e-04 -7.7489178296244888e-04
      -7.2474113338281878e-04 -5.1579260696234621e-04
      -3.1658666418388182e-04 -8.8237158955455205e-05
      4.0896079792888495e-04 4.8862417756367064e-05
      -8.3065057378151801e-04 1.2574472540036495e-04
      -3.6638543055953800e-04 2.9095595228060503e-04
      -7.3037233967766725e-04 -8.6913755904200157e-04
      2.5643426259628249e-04 -8.0346401065550885e-04
      -8.8356368401877963e-04 -5.5831016589669700e-04
      4.5589853652819193e-04 -1.4938568560848259e-04
      -8.4998676573401433e-02 -3.3078099684503398e-01
      2.0063111531931141e-01 3.5620888415024789e-02
      -6.2586747128899695e-02 1.7474796104917970e-01
      -3.6579976455495661e-01 -3.1877292149444764e-02
      1.7336785747108266e-01 -2.4893852669827155e-01
      1.3550791570074263e-02 7.1759914466176064e-02
      -2.5607044656167854e-01 7.8962246597292382e-02
      5.9837934417206848e-02 1.3799951196703011e-01
      3.9081010856374034e-02 1.2046425065961770e-01
      -5.1239484570206703e-02 1.5320087068746002e-01
      7.3843191303963884e-02 3.0373576261513359e-02
      2.3157609348156494e-01 -1.8994857786242209e-01
      -2.7369721524962914e-01 -1.2743459258372449e-02
      -8.9075568648135844e-02 -3.6799000975953934e-02
      1.5886972901928073e-02 -2.7223374278907864e-01
      2.6051624285877525e-02 -7.2204506519781622e-03
      2.1820191624625704e-01 1.8596985470919369e-01
      -1.2445161403183619e-01 9.7082031699283394e-02
      2.6821814415377077e-01 -5.5673409285327574e-02
      -3.9229613563877413e-02 3.9328456949026153e-01
      -2.8647762502219287e-01 4.0754428275985155e-01
      -3.6734222312238762e-01 3.6790331543925930e-01
      -3.6134206526883386e-02 1.2372086297735081e-01
      2.4458852208829887e-01 8.4153064172883707e-02
      -8.1556027534605627e-02 1.7287362621092528e-01
      3.7261256106531865e-01 -3.6021727155015233e-02
      1.1845112822424501e-01 -8.6911022236375743e-02
      2.9988224916313794e-01 1.6960114165152670e-01
      3.8709319782529020e-02 -9.4261320317288610e-01
      2.0446497380314801e-01 -4.1437038867758497e-01
      -2.2018584508423455e-01 -3.3395875995301871e-01
      2.4480292321282002e-02 -6.9649126503367825e-02
      -2.5618591213058733e-01 2.1571040711280198e-01
      -2.9808551013903586e-02 2.4045413898802988e-02
      -6.1592063701811681e-02 -1.5296999362125499e-01
      5.5748395269810357e-04 -5.0890236081922724e-04
      -2.8370175576501646e-04 -2.3661700629648298e-04
      8.1193608655994636e-04 2.6939332104005016e-04
      -8.4331564988314681e-05 1.4329566917272495e-04
      -3.6838287227128569e-04 -1.3068326662214334e-04
      -2.0306059205148788e-04 2.8305014974835523e-04
      9.2287393540792391e-04 -7.2337990443302491e-04
      -5.1695522119125687e-04 2.1830250712600487e-04
      -6.0584237132637990e-05 3.8994123158084753e-04
      9.1317668834543797e-04 -5.0089610687619119e-04
      4.1888731521542345e-05 -5.0495198217679824e-04
      -9.5049127462688385e-05 4.8122756810997690e-04
      -2.2223880836506500e-04 -6.8014840232522912e-05
      -7.8078976707837504e-04 -4.4620072989456341e-04
      5.8105602732068948e-04 2.0128800034478284e-04
      -5.8889070427514093e-04 4.8731316749667431e-04
      6.5657454530372637e-04 6.5988727345339982e-05
      5.5447905814474751e-05 -9.6568452201935425e-04
      3.7536714936826807e-04 6.2115417241705411e-04
      4.7392949734888391e-04 -3.2493719227602482e-04
      -2.8388112795825384e-04 2.3345589332752433e-05
      -2.0158662797091395e-04 4.0527878929058289e-04
