<?xml version="1.0"?>
<opencv_storage>
<opencv_ml_ann_mlp>
  <format>3</format>
  <layer_sizes>
    2 7 10</layer_sizes>
  <activation_function>SIGMOID_SYM</activation_function>
  <f_param1>1.</f_param1>
  <f_param2>1.</f_param2>
  <min_val>-9.4999999999999996e-01</min_val>
  <max_val>9.4999999999999996e-01</max_val>
  <min_val1>-9.7999999999999998e-01</min_val1>
  <max_val1>9.7999999999999998e-01</max_val1>
  <training_params>
    <train_method>BACKPROP</train_method>
    <dw_scale>2.9999999999999999e-02</dw_scale>
    <moment_scale>1.0000000000000000e-04</moment_scale>
    <term_criteria>
      <iterations>3</iterations></term_criteria></training_params>
  <input_scale>
    2.8591572172535756e-02 -3.6269804175226166e+00
    6.9626419612875168e+01 -6.4459066531602886e+01</input_scale>
  <output_scale>
    5.2631578947368418e-01 4.9999999999999994e-01 5.2631578947368418e-01
    4.9999999999999994e-01 5.2631578947368418e-01 4.9999999999999994e-01
    5.2631578947368418e-01 4.9999999999999994e-01 5.2631578947368418e-01
    4.9999999999999994e-01 5.2631578947368418e-01 4.9999999999999994e-01
    5.2631578947368418e-01 4.9999999999999994e-01 5.2631578947368418e-01
    4.9999999999999994e-01 5.2631578947368418e-01 4.9999999999999994e-01
    5.2631578947368418e-01 4.9999999999999994e-01</output_scale>
  <inv_output_scale>
    1.8999999999999999e+00 -9.4999999999999996e-01
    1.8999999999999999e+00 -9.4999999999999996e-01
    1.8999999999999999e+00 -9.4999999999999996e-01
    1.8999999999999999e+00 -9.4999999999999996e-01
    1.8999999999999999e+00 -9.4999999999999996e-01
    1.8999999999999999e+00 -9.4999999999999996e-01
    1.8999999999999999e+00 -9.4999999999999996e-01
    1.8999999999999999e+00 -9.4999999999999996e-01
    1.8999999999999999e+00 -9.4999999999999996e-01
    1.8999999999999999e+00 -9.4999999999999996e-01</inv_output_scale>
  <weights>
    <_>
      -6.9544426767364143e-01 6.8034416240104020e-02
      2.7175354818704291e+00 1.6155020626451433e-01
      6.8175293312867855e-02 -5.9462275222163508e-01
      -1.7738986478721330e+00 -4.3237981560318761e-01
      -3.3067519488708136e-01 -1.3249352732549080e+00
      1.2157718576910230e+00 7.4624548934957482e-03
      -1.1189551818002832e+00 -2.5465344297806540e+00
      8.3997731912477369e-01 2.2542649717626806e+00
      8.4003792034460489e-01 1.0193929350848567e+00
      2.1514801633346234e+00 -5.9980166379626013e-02
      -9.0468642168078914e-02</_>
    <_>
      -1.0116367960758041e+00 -1.8452489919869823e+00
      5.2701591831189498e-01 6.9862124242751500e-01
      -1.9232036813796871e-01 -4.8600183528078550e-01
      -9.3551260565365735e-01 -6.4525351709196110e-01
      -5.8151238340972766e-01 -1.7810277364988245e-01
      -1.1801564034422787e+00 -1.8181096564332300e+00
      -2.3504679077576335e-01 -1.1336595396488125e+00
      -1.4514080354726866e+00 -5.4130817801563469e-01
      -9.8339160036131568e-01 -4.6294942071011966e-02
      6.6676816694658381e-01 -8.1003138681474507e-01
      -2.2404002220814854e+00 1.2174266345586329e+00
      9.1361366139762323e-01 -2.7985285071773438e+00
      5.9630086043219310e-01 -9.1446207367434518e-01
      4.5229982775204020e-01 9.1857219029188231e-01
      -1.1694240902680944e+00 2.3316578811691326e-02
      3.9784159023272109e-01 -2.6559568443971757e-02
      -2.5414314448702635e+00 -6.1293579568219825e-01
      -1.1703192507544276e-01 -3.2783883595834445e-01
      -2.0328660544163779e-01 -7.9154338048368045e-01
      2.6726445300723607e-02 2.1639574335140974e-01
      -1.9381006195368633e+00 -1.6281908636210959e-01
      -1.2811890570483486e+00 -4.9384688861089443e-01
      -8.5809745999987008e-01 -1.0243778918741218e+00
      -6.3036636864484541e-01 -8.0139787362545911e-01
      -6.7657495242673971e-01 2.3839053057663436e-03
      -1.1369647793469277e+00 -3.0912144688615667e-01
      1.3291522949833068e+00 6.6764412541889995e-01
      4.6837443220465014e-01 9.4777460401445812e-01
      2.8005285885070830e-01 -1.8965191282314359e-01
      -4.8861229270952261e-01 1.7977966138953022e-01
      -2.0160955110130092e+00 -1.4731118785236350e+00
      1.0177727347654331e+00 2.1561155791223943e+00
      -3.6578074856711879e-01 -6.4470854216160356e-01
      1.5509075088419728e+00 -8.6382664371499940e-01
      1.0207943919273272e+00 -2.6289980434856614e-01
      -1.2812246188339116e+00 -1.3075952913366353e+00
      -2.2177643893124004e+00 -2.4357450476533589e+00
      -4.7653423546702950e-01 -7.3608042347716085e-01
      -8.0195294051785826e-01 -1.1335175863920155e+00
      -1.6825690545250389e+00 -8.4374054997622450e-01</_></weights></opencv_ml_ann_mlp>
</opencv_storage>
