<?xml version="1.0"?>
<opencv_storage>
<opencv_ml_svm>
  <format>3</format>
  <svmType>C_SVC</svmType>
  <kernel>
    <type>LINEAR</type></kernel>
  <C>1.</C>
  <term_criteria><iterations>100</iterations></term_criteria>
  <var_count>5</var_count>
  <class_count>10</class_count>
  <class_labels type_id="opencv-matrix">
    <rows>10</rows>
    <cols>1</cols>
    <dt>i</dt>
    <data>
      1 2 3 4 5 6 7 8 9 10</data></class_labels>
  <sv_total>45</sv_total>
  <support_vectors>
    <_>
      -3.46636139e-02 3.13013673e-01 1.76500231e-01 2.19594240e-02
      -1.61552094e-02</_>
    <_>
      6.53642341e-02 5.81825860e-02 5.43844625e-02 7.06945127e-03
      9.05670319e-03</_>
    <_>
      -2.07260661e-02 2.19215825e-02 2.78615858e-02 3.92242102e-03
      1.23237325e-02</_>
    <_>
      -7.08948150e-02 5.81280887e-02 5.98962791e-02 5.01514645e-03
      5.91359846e-03</_>
    <_>
      -6.77661151e-02 1.67530663e-02 4.64173183e-02 2.67790235e-03
      1.55375851e-03</_>
    <_>
      -8.16033557e-02 4.54975553e-02 4.49355915e-02 3.79193551e-03
      5.01001859e-03</_>
    <_>
      -3.03819686e-01 2.07812428e-01 -2.36236930e-01 1.13266259e-02
      -2.24908106e-02</_>
    <_>
      -1.96370669e-02 1.69853866e-02 3.64630409e-02 3.55136464e-03
      6.20566681e-03</_>
    <_>
      -1.61586069e-02 1.62977260e-02 6.26548082e-02 4.57706256e-03
      3.40531743e-03</_>
    <_>
      1.11231804e-01 5.06971329e-02 -5.40352762e-02 7.94942584e-03
      1.29502732e-02</_>
    <_>
      1.64740101e-01 1.14733644e-03 1.78962946e-01 5.68641641e-04
      1.34908687e-03</_>
    <_>
      -6.71602727e-04 3.63873900e-03 -2.52449661e-02 4.95111279e-04
      8.01764603e-04</_>
    <_>
      3.29535678e-02 -1.18629681e-03 -6.18645847e-02 -4.05718223e-04
      -7.59752980e-03</_>
    <_>
      2.01915111e-02 1.14228828e-02 -3.73627320e-02 9.07836249e-04
      1.92250242e-03</_>
    <_>
      -5.38383087e-04 1.52053393e-03 -1.73529182e-02 1.19634955e-04
      1.10116054e-03</_>
    <_>
      2.62126457e-02 -7.28324652e-02 -1.56944096e-01 -6.00300264e-04
      -1.92684624e-02</_>
    <_>
      2.60500312e-02 -1.79836024e-02 -3.50975133e-02 7.60171912e-04
      2.50782608e-03</_>
    <_>
      -5.07072151e-01 -3.01664919e-01 5.71556110e-03 -2.34050155e-02
      -8.48843753e-02</_>
    <_>
      -1.57551393e-01 -6.22978620e-03 2.82803252e-02 -1.28932321e-03
      -3.67508689e-03</_>
    <_>
      -4.75891262e-01 -1.26582250e-01 -3.70251089e-02 -1.07021937e-02
      -3.12142149e-02</_>
    <_>
      -1.48332670e-01 2.03304249e-03 1.24305442e-01 -1.53766118e-03
      -4.83371969e-03</_>
    <_>
      -2.64340430e-01 -2.26650555e-02 -3.38863432e-02 -1.12057831e-02
      -1.42070949e-02</_>
    <_>
      -1.69429377e-01 -4.10427824e-02 -5.10796607e-02 -2.65093730e-03
      -1.14778988e-02</_>
    <_>
      -2.04950005e-01 -4.57759611e-02 7.30857849e-02 -2.55790353e-03
      -6.46490743e-03</_>
    <_>
      -8.58055651e-02 2.47119561e-01 -8.85818154e-02 -3.69312562e-04
      2.94048991e-02</_>
    <_>
      -6.79262429e-02 6.79649636e-02 8.24905336e-02 -4.87130787e-03
      -2.17322949e-02</_>
    <_>
      -1.68231912e-02 8.05314556e-02 1.30901158e-01 2.32976861e-03
      6.78974763e-03</_>
    <_>
      -1.24961816e-01 -4.67582839e-03 -2.21226305e-01 -4.59477538e-04
      -7.58749549e-04</_>
    <_>
      -1.61370263e-02 -1.76999196e-02 9.77944210e-02 -6.96262927e-04
      -5.52532170e-03</_>
    <_>
      6.11298978e-01 2.28335001e-02 4.40712869e-02 -2.22377721e-02
      -7.06351772e-02</_>
    <_>
      5.71982786e-02 -1.29254125e-02 -4.94016297e-02 -9.21870931e-04
      -5.28745214e-03</_>
    <_>
      2.87566371e-02 6.67001819e-03 -2.34660618e-02 6.29115908e-04
      6.92559057e-04</_>
    <_>
      1.60991624e-02 -5.63867390e-03 2.54117753e-02 -3.42334097e-04
      5.98827552e-04</_>
    <_>
      6.59795552e-02 -2.61459313e-02 -5.68175986e-02 -8.28307471e-04
      -7.16721825e-03</_>
    <_>
      3.17594782e-02 -1.60861127e-02 -2.70388760e-02 -2.14792435e-05
      9.99758122e-05</_>
    <_>
      -1.96768194e-02 1.87466666e-02 3.94821875e-02 1.31117553e-03
      4.83050663e-03</_>
    <_>
      6.49677292e-02 6.58849776e-02 8.56880397e-02 1.68589549e-03
      8.23931675e-03</_>
    <_>
      -2.34101024e-02 -7.78172631e-03 -3.94030586e-02 7.79101334e-04
      3.36288154e-04</_>
    <_>
      -2.13294066e-02 -2.40743179e-02 5.05532809e-02 5.43703849e-04
      4.23896778e-03</_>
    <_>
      -5.21883965e-02 -1.03881303e-02 3.70393693e-02 -7.07364932e-04
      -6.25923392e-04</_>
    <_>
      -1.93182360e-02 -3.03572305e-02 -4.51281704e-02 -1.12443999e-03
      -5.98018989e-03</_>
    <_>
      -2.06374265e-02 -3.39611731e-02 -2.62932368e-02 -1.04758260e-03
      -1.14494108e-03</_>
    <_>
      8.71690810e-02 -1.65646255e-01 -2.12977141e-01 -3.56556755e-03
      -1.02034295e-02</_>
    <_>
      3.29108015e-02 -9.67232138e-03 -3.72259170e-02 3.74356343e-04
      4.08658874e-04</_>
    <_>
      -2.09252201e-02 -1.26809226e-02 5.89563064e-02 -2.22412400e-05
      5.09554427e-03</_></support_vectors>
  <uncompressed_sv_total>76</uncompressed_sv_total>
  <uncompressed_support_vectors>
    <_>
      1.91159554e+01 4.89576578e-01 6.92367783e+01 9.57301319e-01
      3.23850483e-01</_>
    <_>
      2.22551155e+01 3.38710725e-01 4.74835205e+01 9.86579955e-01
      4.92926508e-01</_>
    <_>
      2.20395298e+01 9.87884879e-01 1.14451591e+02 9.42138612e-01
      1.74910203e-02</_>
    <_>
      1.77697334e+01 8.49607646e-01 1.10577820e+02 9.33544755e-01
      2.04732716e-02</_>
    <_>
      2.10193748e+01 1.45668328e+00 1.35665543e+02 9.47308719e-01
      8.09548646e-02</_>
    <_>
      2.23550110e+01 1.57168305e+00 1.96336380e+02 9.31782484e-01
      1.65576518e-01</_>
    <_>
      2.05600471e+01 9.57328975e-01 1.25117378e+02 9.19628978e-01
      1.20144181e-01</_>
    <_>
      2.17048073e+01 1.69670856e+00 2.31648743e+02 9.29171324e-01
      1.28555611e-01</_>
    <_>
      2.75934277e+01 8.84900689e-01 1.14683380e+02 9.39194798e-01
      1.80044651e-01</_>
    <_>
      2.44236107e+01 1.90310323e+00 2.31545166e+02 9.27725315e-01
      1.44854560e-01</_>
    <_>
      2.06373119e+01 6.94181681e-01 1.13485832e+02 9.05533493e-01
      1.21546790e-01</_>
    <_>
      2.08978748e+01 6.81980431e-01 1.07801033e+02 9.07888293e-01
      1.04140759e-01</_>
    <_>
      1.83686829e+01 9.33875263e-01 1.57578857e+02 8.90961587e-01
      3.07317059e-02</_>
    <_>
      2.15576534e+01 7.97555625e-01 1.17295166e+02 9.06733811e-01
      1.84881702e-01</_>
    <_>
      2.13499355e+01 8.84913146e-01 1.33297379e+02 8.95157874e-01
      1.00119524e-01</_>
    <_>
      2.04980259e+01 7.09461749e-01 1.00313011e+02 9.16584253e-01
      1.12591170e-01</_>
    <_>
      1.90325165e+01 7.36685574e-01 1.06184738e+02 9.04695928e-01
      1.42006740e-01</_>
    <_>
      2.01376953e+01 7.99440980e-01 1.05483948e+02 9.10920084e-01
      1.79092690e-01</_>
    <_>
      1.97707996e+01 5.76852143e-01 8.12954254e+01 9.29147363e-01
      2.37209663e-01</_>
    <_>
      1.97707996e+01 7.72340536e-01 1.00214195e+02 9.24677134e-01
      1.94170088e-01</_>
    <_>
      2.20250835e+01 8.46119821e-01 1.08634293e+02 9.19974267e-01
      1.34444460e-01</_>
    <_>
      1.93476715e+01 6.77145839e-01 9.67892303e+01 9.20918405e-01
      1.82972983e-01</_>
    <_>
      2.10949574e+01 8.45822334e-01 1.09268173e+02 9.21221137e-01
      1.33280411e-01</_>
    <_>
      1.88813953e+01 5.69730043e-01 7.09493332e+01 9.29416358e-01
      2.57930219e-01</_>
    <_>
      1.88476486e+01 5.86531579e-01 9.22847137e+01 9.20980215e-01
      1.77647561e-01</_>
    <_>
      1.84895859e+01 4.81260866e-01 8.37742386e+01 9.23917949e-01
      1.97047085e-01</_>
    <_>
      2.25110931e+01 4.08328801e-01 6.57517014e+01 9.38830316e-01
      2.17733473e-01</_>
    <_>
      2.15281029e+01 4.60385323e-01 6.70058365e+01 9.38302815e-01
      2.57361799e-01</_>
    <_>
      2.46053944e+01 6.81533575e-01 8.91013641e+01 9.16080236e-01
      1.24497764e-01</_>
    <_>
      2.32073326e+01 1.29600310e+00 1.07052086e+02 9.19547856e-01
      1.23827308e-01</_>
    <_>
      2.30559654e+01 9.66908991e-01 1.43083633e+02 9.27147567e-01
      1.35577470e-01</_>
    <_>
      2.43583584e+01 7.27893531e-01 9.61805801e+01 9.27041113e-01
      1.31816402e-01</_>
    <_>
      2.13350220e+01 7.30415761e-01 1.03344315e+02 9.18251395e-01
      1.09700724e-01</_>
    <_>
      2.03890343e+01 1.24247539e+00 1.87109451e+02 9.13698971e-01
      1.15323156e-01</_>
    <_>
      2.06064396e+01 7.71305025e-01 1.15797531e+02 9.21033442e-01
      1.34814426e-01</_>
    <_>
      2.63785019e+01 1.33008647e+00 1.94004074e+02 9.20948386e-01
      1.49257615e-01</_>
    <_>
      2.63905678e+01 7.59559095e-01 1.07597031e+02 9.39588785e-01
      8.42938200e-02</_>
    <_>
      2.39631176e+01 9.51475680e-01 1.12399246e+02 9.33365941e-01
      1.65263832e-01</_>
    <_>
      2.43322086e+01 1.06538916e+00 1.27225868e+02 9.27148819e-01
      1.32660404e-01</_>
    <_>
      2.03734169e+01 1.10247004e+00 1.00057747e+02 9.28408265e-01
      2.22880647e-01</_>
    <_>
      2.11100407e+01 1.01661384e+00 9.28617859e+01 9.32312787e-01
      2.27017820e-01</_>
    <_>
      2.12303276e+01 1.08485746e+00 1.43612915e+02 9.22151566e-01
      1.43021002e-01</_>
    <_>
      2.33985691e+01 7.10545719e-01 8.56556168e+01 9.42564487e-01
      2.30231568e-01</_>
    <_>
      2.30835609e+01 8.19971263e-01 8.66779404e+01 9.39779341e-01
      2.00773031e-01</_>
    <_>
      2.44105740e+01 8.28516185e-01 8.67713089e+01 9.39770222e-01
      2.25395709e-01</_>
    <_>
      2.14540462e+01 8.37401390e-01 1.32691986e+02 9.11887467e-01
      1.26234889e-01</_>
    <_>
      2.18218155e+01 5.88670194e-01 9.34860306e+01 9.19123232e-01
      1.36277080e-01</_>
    <_>
      1.92982521e+01 7.81092763e-01 1.14764153e+02 9.15748358e-01
      1.54235348e-01</_>
    <_>
      2.32347488e+01 1.11284697e+00 1.80140396e+02 9.10309076e-01
      9.66338962e-02</_>
    <_>
      2.43583584e+01 6.69280827e-01 9.68641968e+01 9.28920329e-01
      1.58818975e-01</_>
    <_>
      2.27641926e+01 1.13534117e+00 1.56202515e+02 9.23746526e-01
      1.12697139e-01</_>
    <_>
      2.06373119e+01 9.53743339e-01 1.44164581e+02 9.16875720e-01
      1.23373732e-01</_>
    <_>
      2.25110931e+01 8.97965133e-01 1.25062889e+02 9.20896769e-01
      1.24993041e-01</_>
    <_>
      1.95440998e+01 1.30289710e+00 1.91728043e+02 9.14807737e-01
      1.19589455e-01</_>
    <_>
      2.49649906e+01 9.90631461e-01 1.16119492e+02 9.35451031e-01
      1.56778678e-01</_>
    <_>
      2.52565441e+01 1.02112257e+00 1.17269371e+02 9.34770525e-01
      1.55387029e-01</_>
    <_>
      2.59036140e+01 1.60890019e+00 2.30048782e+02 9.25224185e-01
      9.38653946e-02</_>
    <_>
      2.04824905e+01 7.50942886e-01 1.00140610e+02 9.25546706e-01
      1.92817926e-01</_>
    <_>
      2.17780094e+01 1.15290189e+00 1.33961212e+02 9.17748332e-01
      9.22299996e-02</_>
    <_>
      2.08826370e+01 1.17684245e+00 1.37807480e+02 9.22228932e-01
      1.53140992e-01</_>
    <_>
      2.53822613e+01 8.06896746e-01 1.11775017e+02 9.30988550e-01
      1.03159115e-01</_>
    <_>
      2.02008228e+01 7.62303114e-01 8.78705063e+01 9.23200846e-01
      1.37952834e-01</_>
    <_>
      2.47858448e+01 1.32387602e+00 1.19670853e+02 9.43841696e-01
      1.95180461e-01</_>
    <_>
      2.59772396e+01 7.06347227e-01 8.38072128e+01 9.36246455e-01
      2.34142557e-01</_>
    <_>
      2.61968727e+01 6.77805901e-01 8.40359955e+01 9.34656262e-01
      2.23428771e-01</_>
    <_>
      2.08062840e+01 9.10991192e-01 1.26627907e+02 9.20263767e-01
      1.32562459e-01</_>
    <_>
      2.21260166e+01 1.52389944e+00 1.65991089e+02 9.18389022e-01
      8.80690962e-02</_>
    <_>
      2.26520538e+01 1.55982995e+00 1.67647324e+02 9.14426565e-01
      8.77255276e-02</_>
    <_>
      2.69042130e+01 1.31633854e+00 1.58917648e+02 9.37501252e-01
      1.46669015e-01</_>
    <_>
      2.55696793e+01 7.86360443e-01 1.00018555e+02 9.37592030e-01
      1.91529766e-01</_>
    <_>
      2.05290604e+01 1.02450860e+00 1.03723335e+02 9.27817225e-01
      1.56671673e-01</_>
    <_>
      2.06064396e+01 1.04935288e+00 1.08314758e+02 9.27232862e-01
      1.49527013e-01</_>
    <_>
      2.06527290e+01 9.92138147e-01 1.07832748e+02 9.26432967e-01
      1.67116597e-01</_>
    <_>
      2.67975197e+01 8.55697334e-01 1.07153801e+02 9.32148695e-01
      2.09553793e-01</_>
    <_>
      2.71045971e+01 9.01106238e-01 1.11819588e+02 9.32851195e-01
      1.99241564e-01</_>
    <_>
      2.69633045e+01 8.67898226e-01 1.08451302e+02 9.33339834e-01
      2.01025620e-01</_></uncompressed_support_vectors>
  <decision_functions>
    <_>
      <sv_count>1</sv_count>
      <rho>2.5264867605135450e+01</rho>
      <alpha>
        1.</alpha>
      <index>
        0</index></_>
    <_>
      <sv_count>1</sv_count>
      <rho>6.9201191207932045e+00</rho>
      <alpha>
        1.</alpha>
      <index>
        1</index></_>
    <_>
      <sv_count>1</sv_count>
      <rho>1.9495695789228584e+00</rho>
      <alpha>
        1.</alpha>
      <index>
        2</index></_>
    <_>
      <sv_count>1</sv_count>
      <rho>6.0403460735401966e+00</rho>
      <alpha>
        1.</alpha>
      <index>
        3</index></_>
    <_>
      <sv_count>1</sv_count>
      <rho>3.2719016371866321e+00</rho>
      <alpha>
        1.</alpha>
      <index>
        4</index></_>
    <_>
      <sv_count>1</sv_count>
      <rho>3.2212145286792992e+00</rho>
      <alpha>
        1.</alpha>
      <index>
        5</index></_>
    <_>
      <sv_count>1</sv_count>
      <rho>-3.6351428558431444e+01</rho>
      <alpha>
        1.</alpha>
      <index>
        6</index></_>
    <_>
      <sv_count>1</sv_count>
      <rho>3.1892114967693592e+00</rho>
      <alpha>
        1.</alpha>
      <index>
        7</index></_>
    <_>
      <sv_count>1</sv_count>
      <rho>6.5290033746871385e+00</rho>
      <alpha>
        1.</alpha>
      <index>
        8</index></_>
    <_>
      <sv_count>1</sv_count>
      <rho>-5.4512004612488640e+00</rho>
      <alpha>
        1.</alpha>
      <index>
        9</index></_>
    <_>
      <sv_count>1</sv_count>
      <rho>2.4071593666935975e+01</rho>
      <alpha>
        1.</alpha>
      <index>
        10</index></_>
    <_>
      <sv_count>1</sv_count>
      <rho>-4.5085567524226704e+00</rho>
      <alpha>
        1.</alpha>
      <index>
        11</index></_>
    <_>
      <sv_count>1</sv_count>
      <rho>-8.3099106352730594e+00</rho>
      <alpha>
        1.</alpha>
      <index>
        12</index></_>
    <_>
      <sv_count>1</sv_count>
      <rho>-5.4044984341937568e+00</rho>
      <alpha>
        1.</alpha>
      <index>
        13</index></_>
    <_>
      <sv_count>1</sv_count>
      <rho>-3.3181565875096326e+00</rho>
      <alpha>
        1.</alpha>
      <index>
        14</index></_>
    <_>
      <sv_count>1</sv_count>
      <rho>-2.1815586508970547e+01</rho>
      <alpha>
        1.</alpha>
      <index>
        15</index></_>
    <_>
      <sv_count>1</sv_count>
      <rho>-4.8884793079426299e+00</rho>
      <alpha>
        1.</alpha>
      <index>
        16</index></_>
    <_>
      <sv_count>1</sv_count>
      <rho>-9.8767281532584672e+00</rho>
      <alpha>
        1.</alpha>
      <index>
        17</index></_>
    <_>
      <sv_count>1</sv_count>
      <rho>2.4125848358924862e-01</rho>
      <alpha>
        1.</alpha>
      <index>
        18</index></_>
    <_>
      <sv_count>1</sv_count>
      <rho>-1.4624455163296025e+01</rho>
      <alpha>
        1.</alpha>
      <index>
        19</index></_>
    <_>
      <sv_count>1</sv_count>
      <rho>1.2847921219126494e+01</rho>
      <alpha>
        1.</alpha>
      <index>
        20</index></_>
    <_>
      <sv_count>1</sv_count>
      <rho>-1.0564343087954255e+01</rho>
      <alpha>
        1.</alpha>
      <index>
        21</index></_>
    <_>
      <sv_count>1</sv_count>
      <rho>-9.1529798366991617e+00</rho>
      <alpha>
        1.</alpha>
      <index>
        22</index></_>
    <_>
      <sv_count>1</sv_count>
      <rho>5.1681095589085269e+00</rho>
      <alpha>
        1.</alpha>
      <index>
        23</index></_>
    <_>
      <sv_count>1</sv_count>
      <rho>-1.1554949309172956e+01</rho>
      <alpha>
        1.</alpha>
      <index>
        24</index></_>
    <_>
      <sv_count>1</sv_count>
      <rho>6.6780702021604634e+00</rho>
      <alpha>
        1.</alpha>
      <index>
        25</index></_>
    <_>
      <sv_count>1</sv_count>
      <rho>1.3978038923675195e+01</rho>
      <alpha>
        1.</alpha>
      <index>
        26</index></_>
    <_>
      <sv_count>1</sv_count>
      <rho>-2.7813546495127625e+01</rho>
      <alpha>
        1.</alpha>
      <index>
        27</index></_>
    <_>
      <sv_count>1</sv_count>
      <rho>9.1008751732356661e+00</rho>
      <alpha>
        1.</alpha>
      <index>
        28</index></_>
    <_>
      <sv_count>1</sv_count>
      <rho>1.8251629238445851e+01</rho>
      <alpha>
        1.</alpha>
      <index>
        29</index></_>
    <_>
      <sv_count>1</sv_count>
      <rho>-5.1241811817368452e+00</rho>
      <alpha>
        1.</alpha>
      <index>
        30</index></_>
    <_>
      <sv_count>1</sv_count>
      <rho>-2.6236334872877691e+00</rho>
      <alpha>
        1.</alpha>
      <index>
        31</index></_>
    <_>
      <sv_count>1</sv_count>
      <rho>4.3122774770525325e+00</rho>
      <alpha>
        1.</alpha>
      <index>
        32</index></_>
    <_>
      <sv_count>1</sv_count>
      <rho>-5.7352707105751044e+00</rho>
      <alpha>
        1.</alpha>
      <index>
        33</index></_>
    <_>
      <sv_count>1</sv_count>
      <rho>-3.3390584989579986e+00</rho>
      <alpha>
        1.</alpha>
      <index>
        34</index></_>
    <_>
      <sv_count>1</sv_count>
      <rho>4.4974183009036937e+00</rho>
      <alpha>
        1.</alpha>
      <index>
        35</index></_>
    <_>
      <sv_count>1</sv_count>
      <rho>1.3284843623865878e+01</rho>
      <alpha>
        1.</alpha>
      <index>
        36</index></_>
    <_>
      <sv_count>1</sv_count>
      <rho>-4.4695308941885052e+00</rho>
      <alpha>
        1.</alpha>
      <index>
        37</index></_>
    <_>
      <sv_count>1</sv_count>
      <rho>5.7020739342653100e+00</rho>
      <alpha>
        1.</alpha>
      <index>
        38</index></_>
    <_>
      <sv_count>1</sv_count>
      <rho>4.0037923121568184e+00</rho>
      <alpha>
        1.</alpha>
      <index>
        39</index></_>
    <_>
      <sv_count>1</sv_count>
      <rho>-5.9351960568637425e+00</rho>
      <alpha>
        1.</alpha>
      <index>
        40</index></_>
    <_>
      <sv_count>1</sv_count>
      <rho>-3.7483270034728711e+00</rho>
      <alpha>
        1.</alpha>
      <index>
        41</index></_>
    <_>
      <sv_count>1</sv_count>
      <rho>-2.4827600962727871e+01</rho>
      <alpha>
        1.</alpha>
      <index>
        42</index></_>
    <_>
      <sv_count>1</sv_count>
      <rho>-4.6846079635298281e+00</rho>
      <alpha>
        1.</alpha>
      <index>
        43</index></_>
    <_>
      <sv_count>1</sv_count>
      <rho>6.5665108324302874e+00</rho>
      <alpha>
        1.</alpha>
      <index>
        44</index></_></decision_functions></opencv_ml_svm>
</opencv_storage>
